svm_type c_svc
kernel_type rbf
gamma 0
nr_class 6
total_sv 300
rho -1 -1 -1 -1 -1 -1 -1 -1 -1 -1 -1 -1 1 -1 -1
label 0 1 2 3 4 5
nr_sv 100 100 59 18 17 6
SV
10 0 0 0 0 
10 0 0 0 0 
10 0 0 0 0 
10 0 0 0 0 
10 0 0 0 0 
10 0 0 0 0 
10 0 0 0 0 
10 0 0 0 0 
10 0 0 0 0 
10 0 0 0 0 
10 0 0 0 0 
10 0 0 0 0 
10 0 0 0 0 
10 0 0 0 0 
10 0 0 0 0 
10 0 0 0 0 
10 0 0 0 0 
10 0 0 0 0 
10 0 0 0 0 
10 0 0 0 0 
10 0 0 0 0 
10 0 0 0 0 
10 0 0 0 0 
10 0 0 0 0 
10 0 0 0 0 
10 0 0 0 0 
10 0 0 0 0 
10 0 0 0 0 
10 0 0 0 0 
10 0 0 0 0 
10 0 0 0 0 
10 0 0 0 0 
10 0 0 0 0 
10 0 0 0 0 
10 0 0 0 0 
10 0 0 0 0 
10 0 0 0 0 
10 0 0 0 0 
10 0 0 0 0 
10 0 0 0 0 
10 0 0 0 0 
10 10 0 0 0 
10 10 0 0 0 
10 10 0 0 0 
10 10 0 0 0 
10 10 0 0 0 
10 10 0 0 0 
10 10 0 0 0 
10 10 0 0 0 
10 10 0 0 0 
10 10 0 0 0 
10 10 0 0 0 
10 10 0 0 0 
10 10 0 0 0 
10 10 0 0 0 
10 10 0 0 0 
10 10 0 0 0 
10 10 0 0 0 
10 10 0 0 0 
10 10 0 0 0 
10 10 0 0 0 
10 10 0 0 0 
10 10 0 0 0 
10 10 0 0 0 
10 10 0 0 0 
10 10 0 0 0 
10 10 0 10 0 
10 10 0 10 0 
10 10 0 10 0 
10 10 0 10 0 
10 10 0 10 0 
10 10 0 10 0 
10 10 0 10 0 
10 10 0 10 0 
10 10 0 10 0 
10 10 0 10 0 
10 10 0 10 0 
10 10 0 10 0 
10 10 0 10 0 
10 10 0 10 0 
10 10 0 10 0 
10 10 0 10 0 
10 10 10 10 0 
10 10 10 10 0 
10 10 10 10 0 
10 10 10 10 0 
10 10 10 10 0 
10 10 10 10 0 
10 10 10 10 0 
10 10 10 10 0 
10 10 10 10 0 
10 10 10 10 0 
10 10 10 10 0 
10 10 10 10 0 
10 10 10 10 10 
10 10 10 10 10 
10 10 10 10 10 
10 10 10 10 10 
10 10 10 10 10 
10 10 10 10 10 
-10 0 0 0 0 
-10 0 0 0 0 
-10 0 0 0 0 
-10 0 0 0 0 
-10 0 0 0 0 
-10 0 0 0 0 
-10 0 0 0 0 
-10 0 0 0 0 
-10 0 0 0 0 
-10 0 0 0 0 
-10 0 0 0 0 
-10 0 0 0 0 
-10 0 0 0 0 
-10 0 0 0 0 
-10 0 0 0 0 
-10 0 0 0 0 
-10 0 0 0 0 
-10 0 0 0 0 
-10 0 0 0 0 
-10 0 0 0 0 
-10 0 0 0 0 
-10 0 0 0 0 
-10 0 0 0 0 
-10 0 0 0 0 
-10 0 0 0 0 
-10 0 0 0 0 
-10 0 0 0 0 
-10 0 0 0 0 
-10 0 0 0 0 
-10 0 0 0 0 
-10 0 0 0 0 
-10 0 0 0 0 
-10 0 0 0 0 
-10 0 0 0 0 
-10 0 0 0 0 
-10 0 0 0 0 
-10 0 0 0 0 
-10 0 0 0 0 
-10 0 0 0 0 
-10 0 0 0 0 
-10 0 0 0 0 
-10 10 0 0 0 
-10 10 0 0 0 
-10 10 0 0 0 
-10 10 0 0 0 
-10 10 0 0 0 
-10 10 0 0 0 
-10 10 0 0 0 
-10 10 0 0 0 
-10 10 0 0 0 
-10 10 0 0 0 
-10 10 0 0 0 
-10 10 0 0 0 
-10 10 0 0 0 
-10 10 0 0 0 
-10 10 0 0 0 
-10 10 0 0 0 
-10 10 0 0 0 
-10 10 0 0 0 
-10 10 0 0 0 
-10 10 0 0 0 
-10 10 0 0 0 
-10 10 0 0 0 
-10 10 0 0 0 
-10 10 0 0 0 
-10 10 0 0 0 
-10 10 0 10 0 
-10 10 0 10 0 
-10 10 0 10 0 
-10 10 0 10 0 
-10 10 0 10 0 
-10 10 0 10 0 
-10 10 0 10 0 
-10 10 0 10 0 
-10 10 0 10 0 
-10 10 0 10 0 
-10 10 0 10 0 
-10 10 0 10 0 
-10 10 0 10 0 
-10 10 0 10 0 
-10 10 0 10 0 
-10 10 0 10 0 
-10 10 10 10 0 
-10 10 10 10 0 
-10 10 10 10 0 
-10 10 10 10 0 
-10 10 10 10 0 
-10 10 10 10 0 
-10 10 10 10 0 
-10 10 10 10 0 
-10 10 10 10 0 
-10 10 10 10 0 
-10 10 10 10 0 
-10 10 10 10 0 
-10 10 10 10 10 
-10 10 10 10 10 
-10 10 10 10 10 
-10 10 10 10 10 
-10 10 10 10 10 
-10 10 10 10 10 
-10 -10 0 0 0 
-10 -10 0 0 0 
-10 -10 0 0 0 
-10 -10 0 0 0 
-10 -10 0 0 0 
-10 -10 0 0 0 
-10 -10 0 0 0 
-10 -10 0 0 0 
-10 -10 0 0 0 
-10 -10 0 0 0 
-10 -10 0 0 0 
-10 -10 0 0 0 
-10 -10 0 0 0 
-10 -10 0 0 0 
-10 -10 0 0 0 
-10 -10 0 0 0 
-10 -10 0 0 0 
-10 -10 0 0 0 
-10 -10 0 0 0 
-10 -10 0 0 0 
-10 -10 0 0 0 
-10 -10 0 0 0 
-10 -10 0 0 0 
-10 -10 0 0 0 
-10 -10 0 0 0 
-10 -10 0 10 0 
-10 -10 0 10 0 
-10 -10 0 10 0 
-10 -10 0 10 0 
-10 -10 0 10 0 
-10 -10 0 10 0 
-10 -10 0 10 0 
-10 -10 0 10 0 
-10 -10 0 10 0 
-10 -10 0 10 0 
-10 -10 0 10 0 
-10 -10 0 10 0 
-10 -10 0 10 0 
-10 -10 0 10 0 
-10 -10 0 10 0 
-10 -10 0 10 0 
-10 -10 10 10 0 
-10 -10 10 10 0 
-10 -10 10 10 0 
-10 -10 10 10 0 
-10 -10 10 10 0 
-10 -10 10 10 0 
-10 -10 10 10 0 
-10 -10 10 10 0 
-10 -10 10 10 0 
-10 -10 10 10 0 
-10 -10 10 10 0 
-10 -10 10 10 0 
-10 -10 10 10 10 
-10 -10 10 10 10 
-10 -10 10 10 10 
-10 -10 10 10 10 
-10 -10 10 10 10 
-10 -10 10 10 10 
-10 -10 -10 10 0 
-10 -10 -10 10 0 
-10 -10 -10 10 0 
-10 -10 -10 10 0 
-10 -10 -10 10 0 
-10 -10 -10 10 0 
-10 -10 -10 10 0 
-10 -10 -10 10 0 
-10 -10 -10 10 0 
-10 -10 -10 10 0 
-10 -10 -10 10 0 
-10 -10 -10 10 0 
-10 -10 -10 10 10 
-10 -10 -10 10 10 
-10 -10 -10 10 10 
-10 -10 -10 10 10 
-10 -10 -10 10 10 
-10 -10 -10 10 10 
-20 -20 -20 -0 0 
-20 -20 -20 -0 0 
-20 -20 -20 -0 0 
-20 -20 -20 -0 0 
-20 -20 -20 -0 0 
-20 -20 -20 -0 0 
-20 -20 -20 -0 0 
-20 -20 -20 -0 0 
-20 -20 -20 -20 0 
-20 -20 -20 -20 0 
-20 -20 -20 -20 0 
-20 -20 -20 -20 0 
-20 -20 -20 -20 0 
-20 -20 -20 -20 0 
-20 -20 -20 -20 20 
-20 -20 -20 -20 20 
-20 -20 -20 -20 20 
-10 -10 -10 -10 -10 
-10 -10 -10 -10 -10 
-10 -10 -10 -10 -10 
-10 -10 -10 -10 -10 
-10 -10 -10 -10 -10 
-10 -10 -10 -10 -10 
