svm_type c_svc
kernel_type rbf
gamma 0.5
nr_class 6
total_sv 56
rho -0.537777 -0.640181 -0.69532 -0.701581 -0.787913 -0.122869 -0.3091 -0.445367 -0.720091 -0.346602 -0.20802 -0.376835 0.0835978 -0.266853 -0.12522
label 8 16 10 12 13 15
nr_sv 13 10 10 5 7 11
SV
2.287950783248639 0.3374577224881191 0.3062013515688941 0.2774189454287348 0.1805067964144197 0:-1 1:-1 2:-1 3:-1 4:-1 5:-1 6:-1 7:-1 8:-1 9:-1 10:-1 11:-1 12:-1 13:-1 14:-1 15:-1 16:-1 17:-1 18:-1 19:-1 20:-1 21:-1 22:-1 23:-1 24:-1 25:-1 26:-1 27:-1 28:-1 29:-1 30:-1 31:-1 32:-1 33:-1 34:-1 35:-1 36:-1 37:-1 38:-1 39:-1 40:-1 41:-1 42:-1 43:-1 44:-1 45:-1 46:-1 47:-1 48:-1 49:-1 50:-1 51:-1 52:-1 53:-1 54:-1 55:-1 56:-1 57:-1 58:-1 59:-1 60:-1 61:-1 62:-1 63:-1 64:-1 65:-1 66:-1 67:-1 68:-1 69:-1 70:-1 71:-1 72:-1 73:-1 74:-1 75:-1 76:-1 77:-1 78:-1 79:-1 80:-1 81:-1 82:-1 83:-1 84:-1 85:-1 86:-1 87:-1 88:-1 89:-1 90:-1 91:-1 92:-1 93:-1 94:-1 95:-1 96:-1 97:-1 98:-1 99:-1 
0.5001500390170781 0.3345570734201033 0.2745801988805079 0.3036430221362735 0.249890002242754 0:0.203894 1:0.474194 2:0.710571 3:0.368871 4:0.28477 5:0.0630701 6:0.189734 7:0.991408 8:0.61196 9:0.741731 10:0.556458 11:0.632528 12:0.555697 13:0.447641 14:0.1802 15:0.112389 16:0.538498 17:0.0890845 18:0.319642 19:0.652545 20:0.716442 21:1 22:1 23:0.926796 24:0.832186 25:0.851164 26:0.771074 27:0.687271 28:0.440484 29:0.124864 30:0.0957499 31:0.229888 32:0.354893 33:-0.151182 34:-0.120436 35:-0.316805 36:0.194202 37:0.103875 38:0.116248 39:0.00965651 40:0.135493 41:0.0977148 42:0.142815 43:0.0238667 44:-0.0599526 45:0.371367 46:0.177639 47:0.106181 48:0.549817 49:0.171956 50:0.6139 51:0.576005 52:0.376064 53:0.34078 54:0.862978 55:0.775567 56:0.0527894 57:-0.0880525 58:-0.0806091 59:-0.153192 60:-0.153192 61:-0.153191 62:-0.153192 63:-0.15319 64:-0.678542 65:-0.153193 66:-0.153193 67:-0.908991 68:-0.93035 69:-0.713888 70:-0.863484 71:-0.756223 72:-0.739968 73:-0.650399 74:-0.440731 75:-0.061413 76:-0.0562392 77:-0.387372 78:-0.058464 79:-0.074822 80:0.74926 81:0.485894 82:1 83:1 84:1 85:1 86:1 87:1 88:1 89:1 90:1 91:1 92:1 93:1 94:1 95:1 96:1 97:1 98:1 99:1 
0.4978453176309074 0.3785461043335081 0.2965167137141318 0.3036351173851304 0.2473666183104646 0:0.448092 1:0.41434 2:0.524752 3:0.349918 4:0.364058 5:0.0504067 6:0.0802637 7:0.933952 8:0.746099 9:0.737125 10:0.319898 11:0.562101 12:0.476297 13:0.557586 14:0.0773016 15:-0.0887606 16:0.469957 17:0.159531 18:0.305264 19:0.539192 20:1 21:0.776337 22:0.939069 23:0.705592 24:0.573673 25:0.868028 26:0.593615 27:0.529614 28:0.498893 29:0.0223041 30:0.156943 31:0.141572 32:0.292053 33:0.248307 34:0.293523 35:0.35775 36:0.590561 37:0.289829 38:0.462346 39:0.520767 40:0.627449 41:0.429849 42:1 43:0.54435 44:0.184976 45:0.290746 46:0.134683 47:0.00256005 48:0.48885 49:0.331819 50:0.71811 51:0.729657 52:0.313458 53:0.28427 54:0.743493 55:0.827858 56:0.0938901 57:-0.137833 58:-0.0037184 59:0.160443 60:0.111922 61:-0.0157692 62:-0.0775158 63:-0.199415 64:-0.4327 65:-0.137834 66:-0.221656 67:-0.866156 68:-0.923177 69:-0.789617 70:-0.899617 71:-0.820745 72:-0.808795 73:-0.742931 74:-0.588761 75:-0.30984 76:-0.306033 77:-0.549522 78:-0.30767 79:-0.319698 80:0.286269 81:0.092609 82:0.470646 83:0.470637 84:0.470647 85:0.470644 86:0.470645 87:0.470645 88:0.470643 89:0.470645 90:0.470642 91:0.470644 92:0.470645 93:0.470642 94:0.470642 95:0.470637 96:0.470631 97:0.470645 98:0.470631 99:0.470627 
0.445314567316748 0.3515188659660221 0.3141562666655116 0.2660855064288306 0.2287606493940074 0:0.618644 1:0.522235 2:0.828384 3:0.608863 4:0.444731 5:0.119835 6:0.119076 7:0.863063 8:1 9:0.669273 10:0.193749 11:0.481587 12:0.586299 13:0.683645 14:0.155501 15:0.133519 16:0.39244 17:0.182538 18:0.453508 19:0.771138 20:0.807667 21:0.58492 22:0.759383 23:0.705688 24:0.477144 25:0.725966 26:0.486472 27:0.306524 28:0.310824 29:-0.134807 30:0.0782196 31:0.0874215 32:0.16375 33:0.213505 34:0.174554 35:0.225692 36:0.378837 37:-0.0354369 38:0.0779161 39:0.114768 40:0.187703 41:0.0490836 42:0.434234 43:0.130019 44:-0.16428 45:0.0667777 46:0.274084 47:0.547549 48:0.879687 49:0.569155 50:0.686415 51:0.451638 52:0.00867528 53:-0.0851015 54:0.229622 55:0.289122 56:-0.228519 57:-0.391945 58:-0.297359 59:-0.181581 60:-0.215802 61:-0.305858 62:-0.349406 63:-0.435377 64:-0.599901 65:-0.189261 66:-0.313826 67:0.0383457 68:0.029438 69:0.27179 70:0.769911 71:0.441215 72:0.517064 73:0.66798 74:0.698763 75:0.865863 76:0.223576 77:0.0397666 78:-0.0966877 79:-0.108958 80:0.407658 81:0.573265 82:0.417497 83:0.432308 84:0.536579 85:0.196759 86:0.131482 87:0.152434 88:0.102014 89:0.0371912 90:0.0735837 91:0.178627 92:0.0948125 93:0.0804095 94:0.0804095 95:0.0371934 96:0.0371875 97:0.0372016 98:0.185344 99:0.0371732 
0.4986518591267024 0.3663199369822865 0.2991300693232044 0.3482511257775303 0.2484425943241482 0:0.867897 1:0.818887 2:0.886905 3:0.542606 4:0.231981 5:0.258784 6:0.270678 7:0.794378 8:0.62556 9:0.276537 10:-0.038985 11:0.56005 12:0.380537 13:0.377912 14:-0.0208634 15:0.204218 16:0.446037 17:0.447147 18:0.582259 19:0.390566 20:0.34541 21:0.221259 22:0.414563 23:0.315406 24:0.295785 25:0.516185 26:0.442357 27:0.509085 28:0.641187 29:0.0350837 30:0.83442 31:0.544676 32:0.765724 33:1 34:1 35:1 36:0.836798 37:0.152799 38:-0.00249778 39:0.155434 40:0.227509 41:0.325699 42:0.61307 43:0.50601 44:0.439379 45:0.563026 46:1 47:1 48:1 49:0.833535 50:1 51:0.624573 52:0.123552 53:0.065294 54:0.382219 55:0.474229 56:-0.196711 57:-0.246099 58:-0.388217 59:-0.259135 60:-0.372239 61:-0.484535 62:-0.502862 63:-0.573884 64:-0.708835 65:-0.409989 66:-0.500644 67:-0.244354 68:-0.250837 69:-0.074464 70:0.288035 71:0.0488291 72:0.10403 73:0.213854 74:0.236258 75:0.35786 76:-0.109552 77:-0.243319 78:-0.342625 79:-0.351548 80:0.0244108 81:0.144931 82:0.0315685 83:0.0423507 84:0.118234 85:-0.129069 86:-0.176574 87:-0.161325 88:-0.198017 89:-0.245193 90:-0.21871 91:-0.142266 92:-0.203259 93:-0.213743 94:-0.213743 95:-0.245199 96:-0.2452 97:-0.245198 98:-0.137359 99:-0.245191 
0.3688261580785298 0.3032015100584764 0.2091171456865519 0.2042141504764194 0.1492447378280883 0:1 1:1 2:1 3:0.658706 4:0.36942 5:0.351073 6:0.720419 7:1 8:0.484237 9:0.291355 10:0.0518914 11:0.49635 12:0.231972 13:0.235078 14:-0.0549944 15:0.189386 16:0.590687 17:0.519092 18:0.334503 19:0.187204 20:0.280535 21:0.389313 22:0.39341 23:0.161492 24:0.186467 25:0.269454 26:0.351966 27:0.334153 28:0.385668 29:-0.137133 30:0.613543 31:0.311494 32:0.470114 33:0.707356 34:0.675168 35:0.639317 36:0.465657 37:-0.0473946 38:-0.165413 39:0.0401985 40:0.184211 41:0.272766 42:0.721142 43:1 44:0.652639 45:0.623352 46:0.659839 47:0.575365 48:0.574725 49:0.423512 50:0.559811 51:0.268172 52:-0.127701 53:-0.162593 54:0.0855264 55:0.160564 56:-0.376345 57:-0.414691 58:-0.525027 59:-0.390977 60:-0.494897 61:-0.56779 62:-0.48538 63:-0.385606 64:-0.0204269 65:0.851361 66:0.783365 67:1 68:1 69:1 70:1 71:1 72:1 73:0.372637 74:0.0534436 75:0.0542137 76:-0.118563 77:-0.412531 78:-0.48963 79:-0.496561 80:-0.20467 81:-0.111105 82:-0.199114 83:-0.190744 84:-0.131829 85:-0.323829 86:-0.360712 87:-0.348872 88:-0.377359 89:-0.413987 90:-0.393425 91:-0.334077 92:-0.381432 93:-0.38957 94:-0.38957 95:-0.413988 96:-0.413994 97:-0.413979 98:-0.330282 99:-0.413978 
0.3005063406830831 0.2213474497466395 0.2107902907251902 0.2013138365234446 0.1117502052439072 0:0.977044 1:0.823897 2:0.907061 3:0.579798 4:0.299843 5:0.276116 6:0.664303 7:0.901503 8:0.449443 9:0.242522 10:0.0266847 11:0.485502 12:0.2199 13:0.240434 14:0.244181 15:0.399164 16:0.701186 17:0.534211 18:0.484121 19:0.291481 20:0.491154 21:0.492572 22:0.513288 23:0.238894 24:0.428727 25:0.652725 26:0.603692 27:0.718064 28:0.720489 29:-0.045367 30:0.940239 31:0.455184 32:0.512715 33:0.820776 34:0.597591 35:0.806419 36:0.826142 37:0.145776 38:-0.0832028 39:0.175342 40:0.402884 41:0.481506 42:0.814053 43:0.938855 44:0.674442 45:0.525765 46:0.708862 47:0.523597 48:0.540414 49:0.405068 50:0.467072 51:0.167532 52:-0.21953 53:-0.255486 54:-0.0304411 55:0.0938445 56:-0.434756 57:-0.479362 58:-0.593903 59:-0.44623 60:-0.550392 61:-0.587352 62:-0.54126 63:-0.448868 64:-0.0442108 65:0.593155 66:0.560942 67:0.767632 68:0.645047 69:0.646496 70:0.658519 71:0.648389 72:0.636694 73:0.123294 74:-0.137918 75:-0.137287 76:-0.278679 77:-0.519245 78:-0.582338 79:-0.588008 80:-0.349145 81:-0.272573 82:-0.344596 83:-0.337744 84:-0.289534 85:-0.446658 86:-0.476839 87:-0.467151 88:-0.490464 89:-0.520436 90:-0.503611 91:-0.455042 92:-0.493793 93:-0.500451 94:-0.500451 95:-0.520441 96:-0.520443 97:-0.520438 98:-0.451935 99:-0.520444 
0.1005371646928183 0.06320059568004073 0 0 0 0:0.94745 1:0.828736 2:0.830002 3:0.641893 4:0.338324 5:0.320172 6:0.631893 7:0.852437 8:0.384618 9:0.209641 10:0.042237 11:0.629519 12:0.334136 13:0.417913 14:0.338766 15:0.477865 16:0.766288 17:0.587091 18:0.539052 19:0.35511 20:0.45361 21:0.462539 22:0.429768 23:0.162025 24:0.407867 25:0.61709 26:0.516667 27:0.752653 28:0.680719 29:-0.0851693 30:0.862761 31:0.340824 32:0.476542 33:0.809358 34:0.511365 35:0.654731 36:0.699446 37:0.0485412 38:-0.167558 39:0.0862763 40:0.287682 41:0.284504 42:0.589508 43:0.697977 44:0.46486 45:0.334618 46:0.514937 47:0.418694 48:0.510315 49:0.589861 50:0.572607 51:0.197069 52:-0.205928 53:-0.288197 54:-0.0685759 55:0.0744544 56:-0.443164 57:-0.436502 58:-0.533981 59:-0.37567 60:-0.423609 61:-0.540311 62:-0.497644 63:-0.337763 64:0.0167438 65:0.46598 66:0.491565 67:0.642267 68:0.496906 69:0.499952 70:0.531551 71:0.700263 72:0.766157 73:0.290056 74:0.198709 75:0.458957 76:0.052417 77:-0.085356 78:-0.312771 79:-0.0754978 80:0.296356 81:-0.0208854 82:-0.188998 83:0.390288 84:-0.0988867 85:-0.313765 86:-0.21357 87:-0.436802 88:-0.467779 89:-0.346693 90:-0.480673 91:-0.47469 92:-0.549444 93:-0.476228 94:-0.442437 95:-0.459331 96:-0.304851 97:-0.107897 98:-0.420705 99:-0.0876296 
0.1704959317168513 0.14696448106014 0.1831664450849912 0.1492789726994712 0.1414901762070083 0:0.918143 1:0.802345 2:0.764422 3:0.58717 4:0.271356 5:0.277608 6:0.552289 7:0.789332 8:0.467774 9:0.192064 10:0.00226613 11:0.532439 12:0.272996 13:0.381597 14:0.37699 15:0.625544 16:0.925985 17:0.625602 18:0.561127 19:0.398719 20:0.479383 21:0.39813 22:0.421628 23:0.177676 24:0.491682 25:0.64216 26:0.723477 27:1 28:0.984962 29:0.0609339 30:1 31:0.379303 32:0.58918 33:0.972368 34:0.601866 35:0.785528 36:0.741408 37:0.112763 38:-0.112772 39:0.0869542 40:0.31305 41:0.307646 42:0.584745 43:0.679489 44:0.479857 45:0.445275 46:0.460347 47:0.317527 48:0.460489 49:0.536511 50:0.447464 51:0.104685 52:-0.253848 53:-0.328056 54:-0.134954 55:0.0151777 56:-0.432964 57:-0.421897 58:-0.382668 59:-0.188685 60:-0.328987 61:-0.368671 62:-0.280939 63:-0.239518 64:0.164939 65:0.469347 66:0.39934 67:0.497629 68:0.365069 69:0.367846 70:0.396664 71:0.550513 72:0.610609 73:0.176434 74:0.093137 75:0.330463 76:-0.0402718 77:-0.165913 78:-0.373296 79:-0.156923 80:0.182182 81:-0.107118 82:-0.260424 83:0.267843 84:-0.178248 85:-0.374207 86:-0.282837 87:-0.486407 88:-0.514654 89:-0.40423 90:-0.526412 91:-0.520956 92:-0.589123 93:-0.522357 94:-0.491542 95:-0.506951 96:-0.366077 97:-0.186455 98:-0.471727 99:-0.167968 
0.1992954322122548 0.2433795791611517 0.1750365614358985 0.2444889382904457 0.1159756911065 0:0.907148 1:0.884222 2:0.757133 3:0.54849 4:0.301219 5:0.277577 6:0.486921 7:0.767575 8:0.535942 9:0.268354 10:0.0433477 11:0.635499 12:0.347464 13:0.448669 14:0.437725 15:0.626763 16:0.953505 17:0.61458 18:0.561865 19:0.385905 20:0.501521 21:0.366618 22:0.355795 23:0.108687 24:0.39867 25:0.543838 26:0.595572 27:0.846947 28:0.847196 29:0.00570414 30:0.895353 31:0.309248 32:0.534975 33:0.83704 34:0.505569 35:0.680501 36:0.671628 37:0.0506205 38:-0.169 39:0.00541866 40:0.220598 41:0.202971 42:0.461128 43:0.620854 44:0.459429 45:0.398058 46:0.383369 47:0.29398 48:0.450796 49:0.588004 50:0.483139 51:0.0842574 52:-0.265456 53:-0.222422 54:-0.134573 55:-0.0533488 56:-0.476374 57:-0.463047 58:-0.426102 59:-0.248863 60:-0.38947 61:-0.420981 62:-0.345753 63:-0.301282 64:0.0923848 65:0.347866 66:0.291016 67:0.400914 68:0.300614 69:0.306437 70:0.347325 71:0.665019 72:0.913814 73:0.670288 74:0.922005 75:0.934231 76:0.64721 77:0.255476 78:-0.160519 79:0.000551773 80:0.359752 81:-0.000118723 82:-0.15886 83:0.3298 84:-0.115246 85:-0.327086 86:-0.194545 87:-0.373819 88:-0.481296 89:-0.29905 90:-0.510073 91:-0.548841 92:-0.626161 93:-0.56541 94:-0.537372 95:-0.551389 96:-0.423217 97:-0.259804 98:-0.519347 99:-0.242994 
0.2535433421687016 0.1099929445717161 0.1153189767755254 0.1282474404635536 0.09116152196045481 0:0.85334 1:0.774316 2:0.748218 3:0.58324 4:0.468763 5:0.380921 6:0.551242 7:0.631661 8:0.461298 9:0.301517 10:0.039584 11:0.756684 12:0.398013 13:0.482881 14:0.51675 15:0.555865 16:0.874694 17:0.539511 18:0.451402 19:0.274845 20:0.418719 21:0.339022 22:0.293531 23:0.0475846 24:0.31887 25:0.512316 26:0.582946 27:0.733273 28:0.703229 29:-0.0692975 30:0.78182 31:0.233203 32:0.466664 33:0.713458 34:0.397823 35:0.68159 36:0.855613 37:0.077159 38:-0.132322 39:0.164913 40:0.46059 41:0.329153 42:0.459821 43:0.668875 44:0.667002 45:0.504462 46:0.647718 47:0.438152 48:0.314805 49:0.726006 50:0.596413 51:0.0145413 52:-0.343819 53:-0.305376 54:-0.0487363 55:0.186386 56:-0.432492 57:-0.154868 58:-0.272804 59:-0.0629085 60:-0.286439 61:-0.211813 62:-0.0149178 63:-0.163723 64:1 65:0.722896 66:0.41576 67:0.333524 68:0.16186 69:0.167064 70:0.203589 71:0.487393 72:0.709645 73:0.492096 74:0.716963 75:0.727882 76:0.471485 77:0.121538 78:-0.250075 79:-0.106191 80:0.21469 81:-0.106791 82:-0.248593 83:0.187936 84:-0.209634 85:-0.398873 86:-0.280473 87:-0.44062 88:-0.536633 89:-0.373828 90:-0.562339 91:-0.596973 92:-0.66604 93:-0.611772 94:-0.586723 95:-0.599249 96:-0.484762 97:-0.338745 98:-0.57062 99:-0.323732 
0.1310238029043839 0.814389180102474 0 0 0 0:0.817228 1:0.844429 2:0.839402 3:0.68543 4:0.483982 5:0.380491 6:0.760716 7:0.5875 8:0.39319 9:0.318097 10:0.214738 11:0.85722 12:0.518381 13:0.469602 14:0.549842 15:0.524874 16:0.773723 17:0.444489 18:0.377468 19:0.2326 20:0.318735 21:0.261172 22:0.230047 23:-0.0143841 24:0.282528 25:0.431709 26:0.605518 27:0.642661 28:0.639834 29:-0.12408 30:0.676084 31:0.158938 32:0.401 33:0.633535 34:0.371527 35:0.600839 36:0.745264 37:0.0130439 38:-0.189266 39:0.0821191 40:0.341634 41:0.208256 42:0.329334 43:0.512617 44:0.529253 45:0.364109 46:0.514749 47:0.359851 48:0.426665 49:0.867638 50:0.826504 51:-0.0282819 52:-0.338336 53:-0.359912 54:-0.125454 55:0.102463 56:-0.471292 57:-0.226953 58:-0.342446 59:-0.147422 60:-0.354775 61:-0.287295 62:-0.109258 63:-0.243813 64:0.808465 65:0.557899 66:0.280174 67:0.205814 68:0.0505909 69:0.055294 70:0.0883243 71:0.344947 72:0.545912 73:0.349201 74:0.671959 75:0.891891 76:0.939736 77:0.854194 78:0.535331 79:0.293134 80:1 81:0.531202 82:-0.0397183 83:0.449482 84:-0.00348009 85:-0.261322 86:-0.250552 87:-0.403599 88:-0.490418 89:-0.418696 90:-0.604254 91:-0.623217 92:-0.682926 93:-0.648952 94:-0.614981 95:-0.637628 96:-0.534094 97:-0.40209 98:-0.611757 99:-0.388491 
0.3208487934544123 3.672474215721041 0.5141555417675155 0.2920803054919723 0.2123464117926606 0:0.761073 1:0.794761 2:0.824298 3:0.669015 4:0.501879 5:0.366189 6:0.809833 7:0.62003 8:0.373587 9:0.284901 10:0.226975 11:0.848422 12:0.554586 13:0.432866 14:0.576165 15:0.621333 16:0.807206 17:0.538714 18:0.476577 19:0.331994 20:0.389491 21:0.252758 22:0.267693 23:0.1442 24:0.343031 25:0.473865 26:0.738117 27:0.750491 28:0.676573 29:-0.162238 30:0.578858 31:0.0943792 32:0.316731 33:0.535279 34:0.289031 35:0.50455 36:1 37:0.152961 38:-0.162653 39:0.0711061 40:0.452657 41:0.175635 42:0.26397 43:0.445105 44:0.588201 45:0.439689 46:0.454757 47:0.34048 48:0.669681 49:0.913142 50:0.762787 51:-0.0416673 52:-0.369686 53:-0.382641 54:-0.175354 55:0.0361523 56:-0.503092 57:-0.273451 58:-0.381998 59:-0.198702 60:-0.393585 61:-0.330166 62:-0.162835 63:-0.289296 64:0.699686 65:0.46419 66:0.203172 67:0.133285 68:-0.0126008 69:-0.00817907 70:0.0228605 71:0.264048 72:0.452927 73:0.268044 74:0.571391 75:0.778096 76:0.823058 77:0.742666 78:0.442984 79:0.215352 80:0.8797 81:0.439102 82:-0.0974754 83:0.362293 84:-0.063417 85:-0.305751 86:-0.29563 87:-0.43947 88:-0.521066 89:-0.453661 90:-0.628056 91:-0.645879 92:-0.701999 93:-0.670066 94:-0.638139 95:-0.659427 96:-0.562128 97:-0.438045 98:-0.63511 99:-0.425284 
-1.498651859126694 0.8723323709129214 0.6805319378633049 0.5571229643072569 0.2240838526558999 0:0.483115 1:0.52456 2:0.649792 3:0.435215 4:-0.086589 5:0.114154 6:-0.34018 7:0.529366 8:0.555606 9:1 10:1 11:0.828995 12:0.613695 13:-0.220658 14:-0.759706 15:-0.585171 16:0.319219 17:-0.0890093 18:-0.00705604 19:0.272088 20:0.83985 21:0.698379 22:0.924437 23:1 24:1 25:1 26:0.320929 27:0.36473 28:-0.0371289 29:1 30:-0.203706 31:1 32:1 33:0.0294644 34:0.142548 35:-0.0841868 36:0.596497 37:1 38:1 39:1 40:1 41:1 42:0.619467 43:0.860137 44:0.0149533 45:0.684233 46:0.582498 47:-0.14939 48:0.653071 49:0.409132 50:0.649851 51:1 52:1 53:1 54:1 55:1 56:1 57:1 58:1 59:1 60:1 61:1 62:1 63:1 64:-0.240775 65:1 66:1 67:-0.785051 68:-0.835498 69:-0.517329 70:-0.892524 71:-1 72:-1 73:-1 74:-1 75:-1 76:-1 77:-1 78:-1 79:-1 80:-1 81:-1 82:-1 83:-1 84:-1 85:-1 86:-1 87:-1 88:-1 89:-1 90:-1 91:-1 92:-1 93:-1 94:-1 95:-1 96:-1 97:-1 98:-1 99:-1 
-1.006325037903656 0.4835066351362521 0.9917769303528433 5 5 0:0.475572 1:0.509009 2:0.800412 3:0.902681 4:0.925078 5:0.925583 6:0.849137 7:0.601263 8:0.197914 9:0.0771626 10:0.201981 11:0.995368 12:0.965404 13:0.959643 14:0.971966 15:0.950554 16:0.978787 17:0.964489 18:0.970711 19:0.977658 20:0.915069 21:0.636391 22:0.945268 23:0.325992 24:0.575703 25:0.886997 26:0.897192 27:0.727517 28:0.740227 29:-0.120855 30:0.68051 31:0.269451 32:0.311399 33:0.428487 34:0.254704 35:0.102139 36:0.302451 37:-0.0805359 38:-0.203303 39:-0.0203078 40:0.0447086 41:-0.184143 42:0.212934 43:0.367798 44:0.380695 45:0.354166 46:0.148489 47:0.32371 48:0.2131 49:0.0652615 50:0.145095 51:-0.0847855 52:-0.603968 53:-0.570391 54:-0.523843 55:-0.453344 56:-0.58399 57:-0.644091 58:-0.546417 59:-0.422522 60:-0.604767 61:-0.613886 62:-0.515464 63:-0.48002 64:0.120797 65:-0.014651 66:-0.119346 67:-0.126588 68:-0.170942 69:0.048031 70:-0.00922965 71:0.0917661 72:0.579814 73:0.801512 74:0.874256 75:0.741749 76:0.588511 77:0.349325 78:0.211773 79:0.33067 80:0.192154 81:0.252806 82:0.0696223 83:-0.0529508 84:-0.241363 85:-0.472246 86:-0.469473 87:-0.655582 88:-0.767518 89:-0.690023 90:-0.859042 91:-0.881646 92:-0.884274 93:-0.878079 94:-0.83468 95:-0.834674 96:-0.865381 97:-0.811531 98:-0.851204 99:-0.789226 
-0 0 0 0.7661678096833099 5 0:0.480894 1:0.515234 2:0.796677 3:0.899198 4:0.916984 5:0.915567 6:0.834603 7:0.604409 8:0.210863 9:0.0827572 10:0.197491 11:0.987303 12:0.954932 13:0.964791 14:0.967484 15:0.941009 16:0.970885 17:0.972283 18:0.993083 19:0.988957 20:0.911729 21:0.637323 22:0.949746 23:0.32317 24:0.579619 25:0.884846 26:0.930041 27:0.727949 28:0.74153 29:-0.125416 30:0.701853 31:0.275613 32:0.3119 33:0.46773 34:0.274281 35:0.0949257 36:0.300228 37:-0.0881247 38:-0.209311 39:-0.0279559 40:0.0388991 41:-0.190378 42:0.210845 43:0.390146 44:0.386667 45:0.350848 46:0.155739 47:0.353368 48:0.21155 49:0.0588719 50:0.139164 51:-0.094506 52:-0.608674 53:-0.575063 54:-0.528462 55:-0.459837 56:-0.588371 57:-0.648319 58:-0.550622 59:-0.428439 60:-0.607978 61:-0.617804 62:-0.520451 63:-0.484222 64:0.109059 65:-0.0199753 66:-0.128514 67:-0.128043 68:-0.177378 69:0.0495986 70:-0.0120802 71:0.0943255 72:0.612017 73:0.845211 74:0.861776 75:0.738306 76:0.581201 77:0.342846 78:0.206604 79:0.335914 80:0.186857 81:0.242477 82:0.0569128 83:-0.0642052 84:-0.250377 85:-0.478515 86:-0.475773 87:-0.659675 88:-0.770281 89:-0.693708 90:-0.860716 91:-0.883052 92:-0.88565 93:-0.879524 94:-0.836644 95:-0.836645 96:-0.866979 97:-0.813768 98:-0.852985 99:-0.791742 
-0 0 0 0 5 0:0.474483 1:0.504927 2:0.793525 3:0.892992 4:0.909335 5:0.908259 6:0.830556 7:0.617367 8:0.208279 9:0.0830478 10:0.205992 11:0.99705 12:0.959028 13:0.956702 14:0.958584 15:0.948245 16:0.975553 17:0.991051 18:0.991544 19:0.981251 20:0.912225 21:0.637093 22:0.959857 23:0.328301 24:0.594724 25:0.895533 26:0.94917 27:0.737069 28:0.744696 29:-0.112042 30:0.721132 31:0.265905 32:0.30045 33:0.455405 34:0.290494 35:0.0863437 36:0.288484 37:-0.0894429 38:-0.208737 39:-0.0340115 40:0.0338077 41:-0.186541 42:0.214456 43:0.389844 44:0.397148 45:0.359559 46:0.159602 47:0.36377 48:0.222723 49:0.064509 50:0.151974 51:-0.0964099 52:-0.61238 53:-0.578581 54:-0.53229 55:-0.46076 56:-0.592608 57:-0.651412 58:-0.55466 59:-0.432455 60:-0.611281 61:-0.620412 62:-0.524626 63:-0.488552 64:0.10232 65:-0.0269027 66:-0.134916 67:-0.1315 68:-0.178243 69:0.0427633 70:-0.00900423 71:0.10671 72:0.611191 73:0.872005 74:0.856177 75:0.737487 76:0.57637 77:0.339829 78:0.212453 79:0.326969 80:0.17903 81:0.234191 82:0.0508884 83:-0.0738389 84:-0.258089 85:-0.483883 86:-0.481173 87:-0.663177 88:-0.772645 89:-0.696859 90:-0.862152 91:-0.884254 92:-0.886826 93:-0.880762 94:-0.838322 95:-0.838323 96:-0.868348 97:-0.815686 98:-0.854491 99:-0.79386 
-0 0 0 0 5 0:0.48529 1:0.507379 2:0.800994 3:0.902337 4:0.909265 5:0.903129 6:0.832236 7:0.616292 8:0.199075 9:0.0747926 10:0.197667 11:0.995007 12:0.951293 13:0.961449 14:0.97026 15:0.9527 16:0.976028 17:0.994617 18:0.985902 19:0.982865 20:0.932045 21:0.659482 22:0.968543 23:0.324334 24:0.577775 25:0.878078 26:0.931759 27:0.724551 28:0.730579 29:-0.120506 30:0.709622 31:0.257248 32:0.296292 33:0.45195 34:0.284851 35:0.0837781 36:0.294465 37:-0.0910897 38:-0.210068 39:-0.0223428 40:0.035633 41:-0.184303 42:0.217345 43:0.391971 44:0.389356 45:0.356412 46:0.155775 47:0.367676 48:0.235024 49:0.0624677 50:0.156672 51:-0.0900837 52:-0.607577 53:-0.57601 54:-0.526686 55:-0.453353 56:-0.589114 57:-0.649686 58:-0.554631 59:-0.427821 60:-0.60907 61:-0.617479 62:-0.521769 63:-0.483587 64:0.0988316 65:-0.025461 66:-0.138506 67:-0.137292 68:-0.183043 69:0.0400332 70:-0.00440122 71:0.135572 72:0.593453 73:0.862842 74:0.862759 75:0.724363 76:0.581385 77:0.323827 78:0.196764 79:0.309798 80:0.163772 81:0.218223 82:0.0372894 83:-0.0858239 84:-0.267689 85:-0.490562 86:-0.487884 87:-0.667536 88:-0.775588 89:-0.700783 90:-0.863935 91:-0.885754 92:-0.888291 93:-0.882307 94:-0.840419 95:-0.840413 96:-0.87006 97:-0.818083 98:-0.856386 99:-0.796536 
-0 0 0 0 5 0:0.495354 1:0.526504 2:0.815964 3:0.895022 4:0.920835 5:0.888596 6:0.854804 7:0.610758 8:0.183651 9:0.0632873 10:0.187 11:0.975054 12:0.972971 13:0.963409 14:0.967509 15:0.951425 16:0.981148 17:0.997934 18:0.991928 19:0.99675 20:0.965093 21:0.653265 22:0.954633 23:0.314118 24:0.570839 25:0.860211 26:0.908842 27:0.706425 28:0.712176 29:-0.129844 30:0.689416 31:0.240294 32:0.278929 33:0.433884 34:0.278282 35:0.0790409 36:0.285494 37:-0.0950067 38:-0.213736 39:-0.0280704 40:0.0355884 41:-0.187507 42:0.208929 43:0.433004 44:0.438284 45:0.369499 46:0.138822 47:0.347974 48:0.232879 49:0.0519477 50:0.150125 51:-0.0946507 52:-0.605464 53:-0.578831 54:-0.518971 55:-0.451207 56:-0.589675 57:-0.637759 58:-0.557701 59:-0.423869 60:-0.602756 61:-0.61039 62:-0.524663 63:-0.486448 64:0.095246 65:-0.0250082 66:-0.109573 67:-0.133904 68:-0.165329 69:0.10735 70:0.023275 71:0.120426 72:0.645119 73:0.917318 74:0.901731 75:0.720232 76:0.560629 77:0.29949 78:0.174764 79:0.285721 80:0.142378 81:0.195829 82:0.0182199 83:-0.102626 84:-0.281154 85:-0.499928 86:-0.497298 87:-0.673648 88:-0.779712 89:-0.706283 90:-0.866435 91:-0.887853 92:-0.890346 93:-0.884471 94:-0.843349 95:-0.843356 96:-0.872435 97:-0.821407 98:-0.859012 99:-0.800292 
-0 0 0 0 3.641087455789019 0:0.482178 1:0.510505 2:0.83353 3:0.927343 4:0.943322 5:0.903671 6:0.837284 7:0.619651 8:0.192943 9:0.0588367 10:0.184952 11:0.974358 12:0.993878 13:0.986237 14:0.981636 15:0.957106 16:0.985898 17:0.990165 18:0.999412 19:0.97833 20:0.946478 21:0.622745 22:0.933324 23:0.306927 24:0.560953 25:0.818561 26:0.867309 27:0.667778 28:0.67684 29:-0.150893 30:0.655431 31:0.200493 32:0.246882 33:0.411299 34:0.273137 35:0.0674403 36:0.256037 37:-0.105005 38:-0.217813 39:-0.0473692 40:0.014277 41:-0.195841 42:0.230961 43:0.476282 44:0.468575 45:0.38638 46:0.136348 47:0.338046 48:0.219679 49:0.0557835 50:0.151789 51:-0.0998925 52:-0.593012 53:-0.57254 54:-0.507736 55:-0.421847 56:-0.556772 57:-0.616151 58:-0.535207 59:-0.418702 60:-0.593641 61:-0.595354 62:-0.507543 63:-0.46625 64:0.126571 65:-0.000353914 66:-0.0678947 67:-0.113684 68:-0.142262 69:0.130138 70:0.0510458 71:0.125038 72:0.612661 73:0.922435 74:0.877294 75:0.757923 76:0.606052 77:0.301208 78:0.21699 79:0.244573 80:0.117244 81:0.192129 82:0.0823157 83:-0.0143477 84:-0.282734 85:-0.512544 86:-0.520827 87:-0.687844 88:-0.790865 89:-0.714988 90:-0.868305 91:-0.894002 92:-0.895127 93:-0.890803 94:-0.850087 95:-0.848244 96:-0.879443 97:-0.822334 98:-0.86675 99:-0.811238 
-0 0 0 0 0.08555750691876468 0:0.492093 1:0.504607 2:0.831464 3:0.916619 4:0.9336 5:0.899905 6:0.852689 7:0.619879 8:0.193577 9:0.0610357 10:0.182767 11:0.970028 12:0.994233 13:0.992616 14:0.990464 15:0.967203 16:0.994488 17:0.994354 18:1 19:0.976688 20:0.955206 21:0.622473 22:0.936248 23:0.300465 24:0.545074 25:0.802681 26:0.854708 27:0.658646 28:0.666156 29:-0.152867 30:0.657085 31:0.216108 32:0.261596 33:0.417926 34:0.29304 35:0.0817451 36:0.25976 37:-0.103833 38:-0.217111 39:-0.0516786 40:0.00639002 41:-0.201638 42:0.220756 43:0.471246 44:0.462191 45:0.415586 46:0.134304 47:0.326602 48:0.212327 49:0.0493122 50:0.143948 51:-0.109837 52:-0.597338 53:-0.577998 54:-0.513557 55:-0.428628 56:-0.561428 57:-0.620577 58:-0.541142 59:-0.424438 60:-0.598167 61:-0.599922 62:-0.513144 63:-0.473064 64:0.116415 65:-0.0116896 66:-0.0797944 67:-0.124007 68:-0.150924 69:0.132735 70:0.0745407 71:0.139534 72:0.623423 73:0.98067 74:0.911134 75:0.742337 76:0.59977 77:0.32489 78:0.22622 79:0.240269 80:0.112237 81:0.193197 82:0.0758012 83:-0.0164936 84:-0.291896 85:-0.518768 86:-0.526943 87:-0.691826 88:-0.793535 89:-0.718623 90:-0.869987 91:-0.895356 92:-0.896463 93:-0.892201 94:-0.852005 95:-0.850174 96:-0.880972 97:-0.824603 98:-0.86844 99:-0.813635 
-0.629689633522702 0.4257484599861762 0 0 0.9861173796258675 0:0.494566 1:0.503491 2:0.826746 3:0.903891 4:0.922561 5:0.897058 6:0.865621 7:0.615033 8:0.191357 9:0.0573474 10:0.187992 11:0.965596 12:1 13:1 14:1 15:0.97086 16:1 17:0.988676 18:0.997203 19:0.991641 20:0.973069 21:0.625658 22:0.932858 23:0.297859 24:0.534754 25:0.790323 26:0.83963 27:0.647339 28:0.658783 29:-0.154351 30:0.66681 31:0.217901 32:0.287485 33:0.41996 34:0.299282 35:0.106593 36:0.273927 37:-0.10193 38:-0.215825 39:-0.049382 40:0.0211737 41:-0.193003 42:0.236458 43:0.467284 44:0.458184 45:0.40078 46:0.133922 47:0.343855 48:0.199972 49:0.0399295 50:0.133961 51:-0.114742 52:-0.602377 53:-0.583416 54:-0.519766 55:-0.435226 56:-0.566863 57:-0.625195 58:-0.546293 59:-0.431204 60:-0.600132 61:-0.603418 62:-0.518917 63:-0.479037 64:0.104236 65:-0.0219375 66:-0.0898419 67:-0.126021 68:-0.155081 69:0.132924 70:0.0941962 71:0.182888 72:0.62493 73:1 74:0.919394 75:0.767516 76:0.620945 77:0.33557 78:0.210298 79:0.224962 80:0.0998602 81:0.183749 82:0.0600502 83:-0.0308984 84:-0.302265 85:-0.525816 86:-0.533873 87:-0.69634 88:-0.796561 89:-0.722747 90:-0.871891 91:-0.896889 92:-0.897981 93:-0.893779 94:-0.854169 95:-0.852372 96:-0.88273 97:-0.82716 98:-0.87038 99:-0.816351 
-2.940323001698057 0.8723323709129214 0.7234336711993359 0.5599337881054438 0.2872376576663488 1:-1 2:-1 3:-1 4:-1 5:-1 6:-1 7:-1 8:-1 9:-1 10:-1 11:-1 12:-1 13:-1 14:-1 15:-1 16:-1 17:-1 18:-1 19:-1 20:-1 21:-1 22:-1 23:-1 24:-1 25:-1 26:-1 27:-1 28:-1 29:-1 30:-1 31:-1 32:-1 33:-1 34:-1 35:-1 36:-1 37:-1 38:-1 39:-1 40:-1 41:-1 42:-1 43:-1 44:-1 45:-1 46:-1 47:-1 48:-1 49:-1 50:-1 51:-1 52:-1 53:-1 54:-1 55:-1 56:-1 57:-1 58:-1 59:-1 60:-1 61:-1 62:-1 63:-1 64:-1 65:-1 66:-1 67:-1 68:-1 69:-1 70:-1 71:-1 72:-1 73:-1 74:-1 75:-1 76:-1 77:-1 78:-1 79:-1 80:-1 81:-1 82:-1 83:-1 84:-1 85:-1 86:-1 87:-1 88:-1 89:-1 90:-1 91:-1 92:-1 93:-1 94:-1 95:-1 96:-1 97:-1 98:-1 99:-1 
-3.684461277033304 -0.597895455677656 0.3883882223364519 0.4396551093986491 0.4047376224868759 0:0.705628 1:0.746021 2:0.762841 3:0.621522 4:0.50886 5:0.398031 6:0.798332 7:0.603922 8:0.369773 9:0.289563 10:0.246786 11:0.868606 12:0.543357 13:0.414774 14:0.542257 15:0.574421 16:0.79282 17:0.545227 18:0.49232 19:0.301294 20:0.364918 21:0.254783 22:0.276552 23:0.183316 24:0.379292 25:0.463766 26:0.754873 27:0.811068 28:0.711668 29:-0.13307 30:0.584261 31:0.1295 32:0.284159 33:0.626771 34:0.390193 35:0.525699 36:0.947031 37:0.131345 38:-0.160649 39:0.124957 40:0.517409 41:0.245978 42:0.347382 43:0.554026 44:0.665262 45:0.606802 46:0.415005 47:0.346953 48:0.726802 49:0.859485 50:0.69047 51:-0.0698233 52:-0.363734 53:-0.394955 54:-0.186096 55:0.0702027 56:-0.508375 57:-0.30568 58:-0.409412 59:-0.234248 60:-0.420485 61:-0.359879 62:-0.19997 63:-0.320823 64:0.624286 65:0.399241 66:0.149801 67:0.0941199 68:-0.052152 69:-0.0471884 70:-0.00584829 71:0.237729 72:0.451951 73:0.399542 74:0.803972 75:0.861507 76:0.871776 77:0.916867 78:0.614547 79:0.427603 80:0.869941 81:0.473498 82:0.0740381 83:0.697073 84:0.0216026 85:-0.273959 86:-0.178937 87:-0.38975 88:-0.527055 89:-0.437215 90:-0.584601 91:-0.661587 92:-0.715219 93:-0.684701 94:-0.654192 95:-0.674528 96:-0.581555 97:-0.462974 98:-0.651296 99:-0.450772 
-0 -0 0.239296893688798 0 0 0:0.693532 1:0.729101 2:0.724326 3:0.632657 4:0.529181 5:0.393895 6:0.775253 7:0.613585 8:0.369782 9:0.268593 10:0.229143 11:0.83658 12:0.532925 13:0.39822 14:0.545302 15:0.599011 16:0.80117 17:0.568275 18:0.583907 19:0.350854 20:0.411616 21:0.319931 22:0.278016 23:0.169385 24:0.346467 25:0.460504 26:0.72826 27:0.837565 28:0.72541 29:-0.13465 30:0.540264 31:0.102917 32:0.286177 33:0.587037 34:0.36463 35:0.483329 36:0.900979 37:0.134019 38:-0.150465 39:0.234777 40:0.603154 41:0.263477 42:0.434721 43:0.585633 44:0.638136 45:0.669578 46:0.404619 47:0.324809 48:0.681812 49:0.807844 50:0.649239 51:-0.0872814 52:-0.378264 53:-0.401291 54:-0.178554 55:0.121517 56:-0.345505 57:-0.278587 58:-0.388491 59:-0.205274 60:-0.425813 61:-0.371172 62:-0.211024 63:-0.248771 64:0.785159 65:0.399028 66:0.180671 67:0.0691342 68:-0.0784749 69:-0.0736508 70:-0.0334591 71:0.203355 72:0.411624 73:0.360671 74:0.753873 75:0.809812 76:0.819792 77:0.863632 78:0.569707 79:0.38796 80:0.818006 81:0.432578 82:0.044214 83:0.64994 84:-0.00676487 85:-0.294122 86:-0.20174 87:-0.406698 88:-0.540192 89:-0.452845 90:-0.596138 91:-0.670986 92:-0.723124 93:-0.693463 94:-0.663794 95:-0.68357 96:-0.593174 97:-0.4779 98:-0.660975 99:-0.466033 
-0.7045146531039513 -0 0 0 0 0:0.665787 1:0.711714 2:0.725609 3:0.664435 4:0.529064 5:0.421817 6:0.77795 7:0.609826 8:0.36904 9:0.259782 10:0.225593 11:0.834802 12:0.553703 13:0.432457 14:0.573541 15:0.608854 16:0.813686 17:0.567521 18:0.597347 19:0.382957 20:0.427288 21:0.317673 22:0.307332 23:0.175618 24:0.337213 25:0.454287 26:0.704669 27:0.824933 28:0.710441 29:-0.147366 30:0.516966 31:0.0956148 32:0.278217 33:0.560941 34:0.355746 35:0.46862 36:0.870615 37:0.127219 38:-0.153814 39:0.257418 40:0.597772 41:0.245443 42:0.438407 43:0.56072 44:0.618546 45:0.649643 46:0.388596 47:0.308302 48:0.651495 49:0.783858 50:0.638988 51:-0.0823047 52:-0.387009 53:-0.41415 54:-0.191282 55:0.1006 56:-0.356905 57:-0.294081 58:-0.401625 59:-0.217875 60:-0.427611 61:-0.375164 62:-0.217046 63:-0.250862 64:0.791606 65:0.429485 66:0.296653 67:0.120142 68:-0.0618742 69:0.0203538 70:0.0303213 71:0.302053 72:0.464333 73:0.420749 74:0.873904 75:0.870837 76:0.828648 77:0.823601 78:0.535993 79:0.381164 80:0.806974 81:0.423372 82:0.0217834 83:0.614502 84:-0.0281012 85:-0.309283 86:-0.218883 87:-0.419442 88:-0.550067 89:-0.464594 90:-0.604812 91:-0.678054 92:-0.729072 93:-0.700042 94:-0.671018 95:-0.690375 96:-0.601895 97:-0.489118 98:-0.668257 99:-0.477498 
-0 -0 0.09805915424258438 0 0 0:0.653041 1:0.717138 2:0.726318 3:0.673279 4:0.474271 5:0.403134 6:0.803258 7:0.619022 8:0.336722 9:0.238534 10:0.237761 11:0.808916 12:0.601097 13:0.491593 14:0.644688 15:0.670614 16:0.787495 17:0.566043 18:0.61979 19:0.376568 20:0.400686 21:0.262303 22:0.25926 23:0.128079 24:0.295177 25:0.509559 26:0.81702 27:0.845331 28:0.656547 29:-0.174142 30:0.440925 31:0.0406669 32:0.271717 33:0.511617 34:0.417501 35:0.500556 36:0.823675 37:0.129234 38:-0.132039 39:0.212522 40:0.517521 41:0.21239 42:0.531137 43:0.738499 44:0.920173 45:1 46:0.487264 47:0.389954 48:0.811802 49:0.827586 50:0.737982 51:0.00487152 52:-0.380997 53:-0.37809 54:-0.209537 55:0.0709514 56:-0.364109 57:-0.332338 58:-0.410142 59:-0.239126 60:-0.448668 61:-0.409027 62:-0.259479 63:-0.291461 64:0.694513 65:0.352014 66:0.22638 67:0.0594373 68:-0.112717 69:-0.0349451 70:-0.0255183 71:0.231489 72:0.384978 73:0.343754 74:0.772347 75:0.769447 76:0.729545 77:0.724773 78:0.452749 79:0.306313 80:0.709046 81:0.346236 82:-0.0335927 83:0.527008 84:-0.0807701 85:-0.346717 86:-0.261215 87:-0.450905 88:-0.574449 89:-0.493611 90:-0.626231 91:-0.695501 92:-0.743756 93:-0.716301 94:-0.688842 95:-0.707154 96:-0.62349 97:-0.516795 98:-0.686223 99:-0.505823 
-0 -0.1467692861481866 0.367845024431738 0.1393508596808399 0.06977789999283372 0:0.668386 1:0.718817 2:0.717334 3:0.678082 4:0.502526 5:0.474235 6:0.9179 7:0.624204 8:0.336612 9:0.209276 10:0.213807 11:0.808674 12:0.606293 13:0.473765 14:0.613394 15:0.761119 16:0.780943 17:0.551689 18:0.64628 19:0.521627 20:0.425367 21:0.320138 22:0.281014 23:0.0843446 24:0.240945 25:0.4469 26:0.765896 27:0.761165 28:0.58099 29:-0.21181 30:0.375206 31:-0.00679822 32:0.213713 33:0.442673 34:0.352849 35:0.432116 36:0.740497 37:0.0777292 38:-0.171627 39:0.157219 40:0.448307 41:0.157093 42:0.573892 43:0.937116 44:0.922673 45:0.949025 46:0.427942 47:0.348128 48:0.771084 49:0.766562 50:0.658712 51:-0.0409606 52:-0.40923 53:-0.406457 54:-0.24559 55:0.0221052 56:-0.393114 57:-0.36279 58:-0.437046 59:-0.273829 60:-0.473816 61:-0.435982 62:-0.293254 63:-0.323777 64:0.617223 65:0.29035 66:0.175994 67:0.321129 68:-0.00718315 69:0.293739 70:0.0874263 71:0.435936 72:0.635224 73:0.788121 74:0.925982 75:0.762522 76:0.724846 77:0.751174 78:0.401292 79:0.260587 80:0.631095 81:0.284832 82:-0.0776709 83:0.457358 84:-0.122697 85:-0.376513 86:-0.294914 87:-0.475949 88:-0.593862 89:-0.516707 90:-0.643279 91:-0.709389 92:-0.755444 93:-0.729238 94:-0.703038 95:-0.72051 96:-0.640657 97:-0.538848 98:-0.700536 99:-0.528354 
-1.140996237339603 -0.5794584286427475 0 0.3445679402252337 0.3400828458017828 0:0.698595 1:0.742669 2:0.813499 3:0.711789 4:0.517029 5:0.442203 6:0.853398 7:0.573773 8:0.300264 9:0.201999 10:0.23451 11:0.817231 12:0.568629 13:0.424809 14:0.574523 15:0.750333 16:0.744 17:0.498015 18:0.600746 19:0.473693 20:0.378579 21:0.305263 22:0.278851 23:0.0680326 24:0.233137 25:0.418948 26:0.739972 27:0.742022 28:0.556818 29:-0.206182 30:0.372189 31:0.0110366 32:0.212636 33:0.50311 34:0.398754 35:0.525264 36:0.834077 37:0.129058 38:-0.0858488 39:0.248639 40:0.508542 41:0.221303 42:0.660637 43:0.925893 44:1 45:0.921086 46:0.407874 47:0.339115 48:0.720719 49:0.698057 50:0.597632 51:-0.0710205 52:-0.409638 53:-0.418502 54:-0.255399 55:0.0211689 56:-0.38592 57:-0.323586 58:-0.273026 59:-0.1645 60:-0.392162 61:-0.360397 62:-0.237276 63:-0.274646 64:0.983464 65:0.302643 66:0.191362 67:0.289559 68:-0.0480894 69:0.244541 70:0.0426215 71:0.381671 72:0.567852 73:0.714445 74:0.846621 75:0.689904 76:0.65378 77:0.679023 78:0.343554 79:0.208647 80:0.563892 81:0.231891 82:-0.115671 83:0.397312 84:-0.158847 85:-0.402204 86:-0.323963 87:-0.49754 88:-0.610594 89:-0.53662 90:-0.657975 91:-0.721363 92:-0.76552 93:-0.740398 94:-0.715276 95:-0.732016 96:-0.65545 97:-0.557832 98:-0.712887 99:-0.54781 
-0.5728663157126616 -0.3941338424389357 0 0.2960852339912295 0.2066681117742331 0:0.750158 1:0.769454 2:0.835288 3:0.671238 4:0.498536 5:0.457848 6:0.894162 7:0.656199 8:0.27117 9:0.151093 10:0.183972 11:0.816099 12:0.561423 13:0.487382 14:0.570753 15:0.807397 16:0.839495 17:0.460276 18:0.547957 19:0.45374 20:0.390989 21:0.540984 22:0.294006 23:0.0425699 24:0.296154 25:0.374958 26:0.667205 27:0.669086 28:0.48893 29:-0.237401 30:0.315834 31:-0.0248473 32:0.1557 33:0.432536 34:0.33308 35:0.45365 36:0.747963 37:0.0760474 38:-0.12877 39:0.190013 40:0.437713 41:0.163962 42:0.582667 43:0.835469 44:0.906096 45:0.830888 46:0.341771 47:0.276242 48:0.639927 49:0.85506 50:0.783311 51:-0.0673292 52:-0.437356 53:-0.445804 54:-0.29036 55:-0.0267781 56:-0.414752 57:-0.355344 58:-0.30716 59:-0.203727 60:-0.420703 61:-0.390429 62:-0.273088 63:-0.308705 64:0.890337 65:0.241484 66:0.135424 67:0.229011 68:-0.0927855 69:0.186107 70:-0.00633186 71:0.316798 72:0.494236 73:0.633952 74:0.759919 75:0.610555 76:0.57613 77:0.600189 78:0.803484 79:1 80:0.490462 81:0.772937 82:0.794156 83:0.331702 84:-0.198342 85:-0.430272 86:-0.355705 87:-0.521132 88:-0.628878 89:-0.558379 90:-0.674033 91:-0.734445 92:-0.776528 93:-0.752583 94:-0.728639 95:-0.7446 96:-0.671636 97:-0.578606 98:-0.726355 99:-0.569023 
-0 -0 0.9255685041705033 0 0 0:0.692226 1:0.700208 2:0.728468 3:0.571613 4:0.446149 5:0.435544 6:0.948016 7:0.637187 8:0.285633 9:0.119988 10:0.119788 11:0.785691 12:0.514072 13:0.641967 14:0.865785 15:0.980571 16:0.9435 17:0.662816 18:0.721575 19:0.507922 20:0.391248 21:0.463794 22:0.28586 23:-0.0156177 24:0.207653 25:0.373413 26:0.682261 27:0.602173 28:0.608624 29:-0.112154 30:0.40197 31:0.210347 32:0.42637 33:0.70451 34:0.444412 35:0.420251 36:0.691251 37:0.159276 38:0.0226277 39:0.19758 40:0.329199 41:0.104235 42:0.740671 43:0.839759 44:0.80282 45:0.683536 46:0.254873 47:0.348817 48:0.629334 49:0.912434 50:0.799905 51:0.0367112 52:-0.435842 53:-0.438449 54:-0.349375 55:-0.130501 56:-0.462805 57:-0.420688 58:-0.385124 59:-0.298027 60:-0.489305 61:-0.462618 62:-0.359172 63:-0.39057 64:0.666471 65:0.0944586 66:0.000962041 67:0.0834632 68:-0.200223 69:0.0456405 70:-0.124007 71:0.160854 72:0.317278 73:0.440448 74:0.720142 75:0.617942 76:0.573745 77:0.608181 78:0.709147 79:0.880321 80:0.548224 81:0.866164 82:0.880006 83:0.318736 84:-0.224478 85:-0.419803 86:-0.35525 87:-0.577844 88:-0.67283 89:-0.610678 90:-0.712638 91:-0.765893 92:-0.802993 93:-0.781886 94:-0.760779 95:-0.774856 96:-0.710512 97:-0.628496 98:-0.758772 99:-0.620079 
-0.3785461043335081 -0.3863607726661287 0 0 0.1981508121353077 0:0.643213 1:0.731625 2:0.795736 3:0.631022 4:0.462804 5:0.474729 6:1 7:0.615117 8:0.272318 9:0.102641 10:0.0937053 11:0.819462 12:0.605113 13:0.704766 14:0.896945 15:1 16:0.959031 17:0.635036 18:0.761752 19:0.54248 20:0.42561 21:0.486977 22:0.330031 23:0.0103088 24:0.178619 25:0.31495 26:0.608324 27:0.52664 28:0.531565 29:-0.15709 30:0.333263 31:0.150703 32:0.354177 33:0.61824 34:0.410083 35:0.352809 36:0.605652 37:0.116359 38:-0.0188459 39:0.139577 40:0.261923 41:0.0483468 42:0.652571 43:0.746644 44:0.724493 45:0.651091 46:0.292267 47:0.402213 48:0.775292 49:0.877128 50:0.739701 51:-0.0138741 52:-0.464396 53:-0.46687 54:-0.382305 55:-0.174508 56:-0.489994 57:-0.450009 58:-0.416245 59:-0.333555 60:-0.515153 61:-0.489815 62:-0.391606 63:-0.421417 64:0.582128 65:0.0390659 66:-0.0496984 67:0.028627 68:-0.2407 69:-0.00728099 70:-0.168342 71:0.102101 72:0.250607 73:0.479638 74:0.902056 75:1 76:1 77:1 78:1 79:0.975849 80:0.706781 81:1 82:0.913106 83:0.313067 84:-0.121229 85:-0.449169 86:-0.387883 87:-0.599208 88:-0.689389 89:-0.630382 90:-0.727182 91:-0.777743 92:-0.812963 93:-0.792926 94:-0.772884 95:-0.786241 96:-0.725168 97:-0.647288 98:-0.770985 99:-0.639294 
-0.8619650717686901 -0.5493020513746163 5 0.7568484523865513 0.3280012904714416 0:0.692072 1:0.701766 2:0.775042 3:0.65107 4:0.482911 5:0.503099 6:0.983468 7:0.612375 8:0.263492 9:0.0722284 10:0.0712217 11:0.791099 12:0.588477 13:0.712399 14:0.882561 15:0.961475 16:0.926446 17:0.661608 18:0.708719 19:0.562364 20:0.415716 21:0.488878 22:0.343943 23:0.0488613 24:0.266168 25:0.456975 26:0.645399 27:0.592073 28:0.564178 29:-0.153123 30:0.397716 31:0.270788 32:0.4487 33:0.733407 34:0.460189 35:0.375785 36:0.631502 37:0.178883 38:0.117717 39:0.170592 40:0.257793 41:0.023691 42:0.605241 43:0.696058 44:0.67673 45:0.609344 46:0.46256 47:0.478579 48:0.736833 49:0.81789 50:0.848997 51:-0.0363184 52:-0.486721 53:-0.474476 54:-0.394787 55:-0.200632 56:-0.486532 57:-0.468876 58:-0.433591 59:-0.364605 60:-0.53707 61:-0.522429 62:-0.430498 63:-0.455376 64:0.490639 65:-0.0224683 66:-0.110449 67:-0.0371277 68:-0.289239 69:-0.070741 70:-0.221506 71:0.0316496 72:0.170665 73:0.385051 74:0.780474 75:0.872156 76:0.872153 77:0.872154 78:0.872153 79:0.849543 80:0.597677 81:0.87215 82:0.790816 83:0.229126 84:-0.177402 85:-0.484383 86:-0.42701 87:-0.624829 88:-0.709244 89:-0.654011 90:-0.74462 91:-0.791951 92:-0.824921 93:-0.806162 94:-0.787406 95:-0.799904 96:-0.742746 97:-0.669852 98:-0.785618 99:-0.662345 
-1.346765085733249 -0.9917769303528433 -5 0.3024653418753919 0.5637138886761598 0:0.697081 1:0.670051 2:0.798892 3:0.658918 4:0.495058 5:0.493223 6:0.985359 7:0.594901 8:0.238331 9:0.0556825 10:0.0601507 11:0.823223 12:0.633411 13:0.712307 14:0.892565 15:0.939916 16:0.966281 17:0.653254 18:0.685276 19:0.556883 20:0.416596 21:0.502495 22:0.498958 23:0.0725678 24:0.283228 25:0.509808 26:0.627647 27:0.571655 28:0.579681 29:-0.148662 30:0.429366 31:0.283592 32:0.424488 33:0.729464 34:0.45459 35:0.364455 36:0.645806 37:0.159316 38:0.093971 39:0.161713 40:0.259434 41:0.00392177 42:0.567173 43:0.656438 44:0.639297 45:0.553193 46:0.418148 47:0.453143 48:0.681986 49:0.756265 50:0.788554 51:0.14153 52:-0.471646 53:-0.448455 54:-0.372745 55:-0.194518 56:-0.463363 57:-0.453855 58:-0.422383 59:-0.373702 60:-0.522951 61:-0.532238 62:-0.427286 63:-0.449889 64:0.470939 65:-0.0187887 66:-0.0974748 67:-0.0494133 68:-0.304677 69:-0.0910017 70:-0.243409 71:0.00116672 72:0.13627 73:0.34138 74:0.720072 75:0.833959 76:0.802166 77:0.800528 78:0.789551 79:0.779592 80:0.530059 81:0.786021 82:0.719487 83:0.407524 84:-0.105255 85:-0.278536 86:-0.440186 87:-0.542102 88:-0.671378 89:-0.427627 90:-0.748197 91:-0.77069 92:-0.834207 93:-0.816443 94:-0.798685 95:-0.810531 96:-0.756398 97:-0.687366 98:-0.796987 99:-0.680283 
-0 -0 -1.023627658413088 0 0 0:0.706597 1:0.699718 2:0.813975 3:0.656599 4:0.519484 5:0.497311 6:0.961075 7:0.585386 8:0.235221 9:0.0509359 10:0.0664445 11:0.806096 12:0.644618 13:0.712168 14:0.880186 15:0.931141 16:0.946762 17:0.676105 18:0.713374 19:0.554026 20:0.424312 21:0.480397 22:0.494447 23:0.103251 24:0.346043 25:0.568974 26:0.66312 27:0.582922 28:0.581596 29:-0.13095 30:0.505791 31:0.282574 32:0.41934 33:0.720678 34:0.46368 35:0.354526 36:0.640531 37:0.157015 38:0.0864844 39:0.166673 40:0.265217 41:0.0287655 42:0.596691 43:0.716874 44:0.649572 45:0.554644 46:0.42676 47:0.436975 48:0.694776 49:0.716659 50:0.770347 51:0.133149 52:-0.479733 53:-0.463692 54:-0.389844 55:-0.214574 56:-0.477008 57:-0.468069 58:-0.393995 59:-0.373994 60:-0.537194 61:-0.544491 62:-0.444724 63:-0.46594 64:0.420623 65:-0.0523585 66:-0.128349 67:-0.0819288 68:-0.328465 69:-0.122095 70:-0.269292 71:-0.0330832 72:0.097397 73:0.295491 74:0.661228 75:0.771221 76:0.740516 77:0.738933 78:0.728334 79:0.718712 80:0.477715 81:0.724923 82:0.66067 83:0.359378 84:-0.135866 85:-0.303219 86:-0.459338 87:-0.557767 88:-0.682621 89:-0.447207 90:-0.756813 91:-0.778535 92:-0.83988 93:-0.822722 94:-0.80557 95:-0.817003 96:-0.76473 97:-0.698073 98:-0.803926 99:-0.691189 
-0.1324598894825432 -0 -0 0 0 0:0.676238 1:0.695801 2:0.821008 3:0.673713 4:0.535023 5:0.537502 6:0.926782 7:0.538695 8:0.233831 9:0.057718 10:0.090682 11:0.834519 12:0.686852 13:0.746674 14:0.893904 15:0.918131 16:0.899136 17:0.705019 18:0.742492 19:0.64943 20:0.535626 21:0.499098 22:0.500743 23:0.127843 24:0.336065 25:0.619914 26:0.704842 27:0.611528 28:0.67061 29:-0.105828 30:0.603392 31:0.307345 32:0.419916 33:0.692141 34:0.449663 35:0.343051 36:0.607668 37:0.143624 38:0.0376154 39:0.132479 40:0.231684 41:-0.00490911 42:0.537138 43:0.651666 44:0.587789 45:0.571833 46:0.381404 47:0.429324 48:0.666044 49:0.635915 50:0.68675 51:0.119832 52:-0.45302 53:-0.423783 54:-0.327676 55:-0.162116 56:-0.405567 57:-0.466145 58:-0.394926 59:-0.287897 60:-0.509745 61:-0.488051 62:-0.429218 63:-0.438667 64:0.383139 65:-0.0147239 66:-0.0942144 67:-0.0895787 68:-0.345224 69:-0.125606 70:-0.171847 71:0.0430286 72:0.124313 73:0.386252 74:0.747707 75:0.673262 76:0.571115 77:0.557274 78:0.537618 79:0.525243 80:0.312217 81:0.533423 82:0.462358 83:0.216715 84:-0.218826 85:-0.369568 86:-0.481381 87:-0.584862 88:-0.713755 89:-0.491121 90:-0.76741 91:-0.786344 92:-0.835952 93:-0.82926 94:-0.789084 95:-0.799132 96:-0.707294 97:-0.590207 98:-0.672868 99:-0.548049 
-0.9894693429710935 -0.8838637031182177 -0.995530140456988 4.559059815767556 0.2725865987489908 0:0.620954 1:0.630134 2:0.866914 3:0.753979 4:0.620533 5:0.610055 6:0.882154 7:0.518577 8:0.193294 9:0.068955 10:0.117096 11:0.849453 12:0.725024 13:0.77441 14:0.905383 15:0.899552 16:0.911333 17:0.743691 18:0.814215 19:0.700476 20:0.638307 21:0.604764 22:0.70431 23:0.230962 24:0.479771 25:0.801849 26:0.851259 27:0.814372 28:0.814837 29:-0.0507081 30:0.827131 31:0.436494 32:0.498349 33:0.794366 34:0.526279 35:0.399902 36:0.660525 37:0.157122 38:0.0222822 39:0.172515 40:0.257007 41:-0.00752404 42:0.545573 43:0.676361 44:0.635342 45:0.609276 46:0.359605 47:0.410065 48:0.437253 49:0.403768 50:0.49842 51:-0.0219237 52:-0.495317 53:-0.478286 54:-0.411825 55:-0.282227 56:-0.451433 57:-0.54398 58:-0.478191 59:-0.378293 60:-0.571331 61:-0.580656 62:-0.522962 63:-0.52908 64:0.135314 65:-0.181001 66:-0.252319 67:-0.247863 68:-0.463744 69:-0.262836 70:-0.303575 71:-0.0609755 72:0.15407 73:0.178736 74:0.647873 75:0.476949 76:0.572129 77:0.473905 78:0.350058 79:0.247873 80:0.278197 81:0.276971 82:0.161555 83:-0.0402657 84:-0.389575 85:-0.507365 86:-0.594742 87:-0.675601 88:-0.776323 89:-0.602351 90:-0.818249 91:-0.833045 92:-0.871809 93:-0.86658 94:-0.835186 95:-0.843037 96:-0.771282 97:-0.679792 98:-0.744367 99:-0.646845 
-0.429475243441037 -0.520101905944423 -0 5 0.8752226653909042 0:0.602791 1:0.614946 2:0.849432 3:0.791161 4:0.657553 5:0.64906 6:0.888932 7:0.532189 8:0.191373 9:0.0663643 10:0.125756 11:0.846648 12:0.727299 13:0.788856 14:0.904631 15:0.887653 16:0.905381 17:0.744381 18:0.833472 19:0.70946 20:0.629612 21:0.591821 22:0.70731 23:0.230096 24:0.490617 25:0.808354 26:0.854983 27:0.807629 28:0.825078 29:-0.0603976 30:0.79827 31:0.419141 32:0.467261 33:0.746723 34:0.496343 35:0.377682 36:0.608239 37:0.124167 38:-0.00636978 39:0.136714 40:0.224881 41:-0.0280275 42:0.507072 43:0.662601 44:0.601955 45:0.602599 46:0.340615 47:0.381731 48:0.39543 49:0.364778 50:0.458371 51:-0.00511961 52:-0.501635 53:-0.468728 54:-0.418615 55:-0.303846 56:-0.471257 57:-0.559856 58:-0.499767 59:-0.396208 60:-0.584046 61:-0.593603 62:-0.536216 63:-0.545077 64:0.0951998 65:-0.209496 66:-0.279214 67:-0.278004 68:-0.478759 69:-0.285366 70:-0.323001 71:-0.0993313 72:0.119077 73:0.169082 74:0.626731 75:0.476524 76:0.566855 77:0.539492 78:0.38806 79:0.342561 80:0.396246 81:0.416421 82:0.300459 83:0.108683 84:-0.264203 85:-0.363832 86:-0.27813 87:-0.55303 88:-0.715336 89:-0.543043 90:-0.788672 91:-0.820214 92:-0.835197 93:-0.808979 94:-0.730317 95:-0.775268 96:-0.768839 97:-0.694365 98:-0.743157 99:-0.640413 
-1.362944836298026 -0.8130700527984471 -1.027576019635166 -5 0.2420616966601304 0:0.564934 1:0.579753 2:0.833685 3:0.792278 4:0.669044 5:0.685231 6:0.886329 7:0.521862 8:0.186716 9:0.0574312 10:0.116066 11:0.825629 12:0.719589 13:0.785486 14:0.888443 15:0.866239 16:0.908545 17:0.743836 18:0.833566 19:0.738221 20:0.6801 21:0.622398 22:0.752757 23:0.288262 24:0.546401 25:0.894592 26:0.955959 27:0.942952 28:1 29:0.0154381 30:0.943757 31:0.500036 32:0.517104 33:0.80978 34:0.532539 35:0.37691 36:0.59447 37:0.118561 38:-0.0218414 39:0.122441 40:0.219544 41:-0.0425055 42:0.495251 43:0.66358 44:0.633042 45:0.574985 46:0.302243 47:0.347442 48:0.353128 49:0.320182 50:0.41207 51:-0.0304357 52:-0.515721 53:-0.481022 54:-0.431538 55:-0.316723 56:-0.486241 57:-0.572005 58:-0.481711 59:-0.358134 60:-0.586196 61:-0.605219 62:-0.548074 63:-0.54999 64:0.0830972 65:-0.225709 66:-0.298476 67:-0.301492 68:-0.499675 69:-0.255504 70:-0.311218 71:-0.136939 72:0.0784749 73:0.12411 74:0.550932 75:0.404618 76:0.490548 77:0.464524 78:0.320467 79:0.277183 80:0.328252 81:0.347448 82:0.23713 83:0.0546934 84:-0.300034 85:-0.394813 86:-0.313281 87:-0.574794 88:-0.729199 89:-0.565295 90:-0.798963 91:-0.828967 92:-0.843223 93:-0.81828 94:-0.743454 95:-0.786215 96:-0.780094 97:-0.709259 98:-0.755667 99:-0.657951 
-0 -0 -0 -4.321888002072877 0 0:0.551969 1:0.587137 2:0.834733 3:0.815214 4:0.710414 5:0.731788 6:0.898638 7:0.531039 8:0.208311 9:0.068657 10:0.118723 11:0.845808 12:0.719274 13:0.781254 14:0.874778 15:0.850177 16:0.885434 17:0.752073 18:0.82327 19:0.719525 20:0.670807 21:0.615264 22:0.748116 23:0.276198 24:0.544749 25:0.888459 26:0.953183 27:0.931535 28:0.977611 29:-0.00506289 30:0.902366 31:0.467875 32:0.49256 33:0.771986 34:0.509641 35:0.340506 36:0.550625 37:0.0872379 38:-0.0548266 39:0.0865703 40:0.17659 41:-0.0683567 42:0.45649 43:0.631953 44:0.600071 45:0.533669 46:0.263823 47:0.306368 48:0.311503 49:0.301815 50:0.424139 51:-0.00263874 52:-0.508569 53:-0.468703 54:-0.429417 55:-0.327736 56:-0.495992 57:-0.578039 58:-0.492042 59:-0.345285 60:-0.573803 61:-0.580255 62:-0.53611 63:-0.502976 64:0.138473 65:-0.181058 66:-0.249807 67:-0.278331 68:-0.46058 69:-0.240962 70:-0.302637 71:-0.116608 72:0.127107 73:0.269742 74:0.647835 75:0.529638 76:0.614012 77:0.496483 78:0.353925 79:0.295109 80:0.320907 81:0.320181 82:0.23257 83:0.0408364 84:-0.300022 85:-0.401627 86:-0.325198 87:-0.56632 88:-0.734655 89:-0.580014 90:-0.802501 91:-0.831923 92:-0.842504 93:-0.825385 94:-0.753488 95:-0.794577 96:-0.7887 97:-0.720605 98:-0.765232 99:-0.671334 
-0 -0 -0 -0 1.654303055214682 0:0.4508 1:0.530535 2:0.86306 3:0.96028 4:0.963108 5:0.973889 6:0.913961 7:0.521297 8:0.231829 9:0.102982 10:0.187997 11:0.9507 12:0.874497 13:0.879566 14:0.961496 15:0.917935 16:0.932141 17:0.867086 18:0.946608 19:0.872507 20:0.781645 21:0.612357 22:0.811237 23:0.275165 24:0.502888 25:0.802875 26:0.875698 27:0.79292 28:0.824487 29:-0.0982822 30:0.73481 31:0.31684 32:0.332565 33:0.566783 34:0.327776 35:0.178435 36:0.371526 37:-0.0236484 38:-0.158265 39:-0.00610697 40:0.0697475 41:-0.167004 42:0.30602 43:0.433701 44:0.425829 45:0.364415 46:0.117388 47:0.217168 48:0.172182 49:0.129808 50:0.221735 51:-0.123523 52:-0.56877 53:-0.524002 54:-0.480294 55:-0.401163 56:-0.540578 57:-0.616949 58:-0.532371 59:-0.388359 60:-0.600828 61:-0.601367 62:-0.54536 63:-0.510925 64:0.130038 65:-0.0472996 66:-0.153844 67:-0.169179 68:-0.354003 69:-0.138437 70:-0.141139 71:-0.00231982 72:0.288077 73:0.603103 74:0.873253 75:0.74763 76:0.694782 77:0.518933 78:0.329727 79:0.335127 80:0.261695 81:0.224743 82:0.104762 83:-0.0549216 84:-0.39225 85:-0.491111 86:-0.430032 87:-0.637871 88:-0.762184 89:-0.654086 90:-0.83387 91:-0.862913 92:-0.866678 93:-0.845959 94:-0.783804 95:-0.783804 96:-0.823947 97:-0.753524 98:-0.805433 99:-0.724347 
-0 -0 -0 -0 0.6334646226836169 0:0.438312 1:0.52749 2:0.846548 3:0.962409 4:0.975151 5:0.987508 6:0.890387 7:0.509922 8:0.231097 9:0.104325 10:0.191546 11:0.955288 12:0.888118 13:0.893043 14:0.971529 15:0.935362 16:0.951565 17:0.891384 18:0.971817 19:0.908507 20:0.824635 21:0.631033 22:0.839491 23:0.29338 24:0.522544 25:0.836686 26:0.897453 27:0.797465 28:0.80878 29:-0.104768 30:0.726733 31:0.303376 32:0.328859 33:0.564015 34:0.341099 35:0.177496 36:0.36929 37:-0.0300265 38:-0.166168 39:-0.0210494 40:0.0505074 41:-0.179309 42:0.279014 43:0.398547 44:0.399751 45:0.334276 46:0.0962299 47:0.191185 48:0.138728 49:0.0978497 50:0.190644 51:-0.138641 52:-0.577084 53:-0.529818 54:-0.479438 55:-0.403411 56:-0.523754 57:-0.610591 58:-0.527534 59:-0.379437 60:-0.58234 61:-0.592032 62:-0.528653 63:-0.493517 64:0.173116 65:-0.0108725 66:-0.120268 67:-0.156879 68:-0.338435 69:-0.109894 70:-0.129864 71:-0.000683673 72:0.297889 73:0.601332 74:0.829774 75:0.717995 76:0.640235 77:0.473878 78:0.307621 79:0.300801 80:0.225018 81:0.205144 82:0.0789759 83:-0.0686188 84:-0.409828 85:-0.506496 86:-0.443281 87:-0.645896 88:-0.770873 89:-0.663252 90:-0.836651 91:-0.867922 92:-0.869816 93:-0.846379 94:-0.7917 95:-0.791701 96:-0.830385 97:-0.762536 98:-0.812533 99:-0.734415 
-0 -0 -0 -0 5 0:0.43922 1:0.529982 2:0.858823 3:0.990238 4:0.995116 5:0.999368 6:0.880209 7:0.508043 8:0.231919 9:0.10866 10:0.196223 11:0.967746 12:0.898512 13:0.90057 14:0.968821 15:0.927605 16:0.945166 17:0.88066 18:0.96868 19:0.905288 20:0.822575 21:0.621209 22:0.825187 23:0.286433 24:0.511984 25:0.820566 26:0.895352 27:0.779548 28:0.786341 29:-0.115999 30:0.705642 31:0.287297 32:0.311255 33:0.54594 34:0.324745 35:0.165281 36:0.353991 37:-0.0377857 38:-0.173306 39:-0.0269358 40:0.0457097 41:-0.182698 42:0.27004 43:0.38847 44:0.386592 45:0.333214 46:0.0907206 47:0.182364 48:0.127354 49:0.0882525 50:0.186467 51:-0.146974 52:-0.580049 53:-0.532936 54:-0.482537 55:-0.403784 56:-0.527241 57:-0.613649 58:-0.530018 59:-0.382645 60:-0.586624 61:-0.590469 62:-0.524004 63:-0.487315 64:0.20533 65:0.0166808 66:-0.102258 67:-0.128664 68:-0.303144 69:-0.0852442 70:-0.097843 71:0.0356387 72:0.392858 73:0.63803 74:0.852034 75:0.733644 76:0.679649 77:0.467617 78:0.311563 79:0.299966 80:0.216275 81:0.196937 82:0.0713055 83:-0.0735269 84:-0.416232 85:-0.513761 86:-0.451474 87:-0.651108 88:-0.774246 89:-0.668211 90:-0.839056 91:-0.869865 92:-0.871729 93:-0.848643 94:-0.79477 95:-0.794764 96:-0.832873 97:-0.76602 98:-0.815295 99:-0.73833 
-1.35571252480378 -1.070154509297564 -0.9489315760473374 -0.5396371555700704 5 0:0.438137 1:0.532431 2:0.861198 3:1 4:1 5:1 6:0.882098 7:0.511797 8:0.234662 9:0.110472 10:0.19727 11:0.974291 12:0.901101 13:0.899755 14:0.964237 15:0.920562 16:0.945823 17:0.880399 18:0.962126 19:0.902082 20:0.821054 21:0.620482 22:0.822211 23:0.281327 24:0.505779 25:0.816388 26:0.887841 27:0.772053 28:0.778716 29:-0.12067 30:0.69869 31:0.283123 32:0.306492 33:0.538551 34:0.318698 35:0.158725 36:0.345751 37:-0.0376576 38:-0.173657 39:-0.0303644 40:0.0558818 41:-0.179456 42:0.270051 43:0.391356 44:0.393053 45:0.327777 46:0.0841487 47:0.175354 48:0.121448 49:0.0810746 50:0.179381 51:-0.149002 52:-0.580796 53:-0.535476 54:-0.484006 55:-0.402704 56:-0.530359 57:-0.608892 58:-0.521281 59:-0.385539 60:-0.587501 61:-0.589827 62:-0.525225 63:-0.485765 64:0.201313 65:0.0179455 66:-0.100088 67:-0.109361 68:-0.292829 69:-0.0800288 70:-0.0982284 71:0.0720467 72:0.411504 73:0.635785 74:0.893572 75:0.748517 76:0.670374 77:0.459643 78:0.304353 79:0.291392 80:0.208251 81:0.189042 82:0.0642423 83:-0.0796373 84:-0.420079 85:-0.516965 86:-0.455091 87:-0.653407 88:-0.775734 89:-0.670399 90:-0.840116 91:-0.870722 92:-0.872577 93:-0.849641 94:-0.796122 95:-0.796122 96:-0.833992 97:-0.767586 98:-0.816505 99:-0.740048 
-0 -5 -0 -0 5 0:0.442346 1:0.528626 2:0.864924 3:0.987628 4:0.984766 5:0.982086 6:0.873513 7:0.522301 8:0.224233 9:0.10284 10:0.197591 11:0.985904 12:0.940766 13:0.903907 14:0.973437 15:0.92127 16:0.940994 17:0.893462 18:0.965017 19:0.905547 20:0.828837 21:0.626231 22:0.834128 23:0.288832 24:0.517382 25:0.833774 26:0.89546 27:0.771078 28:0.786269 29:-0.125819 30:0.681074 31:0.272125 32:0.306957 33:0.522292 34:0.305709 35:0.146624 36:0.335231 37:-0.0344885 38:-0.181165 39:-0.0285857 40:0.0468907 41:-0.185342 42:0.279885 43:0.428064 44:0.384746 45:0.337864 46:0.0866843 47:0.197335 48:0.116638 49:0.0902292 50:0.193895 51:-0.136794 52:-0.582385 53:-0.540689 54:-0.48911 55:-0.409265 56:-0.536167 57:-0.613073 58:-0.526469 59:-0.391976 60:-0.591689 61:-0.594902 62:-0.530151 63:-0.489689 64:0.188399 65:0.0132249 66:-0.104824 67:-0.119004 68:-0.299471 69:-0.0827655 70:-0.103882 71:0.0646802 72:0.397969 73:0.621885 74:0.874977 75:0.733981 76:0.65328 77:0.443271 78:0.289642 79:0.279411 80:0.218815 81:0.249136 82:0.0994037 83:-0.0478752 84:-0.369085 85:-0.491963 86:-0.43071 87:-0.647628 88:-0.77599 89:-0.674474 90:-0.842095 91:-0.872323 92:-0.874153 93:-0.851499 94:-0.798645 95:-0.798639 96:-0.836046 97:-0.770462 98:-0.818788 99:-0.743283 
-1.010576163132703 -0 -0.9308897250936252 -1.438936554067064 -5 0:0.435002 1:0.523685 2:0.857095 3:0.980622 4:0.979276 5:0.979896 6:0.87499 7:0.528286 8:0.217546 9:0.0993554 10:0.195057 11:0.978987 12:0.9499 13:0.902264 14:0.97613 15:0.921716 16:0.942453 17:0.89999 18:0.970823 19:0.915931 20:0.825439 21:0.617697 22:0.829767 23:0.288009 24:0.517712 25:0.846808 26:0.916031 27:0.799856 28:0.803112 29:-0.106157 30:0.709959 31:0.273933 32:0.304205 33:0.529478 34:0.300284 35:0.152383 36:0.34716 37:-0.0355408 38:-0.182435 39:-0.0278128 40:0.0474689 41:-0.176405 42:0.276666 43:0.418686 44:0.392197 45:0.339161 46:0.0917719 47:0.189377 48:0.107311 49:0.0803851 50:0.198364 51:-0.106565 52:-0.577064 53:-0.544348 54:-0.494211 55:-0.414097 56:-0.534335 57:-0.611255 58:-0.53079 59:-0.394566 60:-0.597278 61:-0.599632 62:-0.534712 63:-0.496674 64:0.174046 65:0.00129595 66:-0.115498 67:-0.13106 68:-0.305948 69:-0.0941009 70:-0.110725 71:0.0544621 72:0.388521 73:0.605935 74:0.856458 75:0.717239 76:0.634165 77:0.431813 78:0.29443 79:0.289464 80:0.220102 81:0.259702 82:0.0922979 83:0.0298787 84:-0.349033 85:-0.472947 86:-0.391564 87:-0.612729 88:-0.775335 89:-0.670656 90:-0.842165 91:-0.872716 92:-0.87422 93:-0.85353 94:-0.801402 95:-0.801396 96:-0.838283 97:-0.773595 98:-0.821253 99:-0.746799 
-0 -0 -0 -0 -5 0:0.455468 1:0.533956 2:0.860991 3:0.960538 4:0.964829 5:0.966144 6:0.864784 7:0.552873 8:0.221128 9:0.0991598 10:0.186514 11:0.958608 12:0.934762 13:0.906667 14:0.964537 15:0.921783 16:0.964901 17:0.932311 18:0.961836 19:0.948004 20:0.826831 21:0.610101 22:0.844159 23:0.303208 24:0.538206 25:0.845476 26:0.904619 27:0.781679 28:0.794078 29:-0.106245 30:0.695351 31:0.271394 32:0.297847 33:0.515675 34:0.29279 35:0.137381 36:0.325375 37:-0.0526407 38:-0.19618 39:-0.0311594 40:0.0443288 41:-0.17885 42:0.26029 43:0.403856 44:0.382864 45:0.343231 46:0.0774388 47:0.18244 48:0.163582 49:0.0933669 50:0.183915 51:-0.122946 52:-0.584757 53:-0.553054 54:-0.5014 55:-0.423694 56:-0.542562 57:-0.617412 58:-0.538339 59:-0.406132 60:-0.60409 61:-0.607282 62:-0.538103 63:-0.501575 64:0.159134 65:-0.0102219 66:-0.124666 67:-0.146331 68:-0.312084 69:-0.103049 70:-0.119738 71:0.042865 72:0.534854 73:0.65698 74:0.898028 75:0.759854 76:0.640862 77:0.435377 78:0.305466 79:0.382622 80:0.230281 81:0.275438 82:0.0811705 83:0.0102005 84:-0.361468 85:-0.483014 86:-0.403185 87:-0.620129 88:-0.779626 89:-0.676946 90:-0.845182 91:-0.875149 92:-0.876621 93:-0.856333 94:-0.805197 95:-0.805191 96:-0.841365 97:-0.777909 98:-0.824678 99:-0.751633 
-0 -0 -0 -0 -5 0:0.461892 1:0.529537 2:0.860341 3:0.965199 4:0.961163 5:0.961348 6:0.852756 7:0.576768 8:0.222185 9:0.0947619 10:0.19819 11:0.957537 12:0.922791 13:0.899747 14:0.956886 15:0.928629 16:0.959348 17:0.912359 18:0.953845 19:0.961915 20:0.828462 21:0.613095 22:0.873846 23:0.325402 24:0.55449 25:0.857143 26:0.911957 27:0.775583 28:0.780497 29:-0.11542 30:0.688949 31:0.258891 32:0.283547 33:0.497602 34:0.282066 35:0.125346 36:0.320195 37:-0.066685 38:-0.206254 39:-0.0453797 40:0.030397 41:-0.183827 42:0.247329 43:0.388984 44:0.391719 45:0.347184 46:0.0928945 47:0.192678 48:0.158922 49:0.0857753 50:0.17625 51:-0.0728586 52:-0.589775 53:-0.558375 54:-0.507122 55:-0.433037 56:-0.549944 57:-0.623512 58:-0.545062 59:-0.415463 60:-0.60931 61:-0.61183 62:-0.546219 63:-0.509178 64:0.144298 65:-0.0220051 66:-0.137009 67:-0.150883 68:-0.246193 69:-0.0401965 70:-0.109081 71:0.0287396 72:0.526543 73:0.858692 74:1 75:0.782814 76:0.622189 77:0.421347 78:0.293335 79:0.364014 80:0.213856 81:0.2548 82:0.0621702 83:-0.00754483 84:-0.37269 85:-0.492102 86:-0.413674 87:-0.626805 88:-0.783498 89:-0.682624 90:-0.847901 91:-0.877343 92:-0.878792 93:-0.858856 94:-0.808619 95:-0.808613 96:-0.84415 97:-0.781808 98:-0.827759 99:-0.755987 
-0 -0 -0 -0 -2.52982937455843 0:0.475037 1:0.520186 2:0.846934 3:0.950657 4:0.956879 5:0.957676 6:0.861388 7:0.57458 8:0.21476 9:0.0818576 10:0.20089 11:0.959964 12:0.92692 13:0.931477 14:0.969389 15:0.936785 16:0.9532 17:0.935609 18:0.986365 19:0.977007 20:0.871238 21:0.632987 22:0.889283 23:0.322988 24:0.558367 25:0.85702 26:0.871152 27:0.738997 28:0.751141 29:-0.118601 30:0.677534 31:0.254232 32:0.294592 33:0.464707 34:0.282354 35:0.129148 36:0.30964 37:-0.0719298 38:-0.20613 39:-0.0426173 40:0.0186273 41:-0.197891 42:0.229418 43:0.388052 44:0.396931 45:0.375462 46:0.0943951 47:0.228631 48:0.176494 49:0.07215 50:0.1645 51:-0.0811262 52:-0.59305 53:-0.541706 54:-0.497691 55:-0.433825 56:-0.55934 57:-0.627785 58:-0.541553 59:-0.416094 60:-0.602556 61:-0.612177 62:-0.557338 63:-0.51713 64:0.125338 65:-0.0136621 66:-0.123604 67:-0.139012 68:-0.205621 69:-0.00862321 70:-0.0732682 71:0.0877498 72:0.542442 73:0.837736 74:0.971159 75:0.773253 76:0.58146 77:0.381796 78:0.254333 79:0.320121 80:0.174794 81:0.214424 82:0.0279943 83:-0.0394819 84:-0.392878 85:-0.508443 86:-0.43254 87:-0.638812 88:-0.790466 89:-0.692838 90:-0.852796 91:-0.881287 92:-0.882693 93:-0.863397 94:-0.814778 95:-0.814779 96:-0.849172 97:-0.78884 98:-0.833307 99:-0.763858 
-0 -5 -0 -0 -0 0:0.473053 1:0.518802 2:0.843946 3:0.944889 4:0.946815 5:0.94269 6:0.863014 7:0.589733 8:0.209561 9:0.080584 10:0.20383 11:0.955179 12:0.924939 13:0.932344 14:0.973436 15:0.942212 16:0.955861 17:0.96047 18:0.988321 19:0.981705 20:0.875198 21:0.631846 22:0.897149 23:0.321394 24:0.562695 25:0.867489 26:0.886947 27:0.739623 28:0.754777 29:-0.119478 30:0.663665 31:0.25859 32:0.283182 33:0.449057 34:0.27248 35:0.132368 36:0.297104 37:-0.0797071 38:-0.211753 39:-0.039747 40:0.0250042 41:-0.183745 42:0.217931 43:0.382359 44:0.405397 45:0.371196 46:0.124276 47:0.247979 48:0.17219 49:0.0699588 50:0.157987 51:-0.0873604 52:-0.596646 53:-0.546908 54:-0.503922 55:-0.440098 56:-0.564176 57:-0.632402 58:-0.546576 59:-0.422279 60:-0.604167 61:-0.616987 62:-0.560245 63:-0.519798 64:0.118439 65:-0.0223174 66:-0.131571 67:-0.142201 68:-0.202098 69:-0.00634045 70:-0.0722792 71:0.10101 72:0.576822 73:0.845636 74:0.964245 75:0.802762 76:0.586121 77:0.376883 78:0.246524 79:0.311002 80:0.170153 81:0.21295 82:0.0298746 83:-0.0331052 84:-0.382118 85:-0.504694 86:-0.432928 87:-0.634147 88:-0.78735 89:-0.693597 90:-0.845956 91:-0.882761 92:-0.884145 93:-0.865089 94:-0.817075 95:-0.817069 96:-0.851044 97:-0.79146 98:-0.835361 99:-0.766774 
-0 -0.2240838526558999 -0 -0 -0 0:0.464456 1:0.507923 2:0.836922 3:0.953969 4:0.95771 5:0.943769 6:0.855482 7:0.577803 8:0.207049 9:0.0867038 10:0.20839 11:0.945353 12:0.924584 13:0.929446 14:0.974268 15:0.941537 16:0.947168 17:0.955001 18:0.983577 19:0.975726 20:0.871284 21:0.630243 22:0.901901 23:0.325496 24:0.561787 25:0.86566 26:0.88783 27:0.753599 28:0.754101 29:-0.125789 30:0.655258 31:0.251863 32:0.274572 33:0.444163 34:0.271203 35:0.136533 36:0.304414 37:-0.0724989 38:-0.201633 39:-0.0252574 40:0.0411227 41:-0.170248 42:0.221682 43:0.381334 44:0.405964 45:0.372259 46:0.135541 47:0.263553 48:0.171952 49:0.0603735 50:0.153972 51:-0.092168 52:-0.597957 53:-0.551782 54:-0.502023 55:-0.441995 56:-0.568209 57:-0.623661 58:-0.523349 59:-0.414691 60:-0.597092 61:-0.602264 62:-0.513798 63:-0.484495 64:0.124711 65:-0.0235041 66:-0.125406 67:-0.130453 68:-0.180817 69:0.0230382 70:-0.0312521 71:0.110114 72:0.62012 73:0.851708 74:0.984698 75:0.822985 76:0.584331 77:0.373007 78:0.229 79:0.296577 80:0.154248 81:0.191397 82:0.0101606 83:-0.0516115 84:-0.393943 85:-0.514175 86:-0.443784 87:-0.641151 88:-0.791418 89:-0.699465 90:-0.848905 91:-0.885006 92:-0.886364 93:-0.867672 94:-0.820578 95:-0.820572 96:-0.853898 97:-0.795455 98:-0.838512 99:-0.771248 
-0 -5 -0 -0 -0 0:0.47234 1:0.508599 2:0.831428 3:0.943421 4:0.948509 5:0.936544 6:0.85242 7:0.583351 8:0.216114 9:0.0834757 10:0.203284 11:0.941941 12:0.930187 13:0.93084 14:0.963144 15:0.93493 16:0.956451 17:0.971332 18:0.982753 19:0.977795 20:0.904862 21:0.627289 22:0.916877 23:0.320837 24:0.567038 25:0.894452 26:0.889398 27:0.752354 28:0.759413 29:-0.118683 30:0.670211 31:0.248924 32:0.261864 33:0.444229 34:0.265681 35:0.124645 36:0.293344 37:-0.0785762 38:-0.202161 39:-0.0133232 40:0.0284964 41:-0.179051 42:0.208696 43:0.37437 44:0.413202 45:0.396489 46:0.140097 47:0.265383 48:0.189049 49:0.0515238 50:0.13941 51:-0.103625 52:-0.602327 53:-0.5565 54:-0.508307 55:-0.449036 56:-0.57244 57:-0.627832 58:-0.528719 59:-0.420034 60:-0.600569 61:-0.606557 62:-0.518266 63:-0.488858 64:0.120771 65:-0.020246 66:-0.123782 67:-0.134169 68:-0.16154 69:0.0524887 70:-0.0144544 71:0.115541 72:0.635951 73:0.867362 74:0.970271 75:0.804143 76:0.567477 77:0.363084 78:0.223501 79:0.296022 80:0.146094 81:0.186237 82:0.00627216 83:-0.0484003 84:-0.391747 85:-0.520305 86:-0.450801 87:-0.645679 88:-0.794051 89:-0.703256 90:-0.850811 91:-0.886455 92:-0.887798 93:-0.869343 94:-0.822841 95:-0.822835 96:-0.855747 97:-0.798044 98:-0.840566 99:-0.774125 
-0.8751977197312549 -5 -0.6165288575688496 -0.2725865987489908 -0 0:0.469455 1:0.5126 2:0.822037 3:0.933073 4:0.931459 5:0.918228 6:0.844032 7:0.599174 8:0.222647 9:0.0843415 10:0.208013 11:0.956703 12:0.943094 13:0.931407 14:0.968188 15:0.924981 16:0.96759 17:0.98592 18:0.981278 19:0.987586 20:0.910632 21:0.623867 22:0.913984 23:0.334687 24:0.578801 25:0.892959 26:0.892517 27:0.743807 28:0.747131 29:-0.124939 30:0.669142 31:0.245346 32:0.270999 33:0.436831 34:0.256777 35:0.112925 36:0.279546 37:-0.0858037 38:-0.206834 39:-0.0142001 40:0.0399586 41:-0.181802 42:0.206314 43:0.372513 44:0.397835 45:0.384316 46:0.138126 47:0.31458 48:0.224315 49:0.0570468 50:0.140657 51:-0.0950924 52:-0.60472 53:-0.560337 54:-0.513459 55:-0.454527 56:-0.575969 57:-0.632422 58:-0.534619 59:-0.426055 60:-0.605315 61:-0.612011 62:-0.521656 63:-0.490659 64:0.110287 65:-0.0287087 66:-0.133157 67:-0.144982 68:-0.168602 69:0.0507514 70:-0.00307413 71:0.10902 72:0.623496 73:0.859792 74:0.951331 75:0.797575 76:0.602937 77:0.373377 78:0.225043 79:0.330005 80:0.157077 81:0.200617 82:0.0150345 83:-0.0466121 84:-0.392416 85:-0.514859 86:-0.458418 87:-0.647681 88:-0.795816 89:-0.707371 90:-0.85288 91:-0.888031 92:-0.889352 93:-0.871154 94:-0.825298 95:-0.825299 96:-0.857733 97:-0.800825 98:-0.842758 99:-0.777241 
-0 -5 -0 -0 -0 0:0.468129 1:0.510617 2:0.817364 3:0.922089 4:0.92033 5:0.921036 6:0.849824 7:0.59706 8:0.211952 9:0.0774774 10:0.208968 11:0.98701 12:0.952614 13:0.94179 14:0.976014 15:0.934531 16:0.9813 17:0.980606 18:0.990212 19:1 20:0.927706 21:0.622438 22:0.922686 23:0.339411 24:0.572816 25:0.88795 26:0.894077 27:0.738103 28:0.742216 29:-0.120183 30:0.673096 31:0.247049 32:0.300091 33:0.42427 34:0.250837 35:0.105762 36:0.307373 37:-0.0920949 38:-0.200448 39:-0.0146725 40:0.0350348 41:-0.180571 42:0.231582 43:0.36707 44:0.38262 45:0.369333 46:0.134505 47:0.31496 48:0.220839 49:0.0528109 50:0.128467 51:-0.106132 52:-0.609808 53:-0.565541 54:-0.518078 55:-0.461548 56:-0.580243 57:-0.636593 58:-0.539359 59:-0.431453 60:-0.608831 61:-0.611354 62:-0.524568 63:-0.492002 64:0.100984 65:-0.0378428 66:-0.1361 67:-0.152457 68:-0.174798 69:0.0403989 70:-0.0123747 71:0.0972667 72:0.607638 73:0.841278 74:0.930348 75:0.786576 76:0.629603 77:0.38451 78:0.222669 79:0.347076 80:0.213957 81:0.204382 82:0.0071404 83:-0.0490319 84:-0.388741 85:-0.51447 86:-0.451275 87:-0.652213 88:-0.798442 89:-0.711135 90:-0.854775 91:-0.889473 92:-0.890777 93:-0.872812 94:-0.827542 95:-0.827549 96:-0.859582 97:-0.803413 98:-0.844789 99:-0.780117 
-0 -5 -0 -0 -0 0:0.468068 1:0.508124 2:0.807387 3:0.903835 4:0.915939 5:0.925114 6:0.85429 7:0.600418 8:0.209654 9:0.0796575 10:0.205989 11:0.999151 12:0.968455 13:0.962472 14:0.982439 15:0.946258 16:0.977489 17:0.981866 18:0.986357 19:0.996426 20:0.920195 21:0.624631 22:0.913644 23:0.32886 24:0.565638 25:0.875271 26:0.889349 27:0.728053 28:0.731849 29:-0.121956 30:0.67018 31:0.243176 32:0.29887 33:0.427366 34:0.258462 35:0.105156 36:0.308463 37:-0.0791622 38:-0.19746 39:-0.0108145 40:0.0554143 41:-0.177144 42:0.222593 43:0.374221 44:0.392244 45:0.3652 46:0.160479 47:0.322368 48:0.221331 49:0.0606238 50:0.151173 51:-0.100327 52:-0.596965 53:-0.566774 54:-0.519455 55:-0.451541 56:-0.584162 57:-0.641954 58:-0.541312 59:-0.435804 60:-0.612117 61:-0.615593 62:-0.528314 63:-0.49719 64:0.089616 65:-0.0501829 66:-0.146118 67:-0.160456 68:-0.186455 69:0.0265881 70:-0.0261292 71:0.0831335 72:0.588098 73:0.818434 74:0.903001 75:0.763478 76:0.612094 77:0.369069 78:0.226732 79:0.350381 80:0.21416 81:0.20684 82:0.0246811 83:-0.0402733 84:-0.34779 85:-0.508017 86:-0.460205 87:-0.657872 88:-0.801722 89:-0.715836 90:-0.857139 91:-0.891271 92:-0.892557 93:-0.874883 94:-0.830352 95:-0.830346 96:-0.861865 97:-0.806609 98:-0.847323 99:-0.783713 
-0.09116152196045481 -5 -0 -0 -0 0:0.47381 1:0.5087 2:0.80995 3:0.906432 4:0.922249 5:0.929101 6:0.854016 7:0.594996 8:0.204147 9:0.0787165 10:0.204571 11:1 12:0.967796 13:0.963871 14:0.982678 15:0.956329 16:0.96859 17:0.971644 18:0.978109 19:0.986615 20:0.921065 21:0.627767 22:0.933102 23:0.327922 24:0.575638 25:0.866285 26:0.877839 27:0.719414 28:0.729617 29:-0.125039 30:0.663342 31:0.252251 32:0.290986 33:0.413347 34:0.25219 35:0.103325 36:0.303443 37:-0.0824147 38:-0.201183 39:-0.0155052 40:0.0515823 41:-0.180494 42:0.216788 43:0.367347 44:0.384072 45:0.352205 46:0.148604 47:0.328892 48:0.213591 49:0.0654811 50:0.149538 51:-0.111515 52:-0.601376 53:-0.569317 54:-0.524039 55:-0.453637 56:-0.585261 57:-0.643536 58:-0.5464 59:-0.434654 60:-0.609619 61:-0.617957 62:-0.524413 63:-0.479492 64:0.121552 65:-0.0155046 66:-0.117853 67:-0.125196 68:-0.169025 69:0.0510845 70:-0.00771713 71:0.09371 72:0.593516 73:0.817345 74:0.884361 75:0.754567 76:0.601127 77:0.361019 78:0.220063 79:0.338332 80:0.200414 81:0.261601 82:0.0760942 83:-0.049945 84:-0.320482 85:-0.47815 86:-0.465294 87:-0.660238 88:-0.793219 89:-0.689482 90:-0.858409 91:-0.892909 92:-0.894172 93:-0.876767 94:-0.832902 95:-0.832903 96:-0.863942 97:-0.809518 98:-0.849606 99:-0.786948 
