svm_type c_svc
kernel_type rbf
gamma 0.0078125
nr_class 6
total_sv 72
rho -0.185952 -4.56173 -0.55241 -1.55185 -0.0309724 -1.83309 -0.319858 -0.499693 -0.273181 2.52996 2.21857 2.42743 0.279968 -0.718783 -2.09015
label 8 12 15 10 16 13
nr_sv 12 12 12 12 12 12
SV
512 0 0.7768952953868072 0.366839538789946 0.928369011231715 2:-1 3:-1 4:-1 5:-1 6:-1 7:-1 8:-1 9:-1 10:-1 11:-1 12:-1 13:-1 14:-1 15:-1 16:-1 17:-1 18:-1 19:-1 20:-1 21:-1 22:-1 23:-1 24:-1 25:-1 26:-1 27:-1 35:-1 36:-1 37:-1 38:-1 39:-1 40:-1 41:-1 42:-1 43:-1 44:-1 45:-1 46:-1 47:-1 48:-1 49:-1 50:-1 51:-1 52:-1 53:-1 54:-1 55:-1 56:-1 57:-1 58:-1 59:-1 60:-1 61:-1 62:-1 63:-1 64:-1 65:-1 66:-1 67:-1 68:-1 69:-1 70:-1 71:-1 72:-1 73:-1 74:-1 75:-1 76:-1 77:-1 78:-1 79:-1 80:-1 81:-1 82:-1 83:-1 84:-1 85:-1 86:-1 87:-1 88:-1 89:-1 90:-1 91:-1 92:-1 93:-1 94:-1 95:-1 96:-1 97:-1 98:-1 99:-1 100:-1 101:-1 102:-1 103:-1 104:-1 105:-1 106:-1 107:-1 108:-1 109:-1 110:-1 111:-1 112:-1 113:-1 114:-1 115:-1 116:-1 117:-1 118:-1 119:-1 120:-1 121:-1 122:-1 123:-1 124:-1 125:-1 126:-1 127:-1 128:-1 129:-1 130:-1 131:-1 132:-1 133:-1 134:-1 135:-1 136:-1 137:-1 138:-1 139:-1 140:-1 141:-1 142:-1 143:-1 144:-1 145:-1 146:-1 147:-1 148:-1 149:-1 150:-1 151:-1 152:-1 153:-1 154:-1 155:-1 156:-1 157:-1 158:-1 159:-1 160:-1 161:-1 162:-1 163:-1 164:-1 165:-1 166:-1 167:-1 168:-1 169:-1 170:-1 171:-1 172:-1 173:-1 174:-1 175:-1 176:-1 177:-1 178:-1 179:-1 180:-1 181:-1 182:-1 183:-1 184:-1 185:-1 186:-1 187:-1 188:-1 189:-1 190:-1 191:-1 192:-1 193:-1 194:-1 195:-1 196:-1 197:-1 198:-1 199:-1 200:-1 201:-1 202:-1 203:-1 204:-1 205:-1 206:-1 207:-1 208:-1 209:-1 210:-1 211:-1 212:-1 213:-1 214:-1 215:-1 216:-1 217:-1 218:-1 219:-1 220:-1 221:-1 222:-1 223:-1 224:-1 225:-1 226:-1 227:-1 228:-1 229:-1 230:-1 231:-1 232:-1 233:-1 234:-1 235:-1 236:-1 237:-1 238:-1 239:-1 240:-1 241:-1 242:-1 243:-1 244:-1 245:-1 246:-1 247:-1 248:-1 249:-1 250:-1 
2.91048386685265 2.609983907891534 1.388587385724424 0.9817164938975365 1.06434994338681 2:-1 3:-1 4:-1 5:-1 6:-1 7:-1 8:-1 9:-1 10:-1 11:-1 12:-1 13:-1 14:-1 15:-1 16:0.236077 17:-0.137787 18:-0.465726 19:0.379811 20:-0.80082 21:0.858912 22:0.929123 23:-1 24:-1 25:-1 26:-1 27:-1 35:-1 36:-1 37:-1 38:0.236097 39:0.236079 40:-0.351488 41:-0.0921005 42:-0.937641 43:-0.784363 44:-0.8611 45:0.0142619 46:0.35847 47:1 48:1 49:-0.262521 50:-0.702491 51:-0.778169 52:0.148107 53:0.236114 54:0.236076 55:0.236071 56:0.236114 57:0.236071 58:0.236069 59:0.236071 60:0.236069 61:0.236097 62:0.236073 63:-0.515012 64:-1 65:-1 66:-1 67:-1 68:-1 69:-1 70:-1 71:-1 72:-1 73:-1 74:-1 75:-0.402964 76:-0.542446 77:1 78:-0.953 79:-0.786342 80:-0.637853 81:-0.458186 82:0.132829 83:1 84:1 85:-0.541744 86:-0.425172 87:-1 88:-0.63365 89:-0.162958 90:0.236071 91:0.236097 92:0.131484 93:0.236069 94:-1 95:0.236073 96:0.236097 97:0.236071 98:0.236073 99:0.23609 100:-1 101:-1 102:-1 103:-1 104:-1 105:-1 106:-1 107:-1 108:-1 109:-1 110:-1 111:-1 112:-1 113:-1 114:-1 115:-1 116:-1 117:-1 118:-1 119:-1 120:0.0977254 121:-0.339131 122:0.475309 123:-0.228895 124:0.254543 125:-0.617242 126:0.236071 127:0.0996485 128:0.265506 129:0.23608 130:-0.561427 131:-0.75963 132:-0.789701 133:-0.919541 134:-0.922714 135:0.70956 136:1 137:-0.769498 138:-1 139:-1 140:-1 141:-1 142:-1 143:-1 144:-1 145:-1 146:-1 147:-1 148:-1 149:-1 150:-1 151:-1 152:-1 153:-1 154:-1 155:-1 156:-1 157:-0.59382 158:1 159:-0.248765 160:-0.529819 161:-0.661238 162:0.373417 163:0.236097 164:0.26295 165:0.324365 166:-0.630914 167:-0.845738 168:-0.851808 169:-0.894052 170:0.573932 171:1 172:-0.568756 173:-1 174:-1 175:-1 176:-1 177:0.23607 178:0.236078 179:-0.586742 180:-0.121838 181:-0.651982 182:-0.688838 183:-1 184:-1 185:-1 186:0.15665 187:0.520059 188:0.628662 189:-0.566183 190:-0.367732 191:-0.773633 192:-0.632289 193:1 194:0.44661 195:-1 196:-1 197:-1 198:-0.701139 199:-0.678421 200:0.236114 201:0.236114 202:0.236079 203:0.236082 204:-1 205:-1 206:-1 207:-0.0525407 208:0.531661 209:1 210:-0.377726 211:-0.827151 212:-1 213:-1 214:-1 215:-1 216:-1 217:-1 218:-1 219:-1 220:-1 221:-0.730516 222:0.672392 223:1 224:-0.429402 225:-0.95757 226:-1 227:-1 228:-1 229:-1 230:-1 231:-1 232:-1 233:-1 234:-1 235:-1 236:-1 237:0.236082 238:0.236075 239:0.236073 240:0.169839 241:0.236079 242:-0.733915 243:-1 244:-1 245:-1 246:-1 247:-1 248:-1 249:-1 250:0.236114 
3.278699599043564 48.44793293346145 1.649631645834188 10.67412642850523 3.835291910352553 2:-1 3:-1 4:0.745998 5:0.746124 6:0.74602 7:-0.0973793 8:-1 9:-1 10:-1 11:-0.865061 12:-1 13:0.570195 14:-0.0455264 15:-0.590959 16:-0.4393 17:0.223162 18:0.0881755 19:0.424537 20:1 21:0.345781 22:-0.0552057 23:-1 24:-1 25:-1 26:-1 27:-1 35:-1 36:0.0225 37:0.377549 38:0.0253672 39:-0.598758 40:0.450153 41:0.712102 42:0.606035 43:-0.253361 44:0.250426 45:0.802112 46:0.0709061 47:-0.165306 48:-0.108936 49:-0.162156 50:0.545315 51:0.104225 52:-0.00617534 53:0.203744 54:-0.375804 55:-0.49176 56:-0.331263 57:-0.465014 58:-0.541455 59:-0.35803 60:-0.503246 61:-0.554181 62:-0.665631 63:-0.685142 64:-1 65:-0.763993 66:-1 67:0.745998 68:-1 69:0.745998 70:-1 71:-0.257039 72:-0.103267 73:0.557809 74:1 75:0.808849 76:0.128779 77:-0.319881 78:0.413908 79:0.618271 80:-0.0371754 81:0.641479 82:0.225743 83:-0.181175 84:-0.394068 85:-0.25628 86:-0.440225 87:-0.380798 88:-0.444951 89:0.0867929 90:0.0164792 91:0.0699436 92:0.518123 93:-0.388622 94:0.229729 95:-0.498467 96:-0.420452 97:-0.411522 98:-0.598766 99:-0.673067 100:-0.607768 101:-0.55398 102:-1 103:-1 104:-1 105:-1 106:-1 107:-1 108:-1 109:-1 110:-1 111:-1 112:-1 113:-1 114:-1 115:-1 116:-1 117:-0.874309 118:-0.303991 119:-0.424691 120:-0.0234231 121:-0.475629 122:0.559468 123:0.303664 124:0.107652 125:0.0353346 126:-0.384776 127:0.388098 128:-0.45865 129:-0.422779 130:-0.549188 131:-0.271748 132:0.0466853 133:0.20152 134:0.120682 135:0.460342 136:0.710615 137:0.746021 138:-0.0993823 139:-0.289622 140:0.745998 141:-1 142:-1 143:-1 144:-1 145:-1 146:-1 147:-1 148:-1 149:-1 150:-0.835908 151:0.13874 152:-0.507623 153:0.0776436 154:0.427289 155:0.277665 156:-0.433283 157:0.0723741 158:-0.0204934 159:-0.0336217 160:-0.593002 161:-0.486861 162:-0.465005 163:-0.375875 164:-0.633654 165:-0.388591 166:0.198052 167:0.0682254 168:0.940143 169:0.306996 170:-0.233656 171:0.0820236 172:-0.440084 173:-0.249159 174:0.10124 175:0.745998 176:-0.0417658 177:-0.489336 178:-0.215363 179:0.0731761 180:0.0642291 181:-0.698752 182:-0.25922 183:0.562457 184:0.935625 185:0.745049 186:0.783397 187:0.511087 188:0.0366194 189:-0.765334 190:-0.0878073 191:-0.412156 192:-0.130823 193:0.429895 194:0.807858 195:1 196:0.466622 197:0.246192 198:-0.482527 199:-0.721639 200:-0.598725 201:-0.398128 202:-0.50617 203:-0.554179 204:-0.613485 205:0.746021 206:-0.345477 207:0.75631 208:0.58168 209:0.00490427 210:-0.182411 211:-0.326693 212:-1 213:-1 214:-1 215:-1 216:-1 217:-1 218:-1 219:-1 220:-1 221:-0.40516 222:0.360283 223:0.404952 224:0.489988 225:0.597854 226:0.621134 227:-0.25356 228:0.445007 229:-0.0878049 230:-1 231:-1 232:-1 233:-1 234:-1 235:-0.42682 236:-0.165712 237:-0.482856 238:-0.427869 239:-0.0971921 240:0.181392 241:-0.515963 242:-0.0209771 243:0.241876 244:0.057309 245:-0.0117851 246:0.0091569 247:0.0591959 248:0.566518 249:0.641083 250:-0.197531 
37.18368201397743 5.098220740635812 0.0412142909606093 12.78031827801427 7.309556813525956 2:-1 3:-1 4:-0.182924 5:0.0751517 6:0.36185 7:0.90069 8:0.747066 9:0.0953743 10:-0.0973827 11:0.705048 12:0.902146 13:0.417055 14:0.358596 15:0.353068 16:-0.313952 17:-0.0152998 18:-0.0515802 19:0.484615 20:0.573294 21:0.0918218 22:0.69651 23:-0.240753 24:0.280793 25:-1 26:-1 27:-1 35:-1 36:0.435625 37:0.217587 38:-0.395003 39:-0.75661 40:0.138291 41:0.221494 42:0.50311 43:0.761546 44:0.0521369 45:0.746096 46:0.429723 47:0.236897 48:0.501144 49:0.512265 50:0.566802 51:-0.213674 52:0.356449 53:0.157886 54:-0.040327 55:-0.599431 56:-0.280255 57:-0.424209 58:-0.535055 59:-0.349071 60:-0.606614 61:-0.457562 62:-0.655781 63:0.473569 64:0.877759 65:0.877669 66:-0.697113 67:0.0213447 68:0.219745 69:-0.182497 70:-1 71:-0.304723 72:0.00723526 73:0.172745 74:0.323952 75:0.632439 76:-0.0918399 77:-0.363467 78:0.26617 79:0.453975 80:0.969893 81:0.940301 82:0.736081 83:-0.211759 84:-0.257363 85:-0.512773 86:-0.301479 87:-0.379176 88:-0.220876 89:0.313849 90:0.0765106 91:-0.186398 92:0.0541438 93:-0.463543 94:0.214864 95:-0.640128 96:-0.64535 97:-0.524326 98:-0.358483 99:-0.415851 100:0.652122 101:-0.165213 102:-1 103:-1 104:-1 105:-1 106:-1 107:-1 108:-1 109:-1 110:-1 111:0.135353 112:-0.216624 113:0.17696 114:0.982943 115:0.979319 116:0.765953 117:0.64705 118:-0.617655 119:0.34602 120:0.222778 121:0.0930571 122:0.315862 123:0.0297672 124:-0.385107 125:-0.244204 126:-0.499313 127:-0.127718 128:-0.681105 129:-0.387312 130:0.521114 131:0.265793 132:0.639785 133:0.874203 134:0.839418 135:0.202747 136:0.0801748 137:0.283981 138:0.451654 139:-0.584455 140:-0.182924 141:-1 142:-1 143:-1 144:-1 145:-0.495939 146:-0.908994 147:0.0724875 148:0.267273 149:-0.494911 150:0.689468 151:0.567282 152:0.843129 153:0.736992 154:-0.187241 155:-0.0480858 156:0.335436 157:0.464329 158:-0.147222 159:-0.382953 160:0.190357 161:0.234974 162:0.279541 163:0.147435 164:-0.738767 165:-0.409891 166:0.027812 167:0.702718 168:0.86833 169:0.877796 170:-0.262825 171:-0.0464014 172:0.35379 173:-0.4145 174:-0.411018 175:-0.182924 176:0.877814 177:-0.379817 178:-0.123783 179:-0.0458252 180:-0.181863 181:-0.083552 182:0.00847876 183:0.671229 184:0.246594 185:0.531136 186:0.437772 187:0.455134 188:0.406766 189:0.317918 190:0.259241 191:0.597046 192:-0.126371 193:0.35877 194:0.776231 195:0.668034 196:0.282618 197:0.166335 198:-0.334124 199:-0.674337 200:-0.0924919 201:0.502105 202:-0.406227 203:-0.123779 204:0.524398 205:0.37734 206:0.30306 207:0.859179 208:0.472153 209:-0.238753 210:-0.252814 211:-0.574057 212:-0.71403 213:-0.933777 214:-1 215:-0.79111 216:-0.84453 217:-1 218:-1 219:-1 220:-1 221:0.773843 222:0.670226 223:0.433308 224:0.533176 225:0.0356393 226:0.298401 227:0.147717 228:0.442652 229:-0.466481 230:-0.566596 231:0.819103 232:0.816301 233:0.819406 234:0.795063 235:0.810633 236:0.883087 237:-0.48679 238:-0.426289 239:0.39257 240:0.145185 241:-0.535067 242:0.185767 243:-0.202619 244:-0.476122 245:-0.418983 246:0.816388 247:0.652161 248:0.78025 249:0.597352 250:-0.029877 
43.90504816211548 0 3.853662130909109 0.1814413148168809 41.53469624132282 2:-1 3:-1 4:-0.28111 5:-0.0542575 6:0.198044 7:0.672276 8:0.536506 9:-0.0362423 10:-0.205848 11:1 12:0.673314 13:0.246641 14:0.850028 15:0.550287 16:-0.161434 17:0.356964 18:-0.00609784 19:0.387962 20:0.444357 21:-0.0395208 22:0.492419 23:-0.332119 24:0.126766 25:-1 26:-1 27:-1 35:-1 36:0.263125 37:0.197194 38:-0.412714 39:-0.706366 40:0.116905 41:0.149635 42:0.450072 43:0.767345 44:-0.00266747 45:0.664436 46:0.361448 47:0.336262 48:0.593042 49:0.790246 50:0.802448 51:-0.249002 52:0.534217 53:0.211264 54:-0.0823978 55:-0.526517 56:-0.0640454 57:-0.383338 58:-0.528096 59:-0.3613 60:-0.465178 61:0.266342 62:-0.339314 63:0.857968 64:0.77891 65:0.84622 66:-0.733491 67:-0.101387 68:0.0732484 69:-0.280683 70:-1 71:-0.388283 72:-0.11401 73:0.143188 74:0.204877 75:0.542471 76:-0.0217376 77:-0.374598 78:0.201788 79:0.362813 80:0.806644 81:0.891168 82:0.668498 83:-0.239169 84:-0.132896 85:-0.26519 86:0.177785 87:0.165207 88:0.599341 89:0.677737 90:0.255297 91:-0.027329 92:0.12891 93:-0.496614 94:0.12501 95:-0.532023 96:-0.137462 97:0.233259 98:-0.215433 99:-0.461663 100:0.776313 101:-0.26554 102:-1 103:-1 104:-1 105:-1 106:-1 107:-1 108:-1 109:-1 110:-1 111:-0.00148274 112:-0.310997 113:0.0353558 114:0.744407 115:0.741245 116:0.553542 117:0.448986 118:-0.660536 119:0.21373 120:0.858009 121:0.854471 122:0.364823 123:-0.0941077 124:-0.459083 125:-0.283942 126:-0.405375 127:-0.0367228 128:-0.659167 129:-0.292938 130:0.582309 131:0.220584 132:0.657947 133:1 134:0.728315 135:0.130178 136:-0.00734359 137:0.252698 138:0.565287 139:-0.561224 140:-0.28111 141:-1 142:-1 143:-1 144:-1 145:-0.556531 146:-0.919924 147:-0.0566126 148:0.114605 149:-0.555786 150:0.486259 151:0.37872 152:0.621364 153:0.527991 154:-0.285015 155:-0.162608 156:0.857993 157:0.715145 158:-0.0872733 159:-0.390262 160:0.158848 161:0.176953 162:0.284663 163:0.468189 164:-0.70317 165:-0.299982 166:-0.0218567 167:0.745236 168:1 169:0.765149 170:-0.298942 171:-0.0720379 172:0.190897 173:-0.484858 174:-0.481973 175:-0.28111 176:0.750503 177:-0.334309 178:0.0571032 179:0.00872341 180:-0.233339 181:-0.131796 182:-0.057458 183:0.745805 184:0.246524 185:0.583687 186:0.295716 187:0.345672 188:0.613051 189:0.56515 190:0.445727 191:0.774631 192:-0.113046 193:0.301305 194:0.662419 195:0.62671 196:0.573685 197:0.243086 198:-0.360927 199:-0.656217 200:-0.146606 201:0.321372 202:-0.169906 203:-0.0897201 204:0.704664 205:0.211659 206:0.477191 207:0.778843 208:0.527247 209:-0.0927737 210:-0.3427 211:-0.625297 212:-0.748394 213:-0.941731 214:-1 215:-0.816199 216:-0.863203 217:-1 218:-1 219:-1 220:-1 221:0.651676 222:0.649098 223:0.376009 224:0.440229 225:0.0320249 226:0.360364 227:0.426663 228:0.784621 229:-0.108153 230:-0.0465676 231:0.813718 232:0.597685 233:0.600594 234:0.579093 235:0.592888 236:1 237:-0.365006 238:-0.131319 239:0.238811 240:0.0768993 241:-0.402241 242:0.540898 243:-0.167776 244:-0.505011 245:-0.415886 246:0.757651 247:0.647127 248:0.688976 249:0.567342 250:0.101157 
0 145.4722521370724 43.87912091548852 285.1941473130587 46.72704934426093 2:-1 3:-1 4:-0.447172 5:-0.27286 6:-0.0788795 7:0.285517 8:0.181877 9:-0.258941 10:-0.389531 11:0.537776 12:0.286592 13:-0.00603236 14:0.422425 15:0.205365 16:-0.229884 17:0.299237 18:-0.0722139 19:0.187265 20:0.683516 21:0.254724 22:0.467388 23:0.373397 24:0.540149 25:-0.566527 26:-1 27:-1 35:-1 36:0.133125 37:-0.0795136 38:-0.435601 39:-0.727201 40:0.406581 41:0.0971267 42:0.311414 43:0.550872 44:-0.130434 45:0.69656 46:0.548575 47:0.516646 48:0.52299 49:0.805803 50:0.813781 51:0.17007 52:0.834987 53:0.100666 54:-0.0968937 55:-0.585143 56:-0.0475334 57:-0.458148 58:-0.625064 59:-0.424274 60:-0.552478 61:0.0159396 62:-0.460253 63:0.760842 64:0.758536 65:0.643681 66:-0.795176 67:-0.308965 68:-0.175159 69:-0.447172 70:-1 71:-0.529519 72:-0.31879 73:-0.0996399 74:-0.0118657 75:0.34953 76:-0.109947 77:-0.312269 78:0.171922 79:0.264416 80:0.814308 81:0.727341 82:0.546677 83:-0.215091 84:0.561669 85:0.569381 86:0.437032 87:0.903773 88:0.882148 89:0.490645 90:0.0837039 91:-0.167489 92:-0.0700069 93:-0.576673 94:0.0378288 95:-0.58724 96:-0.280347 97:0.151452 98:-0.396779 99:-0.586093 100:0.36586 101:-0.435115 102:-1 103:-1 104:-1 105:-1 106:-1 107:-1 108:-1 109:-1 110:-1 111:-0.231942 112:-0.470332 113:-0.203906 114:0.341192 115:0.338709 116:0.194399 117:0.710817 118:-0.602517 119:0.297323 120:0.779448 121:0.493721 122:0.068804 123:-0.273782 124:-0.553169 125:-0.305255 126:-0.517427 127:-0.221719 128:-0.729878 129:-0.0954319 130:0.824884 131:0.333616 132:0.382786 133:0.614883 134:0.768266 135:0.885852 136:0.487309 137:0.421062 138:0.646994 139:0.742727 140:-0.447172 141:-1 142:-1 143:-1 144:-1 145:-0.658836 146:-0.938458 147:-0.274659 148:-0.143153 149:-0.658311 150:0.142828 151:0.0600565 152:0.24664 153:0.212733 154:-0.450275 155:-0.308263 156:0.73605 157:0.474514 158:-0.26699 159:-0.508321 160:0.277461 161:0.148547 162:0.157073 163:0.284052 164:-0.757048 165:-0.0445028 166:0.485179 167:0.563737 168:0.740737 169:0.640226 170:0.960708 171:-0.0810316 172:0.742714 173:0.742582 174:0.742717 175:-0.336606 176:0.649182 177:-0.365014 178:-0.047999 179:-0.00929185 180:-0.290251 181:-0.0226028 182:0.0444518 183:0.836842 184:0.152515 185:0.493807 186:0.342841 187:0.405552 188:0.784871 189:0.545069 190:0.241512 191:0.467824 192:-0.186309 193:0.326532 194:0.805811 195:0.694866 196:0.537184 197:0.395711 198:0.0645952 199:-0.537369 200:-0.132219 201:0.502841 202:-0.23151 203:-0.116673 204:0.467976 205:-0.0526252 206:0.510113 207:0.971344 208:0.358304 209:-0.215864 210:-0.436783 211:-0.711912 212:-0.806514 213:-0.955217 214:-1 215:-0.85874 216:-0.894865 217:-1 218:-1 219:-1 220:-1 221:0.362218 222:0.516795 223:0.310872 224:0.677953 225:0.15972 226:0.914296 227:0.890116 228:0.646609 229:-0.0978397 230:-0.267091 231:0.394583 232:0.22839 233:0.230495 234:0.214177 235:0.224665 236:0.568819 237:-0.401702 238:-0.179228 239:0.121797 240:0.0150085 241:-0.455739 242:0.640434 243:-0.268706 244:-0.593173 245:-0.48672 246:0.49879 247:0.489894 248:0.369381 249:0.288185 250:-0.132219 
0 58.57928223658112 0 81.84817073087241 0 2:-1 3:-1 4:-0.509498 5:-0.354864 6:-0.182926 7:0.140966 8:0.0482399 9:-0.342871 10:-0.458382 11:0.364236 12:0.141398 13:-0.118179 14:0.608128 15:0.271364 16:-0.128989 17:0.231246 18:0.0599184 19:0.264673 20:0.522629 21:0.113162 22:0.301812 23:0.21843 24:0.366419 25:-0.615397 26:-1 27:-1 35:-1 36:0.005 37:-0.183349 38:-0.499251 39:-0.757972 40:0.339823 41:0.0324556 42:0.178613 43:0.454528 44:-0.149202 45:0.576506 46:0.53306 47:0.419321 48:0.486984 49:0.926945 50:0.934595 51:0.280751 52:1 53:0.220583 54:0.126757 55:-0.541819 56:0.239384 57:-0.068598 58:-0.44201 59:-0.173751 60:-0.345462 61:0.189286 62:-0.295827 63:0.6505 64:0.560083 65:0.458165 66:-0.81811 67:-0.386873 68:-0.267516 69:-0.510139 70:-1 71:-0.582652 72:-0.294891 73:-0.182183 74:-0.123368 75:0.257719 76:-0.176999 77:-0.374976 78:0.0596946 79:0.241199 80:0.672476 81:0.619252 82:0.720958 83:-0.113143 84:0.547526 85:0.503682 86:0.536929 87:0.887664 88:0.825645 89:0.729326 90:0.186764 91:-0.0110351 92:0.100117 93:-0.44201 94:0.726597 95:-0.46483 96:0.0014986 97:0.231821 98:-0.361548 99:-0.624421 100:0.2117 101:-0.498909 102:-1 103:-1 104:-1 105:-1 106:-1 107:-1 108:-1 109:-1 110:-1 111:-0.318788 112:-0.529923 113:-0.293788 114:0.189908 115:0.187665 116:0.0596376 117:0.553165 118:-0.640987 119:0.211533 120:0.623133 121:0.378755 122:0.224063 123:-0.23272 124:-0.478556 125:-0.0347778 126:-0.429146 127:-0.287262 128:-0.756783 129:-0.197481 130:0.852175 131:0.270795 132:0.405677 133:0.92167 134:0.704965 135:0.858981 136:0.37737 137:0.288737 138:0.489206 139:0.595962 140:-0.41174 141:-1 142:-1 143:-1 144:-1 145:-0.697475 146:-0.945349 147:-0.356367 148:-0.239553 149:-0.696947 150:0.0138415 151:-0.0595652 152:0.106018 153:0.0758873 154:-0.512294 155:-0.372151 156:0.682265 157:0.392084 158:-0.134349 159:-0.457273 160:0.523849 161:0.0704093 162:0.0515704 163:0.164219 164:-0.764867 165:-0.0557366 166:0.631598 167:0.696658 168:0.710945 169:0.764224 170:0.793289 171:-0.174584 172:0.572292 173:0.791985 174:0.546005 175:-0.41174 176:0.597716 177:-0.0815932 178:0.0699276 179:0.0446665 180:-0.284954 181:-0.111725 182:-0.0355614 183:0.650493 184:0.0224773 185:0.341971 186:0.284464 187:0.391303 188:0.676635 189:0.502553 190:0.191058 191:0.348064 192:-0.226548 193:0.315321 194:0.674597 195:0.680277 196:0.38401 197:0.238224 198:-0.0373972 199:-0.55047 200:-0.211346 201:0.690031 202:-0.187252 203:0.166743 204:1 205:-0.131471 206:0.652509 207:0.997692 208:0.260576 209:-0.24985 210:-0.50032 211:-0.744407 212:-0.828328 213:-0.960232 214:-1 215:-0.874557 216:-0.906637 217:-1 218:-1 219:-1 220:-1 221:0.221631 222:0.387711 223:0.400426 224:0.608845 225:0.0546657 226:0.715832 227:0.706781 228:0.460787 229:-0.199582 230:-0.349752 231:0.23713 232:0.0898567 233:0.0916832 234:0.0770928 235:0.0866252 236:0.515791 237:-0.256387 238:-0.0151995 239:0.314464 240:0.587601 241:-0.506403 242:0.503872 243:-0.343089 244:-0.639066 245:-0.544639 246:0.329696 247:0.420988 248:0.277742 249:0.142869 250:-0.211346 
12.10011434452911 160.0530802977335 3.748383178642908 139.5346690563505 0 2:-1 3:-1 4:-0.532978 5:-0.385419 6:-0.221521 7:0.0868966 8:-0.00130378 9:-0.373867 10:-0.484084 11:0.299571 12:0.0872956 13:-0.129833 14:0.638366 15:0.230037 16:-0.128951 17:0.35595 18:0.100695 19:0.211445 20:0.570449 21:0.0604501 22:0.240173 23:0.160732 24:0.301735 25:-0.633808 26:-1 27:-1 35:-1 36:-0.0425 37:-0.222077 38:-0.499087 39:-0.761478 40:0.295165 41:0.0286302 42:0.137239 43:0.460556 44:-0.189486 45:0.529668 46:0.578427 47:0.434815 48:0.532357 49:0.921092 50:0.911928 51:0.22007 52:0.927516 53:0.252217 54:0.216458 55:-0.534888 56:0.359546 57:-0.069775 58:-0.366248 59:-0.0840963 60:-0.32533 61:0.240293 62:-0.302326 63:0.797023 64:0.651387 65:0.389209 66:-0.826809 67:-0.416222 68:-0.302548 69:-0.532551 70:-1 71:-0.602634 72:-0.328217 73:-0.22093 74:-0.164868 75:0.198179 76:-0.21067 77:-0.345501 78:0.0285728 79:0.212115 80:0.626234 81:0.616711 82:0.731286 83:-0.0956847 84:0.574578 85:0.472287 86:0.480747 87:0.869283 88:0.781644 89:0.671648 90:0.216453 91:0.00177107 92:0.126635 93:-0.417348 94:0.937203 95:-0.454367 96:0.0137053 97:0.259351 98:-0.338088 99:-0.570653 100:0.626468 101:-0.284079 102:-0.636061 103:-1 104:-1 105:-1 106:-1 107:-1 108:-1 109:-1 110:-1 111:-0.350985 112:-0.552174 113:-0.327245 114:0.133557 115:0.131532 116:0.00955519 117:0.479564 118:-0.623583 119:0.269635 120:0.666333 121:0.581272 122:0.205512 123:-0.210461 124:-0.404487 125:-0.08049 126:-0.449026 127:-0.310387 128:-0.768297 129:-0.227958 130:0.796201 131:0.224527 132:0.375638 133:0.914518 134:0.677936 135:0.833466 136:0.350741 137:0.254406 138:0.418751 139:0.520408 140:-0.439488 141:-1 142:-1 143:-1 144:-1 145:-0.711526 146:-0.947962 147:-0.38695 148:-0.275548 149:-0.71127 150:-0.0341023 151:-0.104106 152:0.141424 153:0.0890596 154:-0.505484 155:-0.374884 156:0.80834 157:0.471957 158:-0.159084 159:-0.415322 160:0.478908 161:0.0883756 162:0.0892445 163:0.109125 164:-0.774442 165:-0.0953232 166:0.586395 167:0.638634 168:0.672824 169:0.840182 170:0.771015 171:-0.179896 172:0.497804 173:0.707097 174:0.472935 175:-0.439488 176:0.522018 177:-0.027495 178:0.0844668 179:0.0334944 180:-0.308648 181:-0.153708 182:-0.0451926 183:0.572371 184:-0.0259209 185:0.395128 186:0.27052 187:0.417545 188:0.702636 189:0.431407 190:0.134694 191:0.284251 192:-0.25171 193:0.360029 194:0.647639 195:0.708588 196:0.363496 197:0.179634 198:-0.082938 199:-0.534561 200:-0.230801 201:0.68153 202:-0.181702 203:0.228366 204:0.920092 205:-0.172632 206:0.574265 207:0.982787 208:0.297331 209:-0.196204 210:-0.498251 211:-0.749848 212:-0.836546 213:-0.962134 214:-1 215:-0.880556 216:-0.911102 217:-1 218:-1 219:-1 220:-1 221:0.191862 222:0.415474 223:0.439209 224:0.625156 225:0.00472572 226:0.642932 227:0.625965 228:0.391663 229:-0.237491 230:-0.380609 231:0.178521 232:0.0382389 233:0.04 234:0.0260654 235:0.0351231 236:0.444048 237:-0.224813 238:0.00177562 239:0.386398 240:0.534994 241:-0.522969 242:0.44805 243:-0.374226 244:-0.656171 245:-0.566196 246:0.266784 247:0.353665 248:0.217288 249:0.0887061 250:-0.248621 
32.34809557042692 13.24292578811835 153.9937490530682 63.74151935424884 1.987388950702893 2:-1 3:0.228669 4:-0.615795 5:-0.474388 6:-0.167808 7:-0.00744828 8:0.524772 9:0.029566 10:0.569913 11:0.424942 12:0.465323 13:0.258157 14:0.670839 15:0.0951786 16:-0.252086 17:0.299642 18:0.347876 19:0.325892 20:0.427844 21:-0.0459847 22:0.188902 23:0.0374504 24:0.337918 25:-0.638494 26:-0.277108 27:1 35:-1 36:-0.2125 37:-0.360337 38:-0.588131 39:-0.73196 40:0.574292 41:-0.055425 42:0.0301071 43:0.43019 44:-0.24759 45:0.626239 46:0.877541 47:0.462004 48:0.405605 49:0.693733 50:0.883672 51:0.225 52:0.748836 53:0.1032 54:0.176785 55:-0.558724 56:0.250337 57:-0.176301 58:-0.394834 59:-0.0939053 60:-0.411649 61:0.117899 62:-0.345445 63:0.731588 64:0.731183 65:0.246105 66:-0.715302 67:-0.327641 68:-0.426752 69:-0.615795 70:-1 71:-0.673025 72:-0.289849 73:-0.165708 74:-0.0128794 75:0.828328 76:-0.268209 77:-0.430742 78:-0.0893616 79:0.161442 80:0.647487 81:0.678703 82:0.707573 83:-0.171509 84:0.427997 85:0.461438 86:0.532216 87:0.828846 88:0.831266 89:0.972213 90:0.470965 91:0.0296722 92:0.292628 93:-0.352796 94:0.983633 95:-0.477827 96:-0.127272 97:0.0943631 98:-0.382188 99:-0.56197 100:0.984656 101:0.275354 102:-0.102617 103:0.209677 104:-1 105:-1 106:-1 107:-1 108:-1 109:-1 110:-1 111:-0.466215 112:-0.631714 113:-0.349127 114:0.0124581 115:-0.00313904 116:-0.031631 117:0.520744 118:-0.650548 119:0.550125 120:0.480465 121:0.499432 122:0.196521 123:-0.194794 124:-0.414787 125:0.257112 126:-0.452818 127:-0.223609 128:-0.775856 129:-0.250587 130:0.842285 131:0.830696 132:0.431432 133:0.873011 134:0.548942 135:0.597529 136:0.169608 137:0.185072 138:0.166534 139:0.250109 140:-0.538954 141:-1 142:-1 143:-1 144:-1 145:-0.762898 146:-0.957229 147:-0.453951 148:-0.40422 149:-0.66095 150:-0.0252758 151:-0.160192 152:0.137111 153:0.422173 154:-0.495037 155:-0.349177 156:0.656115 157:0.477136 158:-0.178268 159:-0.427863 160:0.350345 161:0.0964851 162:0.00677554 163:0.10809 164:-0.771044 165:0.0380569 166:0.840255 167:0.901763 168:0.629431 169:0.729974 170:0.503051 171:-0.274088 172:0.590829 173:0.486234 174:0.211037 175:-0.538954 176:0.25151 177:-0.0853533 178:-0.0141468 179:0.0150419 180:-0.00513368 181:0.0437785 182:0.170234 183:0.70206 184:-0.140029 185:0.360902 186:0.252538 187:0.435796 188:0.737456 189:0.46612 190:0.0934939 191:0.181697 192:-0.338927 193:0.436438 194:0.800654 195:0.603584 196:0.232216 197:0.591985 198:0.28044 199:0.0104215 200:0.0737728 201:0.824008 202:-0.247187 203:0.14537 204:0.724573 205:-0.319654 206:0.635434 207:0.988613 208:0.198495 209:-0.255907 210:-0.462603 211:-0.775102 212:-0.623637 213:-0.595574 214:-0.34992 215:0.177529 216:-0.0505379 217:-0.453054 218:-1 219:-1 220:-1 221:0.0338958 222:0.334091 223:0.398709 224:0.783548 225:-0.0789116 226:0.453766 227:0.454297 228:0.377414 229:0.429547 230:0.579052 231:0.824172 232:-0.00958345 233:-0.0734653 234:-0.00730934 235:-0.0228606 236:0.295342 237:-0.186078 238:-0.0226471 239:0.544488 240:0.819073 241:-0.506886 242:0.634028 243:-0.326602 244:-0.635189 245:-0.620987 246:0.0586896 247:0.216716 248:0.0173247 249:-0.0469809 250:-0.352761 
13.56859769922335 266.9213494141894 11.60655096773967 7.205231154127539 256.8221141497863 2:-1 3:-0.00341297 4:-0.500534 5:-0.424961 6:0.0144953 7:-0.0317241 8:0.430248 9:0.325227 10:0.620844 11:0.447542 12:0.634946 13:0.8847 14:0.67784 15:0.038818 16:-0.227563 17:0.384206 18:0.360471 19:0.231025 20:0.413155 21:0.0159183 22:0.119422 23:0.436676 24:0.449814 25:-0.412552 26:-0.412316 27:0.622222 35:-1 36:0.279375 37:0.258559 38:-0.0197542 39:-0.63605 40:0.593047 41:-0.00152672 42:0.0325981 43:0.554408 44:-0.263852 45:0.852382 46:0.927541 47:0.44515 48:0.342586 49:0.683199 50:0.657471 51:0.0298709 52:0.450901 53:-0.103445 54:-0.0276839 55:-0.636575 56:0.0878326 57:-0.196639 58:-0.474006 59:-0.206252 60:-0.453501 61:-0.0516335 62:-0.438141 63:0.538619 64:0.51745 65:0.265724 66:0.965994 67:-0.0635005 68:0.863057 69:-0.0640342 70:-1 71:0.660309 72:0.0901118 73:0.356046 74:0.290561 75:0.655287 76:-0.302607 77:-0.448934 78:-0.085358 79:0.21667 80:0.777221 81:0.823508 82:0.767565 83:-0.123838 84:0.454555 85:0.568835 86:0.40092 87:0.660288 88:0.672514 89:0.748589 90:0.243264 91:-0.123348 92:0.0767711 93:-0.426176 94:0.783048 95:-0.521805 96:-0.242909 97:-0.0723254 98:-0.456084 99:-0.617446 100:0.928554 101:0.674482 102:0.700872 103:0.965054 104:-1 105:0.959732 106:-1 107:-1 108:-1 109:-1 110:-0.606734 111:-0.194662 112:0.458824 113:0.77195 114:0.580353 115:0.566197 116:0.0600769 117:0.572987 118:-0.686244 119:0.439722 120:0.33528 121:0.708592 122:0.213887 123:-0.235601 124:-0.382677 125:0.673129 126:-0.196671 127:-0.142116 128:-0.777989 129:-0.290288 130:0.705075 131:0.834978 132:0.464336 133:0.765009 134:0.614676 135:0.496733 136:0.0426381 137:-0.0101226 138:0.0911871 139:0.111376 140:-0.500534 141:0.940199 142:0.397849 143:-0.558794 144:-0.423565 145:0.220198 146:0.946062 147:0.946072 148:0.875879 149:0.653788 150:0.349448 151:-0.245671 152:-0.0465396 153:0.476912 154:-0.572706 155:-0.212626 156:0.686026 157:0.316766 158:-0.254803 159:-0.407473 160:0.582471 161:0.415309 162:0.285753 163:0.131686 164:-0.762991 165:0.0656624 166:0.813285 167:0.793243 168:0.694011 169:0.758479 170:0.297667 171:-0.364929 172:0.392973 173:0.230346 174:0.0404769 175:-0.56286 176:0.327574 177:-0.0936464 178:-0.132909 179:0.0903168 180:0.222978 181:0.588823 182:0.540912 183:0.596017 184:-0.15036 185:0.332881 186:0.206996 187:0.490298 188:0.853092 189:0.560732 190:0.00284328 191:0.369042 192:-0.317215 193:0.420078 194:0.793585 195:0.574268 196:0.143256 197:0.739395 198:0.283444 199:0.16951 200:0.207422 201:0.876895 202:-0.361207 203:0.0583639 204:0.589121 205:-0.340082 206:0.774567 207:0.877564 208:0.225583 209:-0.196064 210:-0.49791 211:-0.723618 212:0.42029 213:-0.342613 214:-0.0024077 215:0.116444 216:-0.169068 217:-0.555758 218:-1 219:-1 220:-1 221:0.0404112 222:0.27832 223:0.442652 224:0.782079 225:-0.074141 226:0.465732 227:0.677518 228:0.96326 229:0.834425 230:0.821656 231:0.945826 232:0.554227 233:0.853465 234:0.855468 235:0.409127 236:0.649261 237:-0.166383 238:-0.0874776 239:0.578003 240:0.976172 241:-0.442131 242:0.976559 243:-0.349478 244:-0.66276 245:-0.664813 246:-0.0563173 247:0.115011 248:-0.0132215 249:0.314263 250:-0.0675604 
9.316124422591594 1.743885089951972 133.5150751198139 7.81097008026562 512 2:-1 3:-0.303754 4:-0.6508 5:-0.563581 6:-0.218141 7:-0.154207 8:0.333116 9:0.657606 10:0.783777 11:0.65259 12:0.721344 13:0.779956 14:0.316983 15:-0.194538 16:-0.330848 17:0.499952 18:0.194054 19:0.243732 20:0.423029 21:0.13605 22:0.573234 23:0.885942 24:0.697522 25:0.745272 26:0.506024 27:0.133333 35:0.854545 36:0.916875 37:0.702152 38:0.0083104 39:-0.585897 40:0.522744 41:0.195986 42:0.131613 43:0.516133 44:-0.291607 45:0.850617 46:0.876117 47:0.659185 48:0.377534 49:0.610339 50:0.729881 51:0.0618545 52:0.345414 53:-0.105898 54:-0.0195095 55:-0.682448 56:-0.0891405 57:-0.217826 58:-0.575039 59:-0.391643 60:-0.53683 61:-0.247922 62:-0.54457 63:0.154221 64:0.13771 65:-0.0856896 66:0.535785 67:-0.181964 68:0.952229 69:0.090715 70:0.942857 71:0.532243 72:0.882701 73:0.760401 74:0.444637 75:0.727514 76:-0.17102 77:-0.424955 78:-0.0733842 79:0.111627 80:0.694194 81:0.803444 82:0.993228 83:-0.229689 84:0.413395 85:0.778236 86:0.826434 87:0.845821 88:0.862667 89:0.810805 90:0.129806 91:-0.192229 92:-0.112687 93:-0.469989 94:0.468392 95:-0.590551 96:-0.398327 97:-0.284724 98:-0.548739 99:-0.662022 100:0.789259 101:0.895311 102:0.953469 103:0.649194 104:0.942857 105:0.369128 106:-1 107:-1 108:-1 109:-1 110:-0.725253 111:-0.0472358 112:0.96087 113:0.959671 114:0.269033 115:0.28356 116:0.0778693 117:0.822065 118:-0.727737 119:0.78816 120:0.388547 121:0.855549 122:0.0740874 123:-0.3575 124:-0.457211 125:0.790574 126:-0.140956 127:-0.122821 128:-0.760449 129:-0.273441 130:0.853045 131:0.854689 132:0.936334 133:0.516651 134:0.607336 135:0.309017 136:-0.0290846 137:0.302884 138:0.425479 139:0.486974 140:0.0471718 141:0.355482 142:0.221027 143:0.746734 144:0.835742 145:0.840176 146:0.773316 147:0.670596 148:0.649566 149:0.849604 150:0.476429 151:-0.347116 152:-0.169509 153:0.885254 154:-0.643291 155:-0.254238 156:0.487117 157:0.441078 158:-0.303559 159:-0.453763 160:0.860575 161:0.648872 162:0.299886 163:0.320291 164:-0.755847 165:0.243907 166:0.774014 167:0.614335 168:0.602912 169:0.636078 170:0.388559 171:-0.382542 172:0.486796 173:0.563628 174:0.376022 175:-0.0399146 176:0.384531 177:-0.156766 178:-0.289149 179:0.023656 180:0.0971219 181:0.618837 182:0.809269 183:0.719976 184:-0.231274 185:0.558647 186:0.229208 187:0.468208 188:0.862696 189:0.77721 190:0.0486703 191:0.367126 192:-0.317731 193:0.369873 194:0.965704 195:0.918714 196:0.192747 197:0.689009 198:0.576139 199:0.252371 200:0.22843 201:0.796624 202:-0.473767 203:-0.186644 204:0.400553 205:-0.214525 206:0.967942 207:0.821969 208:0.184421 209:-0.201191 210:-0.536051 211:-0.742913 212:0.405199 213:-0.452062 214:-0.179374 215:0.00354513 216:-0.377715 217:-0.689456 218:-1 219:-1 220:-1 221:0.163049 222:0.486164 223:0.540948 224:0.958573 225:-0.0555973 226:0.355677 227:0.492424 228:0.589025 229:0.382021 230:0.504883 231:0.424996 232:0.125154 233:0.356238 234:0.438146 235:0.450469 236:0.667976 237:-0.28358 238:-0.261851 239:0.349573 240:0.708288 241:-0.544783 242:0.669506 243:-0.310681 244:-0.696894 245:-0.670698 246:0.600607 247:0.897001 248:0.0999362 249:0.197593 250:0.211673 
39.93080519430725 0 8.027317068840112 0 17.01295190272745 2:0.918367 3:0.924915 4:-0.598719 5:-0.535161 6:-0.096843 7:0.763862 8:0.900261 9:0.928469 10:0.70738 11:0.690861 12:0.63536 13:0.804908 14:0.25257 15:-0.226641 16:-0.331841 17:0.551357 18:0.328215 19:0.229885 20:0.401163 21:0.189629 22:0.618918 23:0.838945 24:0.89938 25:0.605356 26:0.384203 27:0.0444444 35:0.709091 36:0.939375 37:0.794574 38:-0.000735675 39:-0.511457 40:0.645396 41:0.255013 42:0.168154 43:0.562736 44:-0.212229 45:0.856364 46:0.869405 47:0.583097 48:0.460314 49:0.628042 50:0.746724 51:0.0816315 52:0.40899 53:-0.10835 54:0.0352044 55:-0.65871 56:-0.100666 57:-0.22515 58:-0.595918 59:-0.391185 60:-0.547573 61:-0.277458 62:-0.581068 63:0.0617141 64:0.046595 65:-0.158973 66:0.413207 67:-0.247065 68:0.796178 69:0.00320171 70:0.790476 71:0.451862 72:1 73:0.767272 74:0.603661 75:1 76:-0.0416596 77:-0.412139 78:-0.0763062 79:0.0990918 80:0.653673 81:0.818219 82:0.995086 83:-0.13409 84:0.459316 85:0.960605 86:0.923138 87:0.91145 88:0.923047 89:0.873907 90:0.217565 91:-0.180077 92:-0.110592 93:-0.472932 94:0.382046 95:-0.600278 96:-0.390207 97:-0.305127 98:-0.577226 99:-0.661768 100:0.668425 101:0.743184 102:0.797258 103:0.516129 104:0.790476 105:0.261745 106:0.89899 107:0.89899 108:0.89899 109:0.89899 110:0.900337 111:-0.00402457 112:0.827877 113:0.836694 114:0.184104 115:0.227057 116:0.0225151 117:0.950676 118:-0.727811 119:0.983826 120:0.753638 121:0.95621 122:0.0571866 123:-0.380217 124:-0.46949 125:0.770882 126:-0.142166 127:-0.101927 128:-0.764272 129:-0.284712 130:0.753654 131:0.793796 132:0.925014 133:0.57327 134:0.736186 135:0.342885 136:0.00920782 137:0.548265 138:0.483824 139:0.79657 140:0.0838847 141:0.249169 142:0.123059 143:0.607035 144:0.73018 145:0.693085 146:0.653558 147:0.558772 148:0.595366 149:0.736902 150:0.358275 151:-0.399435 152:-0.160582 153:0.940578 154:-0.645193 155:-0.250231 156:0.577343 157:0.436759 158:-0.272085 159:-0.373989 160:1 161:0.971774 162:0.404116 163:0.409226 164:-0.752016 165:0.203527 166:0.700743 167:0.55021 168:0.599796 169:0.779108 170:0.429021 171:-0.359462 172:0.496378 173:0.43836 174:0.26584 175:-0.116756 176:0.638493 177:-0.105536 178:-0.318097 179:-0.0151949 180:0.210156 181:1 182:0.989463 183:0.872948 184:-0.090202 185:0.732348 186:0.199048 187:0.410829 188:0.911252 189:0.899191 190:0.163851 191:0.586068 192:-0.274605 193:0.357089 194:0.923354 195:0.853969 196:0.257461 197:1 198:1 199:1 200:0.252953 201:0.806433 202:-0.497007 203:-0.239515 204:0.459742 205:-0.157083 206:0.909257 207:0.744016 208:0.276675 209:-0.203435 210:-0.471503 211:-0.676096 212:0.995069 213:1 214:1 215:1 216:0.946824 217:1 218:0.123059 219:-0.884414 220:-0.83821 221:0.190522 222:0.53205 223:0.507797 224:0.887744 225:-0.0457643 226:0.340244 227:0.458663 228:0.694301 229:0.53338 230:0.836943 231:0.787423 232:0.30278 233:0.82495 234:0.997242 235:0.960235 236:0.867131 237:-0.233368 238:-0.230463 239:0.568112 240:0.949765 241:-0.464115 242:0.966 243:-0.199936 244:-0.697351 245:-0.667973 246:0.552593 247:0.853269 248:0.0718519 249:0.184674 250:0.314424 
-2.121113345605526 0.4653969252612657 0.7928729377059079 0.4017869147173924 0.3836615624306954 2:-1 3:-1 4:-1 5:-1 6:-1 7:-1 8:-1 9:-1 10:-1 11:-1 12:-1 13:-1 14:-1 15:-1 16:1 17:-0.0699484 18:-0.542342 19:1 20:-1 21:-1 22:-1 23:-1 24:-1 25:-1 26:-1 27:-1 35:-1 36:-1 37:-1 38:1 39:1 40:0.0492895 41:0.468994 42:-1 43:-0.883692 44:-0.9101 45:-0.913624 46:-0.921496 47:-1 48:-0.619276 49:-1 50:-0.518555 51:-0.641021 52:0.857663 53:1 54:1 55:1 56:1 57:1 58:1 59:1 60:1 61:1 62:1 63:-0.215166 64:-1 65:-1 66:-1 67:-1 68:-1 69:-1 70:-1 71:-1 72:-1 73:-1 74:-1 75:-0.0339817 76:-0.259664 77:0.584995 78:-0.923943 79:-0.723438 80:-0.74888 81:-0.760917 82:-0.266816 83:-0.825074 84:-0.784256 85:-1 86:-0.0699053 87:-1 88:-0.407153 89:0.354367 90:1 91:1 92:0.830774 93:1 94:-1 95:1 96:1 97:1 98:1 99:1 100:-1 101:-1 102:-1 103:-1 104:-1 105:-1 106:-1 107:-1 108:-1 109:-1 110:-1 111:-1 112:-1 113:-1 114:-1 115:-1 116:-1 117:-1 118:-1 119:-1 120:0.776125 121:0.069283 122:-1 123:-0.922019 124:0.867485 125:-0.690341 126:1 127:0.482681 128:1 129:1 130:-1 131:-1 132:-1 133:-1 134:-1 135:-1 136:-1 137:-1 138:-1 139:-1 140:-1 141:-1 142:-1 143:-1 144:-1 145:-1 146:-1 147:-1 148:-1 149:-1 150:-1 151:-1 152:-1 153:-1 154:-1 155:-1 156:-1 157:-1 158:0.192228 159:0.147983 160:-0.492797 161:-0.725935 162:1 163:1 164:1 165:1 166:-1 167:-1 168:-1 169:-1 170:-1 171:-1 172:-1 173:-1 174:-1 175:-1 176:-1 177:1 178:1 179:-0.331336 180:0.420892 181:-0.436818 182:-0.49646 183:-1 184:-1 185:-1 186:-0.578918 187:-0.807853 188:0.395109 189:-0.298066 190:0.023025 191:-0.633733 192:-0.405038 193:-0.180751 194:-0.941482 195:-1 196:-1 197:-1 198:-0.516366 199:-0.479604 200:1 201:1 202:1 203:1 204:-1 205:-1 206:-1 207:-1 208:1 209:0.971383 210:0.00684871 211:-0.720326 212:-1 213:-1 214:-1 215:-1 216:-1 217:-1 218:-1 219:-1 220:-1 221:-0.825581 222:-0.906688 223:-0.452362 224:-0.876897 225:-0.931337 226:-1 227:-1 228:-1 229:-1 230:-1 231:-1 232:-1 233:-1 234:-1 235:-1 236:-1 237:1 238:1 239:1 240:0.892826 241:1 242:-0.569407 243:-1 244:-1 245:-1 246:-1 247:-1 248:-1 249:-1 250:1 
-2.376987663670872 4.555453363777689 19.12200189192857 4.974114440766838 1.274704212105582 2:-1 3:-1 4:-1 5:-1 6:-1 7:-1 8:-1 9:-1 10:-1 11:-0.76031 12:-1 13:-0.601727 14:-0.788143 15:-0.699456 16:-0.296686 17:0.619716 18:0.569909 19:-0.0942541 20:0.102109 21:1 22:-0.258732 23:-1 24:-1 25:-1 26:-1 27:-1 35:-1 36:-0.091875 37:-0.184659 38:0.108253 39:-0.445882 40:0.619722 41:0.61971 42:-0.113335 43:-0.364725 44:0.771972 45:0.805078 46:-0.328863 47:-0.204058 48:-0.141083 49:-0.645794 50:-0.0853567 51:0.619718 52:0.0293582 53:-0.524993 54:-0.525014 55:-0.525046 56:-0.524993 57:-0.525046 58:-0.52506 59:-0.525046 60:-0.52506 61:-0.525027 62:-0.525034 63:-0.813575 64:-1 65:-1 66:-1 67:-1 68:-1 69:-1 70:-1 71:-1 72:-1 73:-0.879704 74:0.212629 75:-0.388224 76:0.230713 77:-0.0276127 78:0.896476 79:0.62555 80:-0.224701 81:0.0598751 82:0.102743 83:0.0592811 84:-0.026558 85:-0.295676 86:-0.558216 87:-0.371716 88:-0.577631 89:-0.195948 90:-0.430029 91:-0.36672 92:1 93:-0.457191 94:-0.757328 95:-0.465648 96:-0.525027 97:-0.430029 98:-0.525034 99:-0.419484 100:-0.303524 101:-0.207743 102:-1 103:-1 104:-1 105:-1 106:-1 107:-1 108:-1 109:-1 110:-1 111:-1 112:-1 113:-1 114:-1 115:-1 116:-1 117:-0.776736 118:0.195546 119:-0.744649 120:-0.484465 121:-0.534452 122:0.0247659 123:1 124:0.870379 125:0.323631 126:-0.287569 127:0.619731 128:-0.310176 129:-0.32505 130:-0.578712 131:-0.692125 132:-0.272755 133:-0.10333 134:-0.524796 135:-0.239376 136:-0.121717 137:-0.911397 138:-1 139:-1 140:-1 141:-1 142:-1 143:-1 144:-1 145:-1 146:-1 147:-1 148:-1 149:-1 150:-1 151:-1 152:-1 153:-1 154:1 155:1 156:-0.532811 157:0.0613074 158:0.199941 159:0.619713 160:-0.397774 161:-0.218979 162:-0.155619 163:-0.28754 164:-0.432106 165:-0.287558 166:-0.6809 167:-0.851818 168:-0.65834 169:-0.592858 170:-0.357411 171:-0.135435 172:-0.834312 173:-1 174:-1 175:-1 176:-0.893627 177:-0.352322 178:-0.366713 179:0.619712 180:0.619689 181:-0.732542 182:-0.402124 183:-1 184:0.088937 185:0.619707 186:1 187:0.295939 188:-0.116498 189:-0.66659 190:0.619725 191:-0.56509 192:0.217285 193:0.498088 194:0.486932 195:0.575155 196:-0.871923 197:0.617061 198:-0.65544 199:-0.876388 200:-0.524993 201:-0.28753 202:-0.500679 203:-0.493373 204:-0.607815 205:-0.822855 206:-0.449491 207:0.0166214 208:0.6314 209:0.378 210:0.195544 211:0.195543 212:-1 213:-1 214:-1 215:-1 216:-1 217:-1 218:-1 219:-1 220:-1 221:-0.399414 222:0.152287 223:0.229603 224:-0.137603 225:0.532738 226:-0.335709 227:-0.810669 228:0.0263778 229:0.619652 230:-1 231:-1 232:-1 233:-1 234:-1 235:-1 236:-1 237:-0.319219 238:-0.419486 239:0.0686639 240:-0.100934 241:-0.276249 242:0.329297 243:1 244:0.619705 245:0.619717 246:0.240594 247:0.0448105 248:-0.735114 249:-0.184112 250:-0.524993 
-21.80167642011604 4.062405215115185 8.8248175037302 6.875109798335049 12.90490272034853 2:-1 3:-1 4:-0.129562 5:-0.129746 6:-0.129747 7:-0.549793 8:-1 9:-1 10:-0.807593 11:0.41257 12:0.857153 13:0.00630655 14:0.347901 15:0.307587 16:-0.305193 17:-0.0235357 18:-0.0169634 19:0.519244 20:0.585475 21:0.0936278 22:0.785032 23:-0.191357 24:0.364188 25:-1 26:-1 27:-1 35:-1 36:0.529375 37:0.296913 38:-0.355603 39:-0.74077 40:0.212397 41:0.301004 42:0.594223 43:0.852946 44:0.078672 45:0.681253 46:0.355326 47:0.17874 48:0.345076 49:0.332309 50:0.636693 51:-0.1625 52:0.320915 53:0.0999305 54:-0.377766 55:-0.693369 56:-0.500061 57:-0.52001 58:-0.600028 59:-0.386738 60:-0.619085 61:-0.42225 62:-0.633343 63:0.569541 64:1 65:1 66:-0.677343 67:0.088047 68:0.299363 69:-0.129136 70:-1 71:-0.444596 72:0.0727911 73:0.0464876 74:0.191342 75:0.48114 76:-0.0327032 77:-0.339639 78:0.262403 79:0.479487 80:0.874905 81:0.843469 82:0.759474 83:-0.201264 84:-0.266568 85:-0.579866 86:-0.411031 87:-0.338739 88:-0.249176 89:0.399314 90:0.119932 91:-0.13343 92:0.0983808 93:-0.428605 94:0.293862 95:-0.616708 96:-0.644478 97:-0.493395 98:-0.316712 99:-0.377813 100:0.75977 101:-0.110687 102:-1 103:-1 104:-1 105:-1 106:-1 107:-1 108:-1 109:-1 110:-1 111:0.209066 112:-0.270077 113:0.25364 114:0.857111 115:0.857204 116:0.52268 117:0.378457 118:-0.622936 119:0.0752868 120:0.210292 121:0.0691956 122:0.383165 123:0.0500242 124:-0.350501 125:-0.298167 126:-0.546691 127:-0.189529 128:-0.682569 129:-0.375489 130:0.596462 131:0.261766 132:0.542381 133:0.640361 134:0.942486 135:0.251919 136:0.109398 137:0.367522 138:0.546083 139:-0.645897 140:-0.129562 141:-1 142:-1 143:-1 144:-1 145:-1 146:-1 147:0.047041 148:0.0124121 149:-0.615718 150:0.635908 151:0.635895 152:0.717753 153:0.670984 154:-0.151475 155:-0.0615457 156:0.341671 157:0.436974 158:-0.148484 159:-0.378791 160:0.0481126 161:0.205762 162:0.273982 163:0.0887987 164:-0.730457 165:-0.419093 166:0.025054 167:0.530706 168:0.806141 169:1 170:-0.214842 171:0.0156729 172:0.44191 173:-0.376262 174:-0.372753 175:-0.129562 176:1 177:-0.351579 178:-0.0726742 179:-0.07287 180:-0.166485 181:-0.361782 182:-0.127264 183:0.297895 184:0.260861 185:0.492425 186:0.475221 187:0.432014 188:0.167663 189:0.216536 190:0.182082 191:0.700998 192:-0.0695078 193:0.392601 194:0.692917 195:0.736406 196:0.33014 197:-0.0921608 198:-0.484187 199:-0.722489 200:-0.46671 201:-0.166714 202:-0.456463 203:-0.115638 204:0.486063 205:0.392402 206:0.207601 207:0.879933 208:0.495517 209:-0.226396 210:-0.232944 211:-0.55877 212:-0.817272 213:-1 214:-1 215:-1 216:-1 217:-1 218:-1 219:-1 220:-1 221:0.767228 222:0.666977 223:0.37395 224:0.497575 225:0.075589 226:0.351828 227:0.195881 228:0.392487 229:-0.431638 230:-0.769002 231:0.420878 232:0.857102 233:0.85703 234:0.799476 235:0.85723 236:0.907861 237:-0.462268 238:-0.414863 239:0.433237 240:0.177678 241:-0.536546 242:0.119386 243:-0.28025 244:-0.462691 245:-0.419045 246:0.85719 247:0.466446 248:0.821829 249:0.668606 250:-0.0333919 
-55.37489710728986 0 0 0 13.52984519469353 2:-1 3:-1 4:-0.226041 5:0.0180858 6:0.289462 7:0.800276 8:0.654498 9:0.037196 10:-0.145249 11:0.614649 12:0.801256 13:0.341925 14:0.991395 15:0.668784 16:-0.120136 17:-0.0675536 18:-0.101909 19:0.405831 20:0.489805 21:0.0338884 22:0.606483 23:-0.281063 24:0.212887 25:-1 26:-1 27:-1 35:-1 36:0.359375 37:0.15304 38:-0.4271 39:-0.762931 40:0.0779083 41:0.162896 42:0.447267 43:0.833495 44:0.0202816 45:0.668785 46:0.35385 47:0.191815 48:0.4666 49:0.52041 50:0.569242 51:-0.255399 52:0.46801 53:0.303879 54:-0.0122071 55:-0.490322 56:0.0075612 57:-0.336254 58:-0.492036 59:-0.312516 60:-0.424261 61:0.363124 62:-0.288797 63:1 64:0.914733 65:0.987305 66:-0.71293 67:-0.0325507 68:0.156051 69:-0.226254 70:-1 71:-0.341508 72:-0.0462618 73:0.110486 74:0.253712 75:0.54584 76:-0.140011 77:-0.397239 78:0.198978 79:0.376818 80:0.865353 81:0.983766 82:0.665681 83:-0.253596 84:-0.271224 85:-0.40677 86:-0.200745 87:-0.255271 88:0.15943 89:0.56515 90:0.161588 91:0.0272745 92:0.215229 93:-0.458125 94:0.210856 95:-0.496219 96:-0.0715239 97:0.327557 98:-0.155475 99:-0.420501 100:0.912012 101:-0.209378 102:-1 103:-1 104:-1 105:-1 106:-1 107:-1 108:-1 109:-1 110:-1 111:0.0751959 112:-0.258312 113:0.114567 114:0.877741 115:0.874315 116:0.672268 117:0.559619 118:-0.637944 119:0.274645 120:1 121:0.996212 122:0.463692 123:-0.0248719 124:-0.417747 125:-0.284297 126:-0.525863 127:-0.174015 128:-0.69803 129:-0.419819 130:0.4404 131:0.198627 132:0.552783 133:0.774758 134:0.741809 135:0.138913 136:0.0228621 137:0.215806 138:0.374595 139:-0.606383 140:-0.226041 141:-1 142:-1 143:-1 144:-1 145:-0.522283 146:-0.913746 147:0.0155247 148:0.199835 149:-0.521674 150:0.599799 151:0.484095 152:0.745336 153:0.644786 154:-0.230374 155:-0.098617 156:1 157:0.846227 158:-0.0276123 159:-0.363667 160:0.127215 161:0.169426 162:0.21164 163:0.0865099 164:-0.752627 165:-0.44121 166:-0.0267137 167:0.612376 168:0.769195 169:0.778127 170:-0.301961 171:-0.0970131 172:0.281926 173:-0.445549 174:-0.442361 175:-0.226041 176:0.804678 177:-0.294196 178:0.137901 179:0.0858348 180:-0.191572 181:-0.0655066 182:-0.0152288 183:0.681415 184:0.273839 185:0.63442 186:0.361474 187:0.377915 188:0.332108 189:0.247978 190:0.192396 191:0.512295 192:-0.172737 193:0.286666 194:0.681973 195:0.586669 196:0.544825 197:0.146942 198:-0.312144 199:-0.629929 200:-0.0813749 201:0.422406 202:-0.106457 203:-0.0201413 204:0.834987 205:0.304226 206:0.233911 207:0.760519 208:0.618208 209:-0.0234329 210:-0.292461 211:-0.596659 212:-0.72912 213:-0.937235 214:-1 215:-0.802018 216:-0.852649 217:-1 218:-1 219:-1 220:-1 221:0.679719 222:0.581597 223:0.357249 224:0.451811 225:-0.0193182 226:0.229503 227:0.0868446 228:0.366109 229:-0.494774 230:-0.589526 231:0.722794 232:0.719898 233:0.722772 234:0.699903 235:0.714636 236:0.78315 237:-0.316473 238:-0.0649168 239:0.33347 240:0.0844293 241:-0.384771 242:0.17387 243:-0.244947 244:-0.503922 245:-0.449832 246:0.719979 247:0.564411 248:0.685785 249:0.512618 250:-0.0813749 
-28.389079661544 308.2167045559662 37.60276653180201 20.65283589593033 5.393798288253029 2:-1 3:0.31058 4:-0.590181 5:-0.439339 6:-0.112317 7:0.0593103 8:0.627119 9:0.0987124 10:0.674841 11:0.520125 12:0.563177 13:0.342336 14:0.782455 15:0.168349 16:-0.202116 17:0.323222 18:0.329404 19:0.236394 20:0.442323 21:-0.0285778 22:0.185841 23:0.0182179 24:0.141884 25:-0.678661 26:-1 27:-1 35:-1 36:-0.16 37:-0.31768 38:-0.560611 39:-0.748926 40:0.619093 41:-0.0153701 42:0.0862629 43:0.518453 44:-0.200141 45:0.612909 46:0.776322 47:0.519782 48:0.463675 49:0.760107 50:0.949077 51:0.19419 52:0.768475 53:0.0984591 54:0.0879564 55:-0.592009 56:0.192627 57:-0.184018 58:-0.444066 59:-0.196573 60:-0.408193 61:0.0879813 62:-0.387992 63:0.576341 64:0.448595 65:0.218407 66:-0.848161 67:-0.487727 68:-0.388535 69:-0.590181 70:-1 71:-0.651226 72:-0.242491 73:-0.109989 74:0.0530678 75:0.899976 76:-0.22396 77:-0.400997 78:-0.0332977 79:0.195635 80:0.715515 81:0.673309 82:0.790978 83:-0.176542 84:0.455719 85:0.454347 86:0.401072 87:0.722781 88:0.823318 89:0.955164 90:0.43114 91:0.0147407 92:0.114663 93:-0.453034 94:0.795407 95:-0.521396 96:-0.11076 97:0.104695 98:-0.419381 99:-0.623404 100:0.426756 101:-0.371865 102:-0.680931 103:-1 104:-1 105:-1 106:-1 107:-1 108:-1 109:-1 110:-1 111:-0.430629 112:-0.607161 113:-0.305724 114:0.0800625 115:0.0634579 116:0.0331686 117:0.622311 118:-0.627199 119:0.653672 120:0.579384 121:0.599627 122:0.276462 123:-0.140996 124:-0.375682 125:0.331376 126:-0.416263 127:-0.190353 128:-0.766864 129:-0.259983 130:0.803915 131:0.493234 132:0.329523 133:0.761156 134:0.546468 135:0.658578 136:0.184874 137:0.100372 138:0.24445 139:0.333695 140:-0.508218 141:-1 142:-1 143:-1 144:-1 145:-0.747091 146:-0.954378 147:-0.417299 148:-0.364501 149:-0.638145 150:0.0397192 151:-0.104106 152:0.213039 153:0.517161 154:-0.4613 155:-0.305694 156:0.766752 157:0.575834 158:-0.123369 159:-0.389633 160:0.440559 161:0.169739 162:0.0740586 163:0.182148 164:-0.759842 165:-0.112279 166:0.663351 167:0.746827 168:0.501249 169:0.646477 170:0.603492 171:-0.246754 172:0.368619 173:0.497553 174:0.291991 175:-0.508218 176:0.335115 177:-0.146927 178:-0.0445258 179:-0.00109316 180:-0.143813 181:0.0250886 182:0.185216 183:0.710973 184:-0.105078 185:0.442516 186:0.325944 187:0.426793 188:0.590851 189:0.553044 190:0.166583 191:0.260639 192:-0.294761 193:0.450126 194:0.779551 195:0.68422 196:0.303249 197:0.597141 198:0.274984 199:0.0452167 200:-0.0584869 201:0.647689 202:-0.274141 203:0.0796168 204:0.69724 205:-0.274224 206:0.596505 207:0.928119 208:0.274472 209:-0.206195 210:-0.426695 211:-0.760074 212:-0.598386 213:-0.568427 214:-0.306581 215:0.256613 216:0.0131926 217:-0.416591 218:-1 219:-1 220:-1 221:0.100233 222:0.420295 223:0.460908 224:0.813856 225:-0.036773 226:0.499686 227:0.513931 228:0.469383 229:0.525017 230:0.63029 231:0.642009 232:0.0200209 233:-0.0877228 234:-0.047028 235:0.00884646 236:0.312798 237:-0.284441 238:-0.0793942 239:0.341685 240:0.485172 241:-0.527749 242:0.621639 243:-0.288405 244:-0.610811 245:-0.601629 246:0.129383 247:0.297993 248:0.0852558 249:0.00124373 250:-0.309519 
-19.44966128060715 16.97594816496226 58.76774776577378 17.86193984475637 0 2:-1 3:0.0511945 4:-0.47492 5:-0.395417 6:0.0666074 7:0.017931 8:0.503911 9:0.393419 10:0.704315 11:0.522105 12:0.719136 13:0.981766 14:0.764274 15:0.0684724 16:-0.209052 17:0.26846 18:0.303982 19:0.20556 20:0.370889 21:-0.000496189 22:0.0738179 23:0.269532 24:0.524411 25:-0.382427 26:-0.382865 27:0.711111 35:-1 36:0.345625 37:0.32348 38:0.0307621 39:-0.645241 40:0.5212 41:0.00504331 42:-0.00300246 43:0.403476 44:-0.273397 45:0.795786 46:0.930121 47:0.420795 48:0.296902 49:0.694904 50:0.706584 51:0.0739437 52:0.510022 53:-0.0572608 54:0.00566757 55:-0.617872 56:0.143908 57:-0.165315 58:-0.446915 59:-0.225674 60:-0.497221 61:-0.0446582 62:-0.440634 63:0.479728 64:0.479532 65:0.0649163 66:-0.756425 67:-0.425827 68:-0.509554 69:-0.671291 70:-1 71:0.117166 72:0.0789301 73:0.375005 74:0.0544392 75:0.708141 76:-0.307618 77:-0.45376 78:-0.114727 79:0.17678 80:0.706716 81:0.797216 82:0.729568 83:-0.144671 84:0.502381 85:0.631019 86:0.43802 87:0.712509 88:0.69907 89:0.804495 90:0.297214 91:-0.0949565 92:0.132262 93:-0.439722 94:0.772192 95:-0.541178 96:-0.254189 97:-0.0648051 98:-0.472064 99:-0.625693 100:0.695996 101:0.0899673 102:-0.23307 103:0.0336022 104:-1 105:-1 106:-1 107:-1 108:-1 109:-1 110:-1 111:-0.544164 112:-0.685422 113:-0.443711 114:-0.134807 115:-0.129193 116:-0.138605 117:0.559465 118:-0.671503 119:0.446315 120:0.354444 121:0.603968 122:0.232559 123:-0.231521 124:-0.393748 125:0.307836 126:-0.265891 127:-0.187395 128:-0.785712 129:-0.25902 130:0.783962 131:0.919714 132:0.531228 133:0.842828 134:0.625512 135:0.562828 136:0.0421091 137:0.0408561 138:0.14733 139:0.168476 140:-0.47492 141:-1 142:-1 143:-1 144:-1 145:-0.797585 146:-0.963407 147:-0.533326 148:-0.491105 149:-0.710139 150:-0.167101 151:-0.282351 152:-0.0282849 153:0.260446 154:-0.56847 155:-0.232107 156:0.624497 157:0.295363 158:-0.224982 159:-0.378648 160:0.638482 161:0.260826 162:0.262611 163:0.122912 164:-0.771549 165:0.106183 166:0.899174 167:0.876178 168:0.766197 169:0.72406 170:0.348486 171:-0.352541 172:0.464724 173:0.293668 174:0.0941256 175:-0.540662 176:0.0807863 177:-0.211518 178:-0.118413 179:0.0220818 180:-0.0855072 181:0.0477374 182:0.126605 183:0.524442 184:-0.131807 185:0.27107 186:0.239756 187:0.522616 188:0.827724 189:0.517586 190:0.037353 191:0.304511 192:-0.302752 193:0.469533 194:0.813875 195:0.561374 196:0.147929 197:0.693813 198:0.252293 199:0.0204602 200:0.156497 201:0.772428 202:-0.347642 203:-0.0144956 204:0.484106 205:-0.343619 206:0.814169 207:0.930644 208:0.167383 209:-0.262195 210:-0.528103 211:-0.80781 212:-0.678321 213:-0.654362 214:-0.444623 215:0.00627216 216:-0.188553 217:-0.532665 218:-1 219:-1 220:-1 221:0.0545398 222:0.316014 223:0.454372 224:0.807335 225:-0.0816842 226:0.406436 227:0.613582 228:0.901437 229:0.586063 230:0.610757 231:0.851418 232:0.0797988 233:0.674851 234:0.696594 235:0.400718 236:0.586635 237:-0.252496 238:-0.106124 239:0.38272 240:0.633813 241:-0.554654 242:0.547937 243:-0.402821 244:-0.680448 245:-0.671349 246:-0.0223466 247:0.172409 248:-0.0605453 249:0.0241926 250:-0.0823558 
-11.4085979337279 6.221100218564553 12.46857233263309 8.568361360836954 14.55688488800656 2:-1 3:0.0238908 4:-0.486873 5:-0.409009 6:0.0425967 7:-0.00468966 8:0.470013 9:0.361946 10:0.665645 11:0.487628 12:0.680353 13:0.937072 14:0.724411 15:0.067662 16:-0.208014 17:0.388349 18:0.339505 19:0.192048 20:0.376358 21:0.040084 22:0.142412 23:0.240891 24:0.489963 25:-0.396151 26:-0.396252 27:0.666667 35:-1 36:0.315 37:0.293545 38:0.00743849 39:-0.64506 40:0.499728 41:0.0107042 42:0.0538298 43:0.503242 44:-0.263301 45:0.867717 46:0.952105 47:0.462551 48:0.370501 49:0.707925 50:0.691708 51:0.0585094 52:0.476007 53:-0.0785139 54:-0.0171117 55:-0.626504 56:0.118077 57:-0.184214 58:-0.459433 59:-0.243199 60:-0.508571 61:-0.066238 62:-0.453264 63:0.446369 64:0.446142 65:0.0406809 66:-0.761961 67:-0.438634 68:-0.522293 69:-0.678762 70:-1 71:0.0921889 72:0.0545933 73:0.343958 74:0.0395922 75:0.701245 76:-0.29779 77:-0.443374 78:-0.0767787 79:0.218151 80:0.793643 81:0.831039 82:0.756558 83:-0.0995167 84:0.489648 85:0.612412 86:0.428365 87:0.706347 88:0.7044 89:0.797077 90:0.277792 91:-0.115392 92:0.106642 93:-0.45238 94:0.732109 95:-0.551559 96:-0.271028 97:-0.0859273 98:-0.483958 99:-0.634157 100:0.657636 101:0.0654308 102:-0.250519 103:0.0107527 104:-1 105:-1 106:-1 107:-1 108:-1 109:-1 110:-0.594613 111:-0.172209 112:0.499233 113:0.821141 114:0.624202 115:0.609774 116:0.0895113 117:0.616626 118:-0.677532 119:0.413704 120:0.323859 121:0.567724 122:0.206967 123:-0.223974 124:-0.397465 125:0.4837 126:-0.238262 127:-0.176633 128:-0.790546 129:-0.275764 130:0.743677 131:0.87635 132:0.496628 133:0.801215 134:0.588812 135:0.527532 136:0.0185794 137:0.0173791 138:0.121522 139:0.142206 140:-0.486873 141:1 142:0.436081 143:-0.546734 144:-0.407359 145:0.254007 146:1 147:1 148:0.927596 149:0.699585 150:0.386961 151:-0.22471 152:-0.0200602 153:0.517892 154:-0.56558 155:-0.2371 156:0.595255 157:0.279031 158:-0.242496 159:-0.39268 160:0.601459 161:0.232375 162:0.234092 163:0.0975723 164:-0.776709 165:0.0811934 166:0.856266 167:0.833803 168:0.726311 169:0.685128 170:0.318042 171:-0.367177 172:0.431643 173:0.264454 174:0.0693203 175:-0.550907 176:0.331454 177:-0.215917 178:-0.117578 179:0.117296 180:0.249971 181:0.619113 182:0.583717 183:0.599382 184:-0.140873 185:0.260574 186:0.224405 187:0.493892 188:0.786442 189:0.483275 190:0.0139377 191:0.278044 192:-0.312883 193:0.443389 194:0.785845 195:0.561669 196:0.157333 197:0.761249 198:0.307242 199:0.202008 200:0.228594 201:0.916704 202:-0.345998 203:-0.0187353 204:0.531754 205:-0.321727 206:0.805895 207:0.906225 208:0.173069 209:-0.246871 210:-0.496346 211:-0.715936 212:0.459734 213:-0.324285 214:0.0252809 215:0.147532 216:-0.145931 217:-0.542996 218:-1 219:-1 220:-1 221:0.0371463 222:0.297739 223:0.427644 224:0.77256 225:-0.0906193 226:0.500676 227:0.724118 228:1 229:0.86439 230:0.829582 231:1 232:0.56884 233:0.90495 234:0.907047 235:0.448191 236:0.658978 237:-0.239897 238:-0.0785314 239:0.603384 240:1 241:-0.42899 242:0.999718 243:-0.331439 244:-0.65721 245:-0.660168 246:-0.044456 247:0.14594 248:-0.0817908 249:0.00100301 250:-0.103118 
-11.23494248764336 8.197490121921907 14.21336733652067 100.6321914837374 12.17704803724398 2:-1 3:-0.215017 4:-0.608538 5:-0.52359 6:-0.123344 7:-0.114483 8:0.494785 9:0.858369 10:1 11:0.834213 12:0.89842 13:0.995887 14:0.465545 15:-0.100799 16:-0.280689 17:0.538091 18:0.218803 19:0.292594 20:0.358866 21:0.0391542 22:0.219117 23:0.527857 24:0.562454 25:0.688368 26:0.688086 27:0.277778 35:-1 36:0.719375 37:0.737138 38:0.0556661 39:-0.596051 40:0.582897 41:0.252543 42:0.15918 43:0.57578 44:-0.280658 45:0.895394 46:0.853568 47:0.509561 48:0.330574 49:0.498171 50:0.461572 51:-0.044777 52:0.276473 53:-0.212899 54:-0.137984 55:-0.692682 56:-0.0817836 57:-0.220442 58:-0.560979 59:-0.347829 60:-0.507403 61:-0.187979 62:-0.522132 63:0.235438 64:0.18921 65:-0.00778996 66:0.541321 67:-0.265742 68:0.461783 69:-0.265742 70:-1 71:0.717984 72:0.935102 73:0.926481 74:0.571999 75:0.810323 76:-0.162039 77:-0.441841 78:-0.0650412 79:0.171298 80:0.749071 81:0.825033 82:0.825079 83:-0.228045 84:0.293726 85:0.590957 86:0.464021 87:0.846578 88:0.710894 89:0.81468 90:0.101883 91:-0.20667 92:-0.121726 93:-0.507403 94:0.474071 95:-0.61115 96:-0.387864 97:-0.235417 98:-0.508072 99:-0.641859 100:0.896188 101:1 102:0.809722 103:0.694892 104:-1 105:0.543624 106:-1 107:-1 108:-1 109:-1 110:-0.691582 111:-0.368778 112:0.172634 113:0.409712 114:0.238669 115:0.227673 116:-0.106205 117:0.303319 118:-0.741358 119:0.602074 120:0.460816 121:0.97372 122:0.157901 123:-0.321958 124:-0.409637 125:0.903311 126:-0.179211 127:-0.0886438 128:-0.779585 129:-0.268158 130:0.994664 131:0.890148 132:0.935222 133:0.610328 134:0.549147 135:0.26589 136:-0.0412778 137:0.0484786 138:0.023546 139:-0.054277 140:-0.363927 141:0.521595 142:0.369176 143:0.958794 144:0.95795 145:0.661032 146:0.852204 147:0.739465 148:0.565163 149:0.404259 150:0.218656 151:-0.380603 152:-0.241224 153:0.711233 154:-0.634967 155:-0.283912 156:0.520021 157:0.460676 158:-0.259527 159:-0.436872 160:0.782094 161:0.520195 162:0.261812 163:0.361761 164:-0.740906 165:0.322497 166:0.894048 167:0.725935 168:0.68723 169:0.696368 170:0.112554 171:-0.474441 172:0.477557 173:-0.0357908 174:-0.184501 175:-0.608538 176:0.300706 177:-0.126046 178:-0.22709 179:-6.55895e-05 180:0.0437873 181:0.435253 182:0.764488 183:0.595016 184:-0.240082 185:0.408702 186:0.248522 187:0.428785 188:0.896883 189:0.788858 190:0.131126 191:0.327026 192:-0.322467 193:0.393238 194:0.935446 195:0.810181 196:0.172322 197:0.618526 198:0.604127 199:0.111659 200:0.0681326 201:0.714718 202:-0.473373 203:-0.119234 204:0.369306 205:-0.189158 206:0.995852 207:0.808776 208:0.13497 209:-0.141251 210:-0.583551 211:-0.783363 212:0.113253 213:-0.484741 214:-0.217897 215:-0.124625 216:-0.302212 217:-0.651778 218:-1 219:-1 220:-1 221:0.0883856 222:0.384874 223:0.525386 224:0.886989 225:-0.0607159 226:0.341006 227:0.568873 228:0.646726 229:0.43777 230:0.557537 231:0.597972 232:0.218142 233:0.475446 234:0.45442 235:0.144609 236:0.78087 237:-0.280397 238:-0.218138 239:0.428904 240:0.714477 241:-0.519902 242:0.726735 243:-0.295889 244:-0.677559 245:-0.666269 246:0.707643 247:0.912825 248:0.0452266 249:0.149689 250:-0.0442637 
-0 0 66.56056061977269 17.08025723670915 21.42120312081438 2:-1 3:-0.228669 4:-0.61238 5:-0.528533 6:-0.132414 7:-0.123862 8:0.47914 9:0.839294 10:0.979486 11:0.815242 12:0.878821 13:0.975185 14:0.450378 15:-0.110092 16:-0.288122 17:0.522189 18:0.206208 19:0.279242 20:0.34483 21:0.0517422 22:0.35276 23:0.616733 24:0.686865 25:0.670628 26:0.670683 27:0.255556 35:-1 36:0.701875 37:0.719177 38:0.0447672 39:-0.600229 40:0.566544 41:0.251274 42:0.169655 43:0.61126 44:-0.274749 45:0.883815 46:0.844597 47:0.51111 48:0.352109 49:0.521434 50:0.482114 51:-0.0413146 52:0.263312 53:-0.221073 54:-0.146812 55:-0.695854 56:-0.0912658 57:-0.228485 58:-0.56551 59:-0.35463 60:-0.512495 61:-0.196371 62:-0.527077 63:0.222607 64:0.176948 65:-0.0181766 66:0.525504 67:-0.273746 68:0.44586 69:-0.273212 70:-1 71:0.700272 72:0.91515 73:0.915966 74:0.589589 75:0.833434 76:-0.162451 77:-0.447617 78:-0.0718797 79:0.159192 80:0.751179 81:0.829814 82:0.831133 83:-0.234393 84:0.304342 85:0.608837 86:0.474817 87:0.852092 88:0.814111 89:0.80848 90:0.135038 91:-0.196371 92:-0.117237 93:-0.496614 94:0.458873 95:-0.615155 96:-0.394185 97:-0.24333 98:-0.513181 99:-0.645565 100:0.876768 101:0.97928 102:0.790611 103:0.677419 104:-1 105:0.516779 106:-1 107:-1 108:-1 109:-1 110:-0.694276 111:-0.375132 112:0.160614 113:0.395063 114:0.225899 115:0.21487 116:-0.115431 117:0.289951 118:-0.744031 119:0.585461 120:0.445717 121:0.953326 122:0.145938 123:-0.328969 124:-0.41573 125:0.883619 126:-0.18768 127:-0.0980487 128:-0.781866 129:-0.275729 130:0.974043 131:0.870606 132:0.915224 133:0.593682 134:0.649107 135:0.344599 136:-0.00260741 137:0.0376242 138:0.0129044 139:-0.0640469 140:-0.370331 141:0.508306 142:0.354839 143:0.938693 144:0.937801 145:0.643908 146:0.832957 147:0.721489 148:0.549028 149:0.389747 150:0.206018 151:-0.38699 152:-0.249047 153:0.693524 154:-0.63874 155:-0.29133 156:0.504311 157:0.445569 158:-0.267175 159:-0.44269 160:0.763686 161:0.504469 162:0.248769 163:0.347647 164:-0.743579 165:0.308811 166:0.874474 167:0.708083 168:0.67645 169:0.755143 170:0.266364 171:-0.434851 172:0.462271 173:-0.0457326 174:-0.192962 175:-0.61238 176:0.287309 177:-0.135082 178:-0.235083 179:0.0888082 180:0.15422 181:0.535331 182:0.830342 183:0.640398 184:-0.239965 185:0.405139 186:0.239963 187:0.414021 188:0.877293 189:0.770383 190:0.119418 191:0.313293 192:-0.32947 193:0.37884 194:0.919785 195:0.800422 196:0.170206 197:0.694868 198:0.605471 199:0.206347 200:0.28892 201:0.836106 202:-0.456933 203:-0.128335 204:0.355133 205:-0.197573 206:0.975226 207:0.844265 208:0.123242 209:-0.150123 210:-0.587855 211:-0.785603 212:0.101748 213:-0.490101 214:-0.225923 215:-0.133897 216:-0.309113 217:-0.655424 218:-1 219:-1 220:-1 221:0.0917075 222:0.375767 223:0.541013 224:0.878909 225:-0.0691571 226:0.327173 227:0.560009 228:0.643076 229:0.438746 230:0.573673 231:0.581182 232:0.248695 233:0.505149 234:0.595918 235:0.589735 236:0.762515 237:-0.255689 238:-0.214886 239:0.423427 240:0.708495 241:-0.52311 242:0.71688 243:-0.299172 244:-0.680904 245:-0.666207 246:0.700811 247:0.892973 248:0.0343759 249:0.156028 250:-0.026362 
-14.09200034857221 0 5.48195318715948 1.187212658165818 14.5756543074436 2:1 3:1 4:-0.583778 5:-0.517973 6:-0.0632281 7:0.829517 8:0.970665 9:1 10:0.770809 11:0.753712 12:0.696087 13:0.831917 14:0.27537 15:-0.22483 16:-0.324811 17:0.516285 18:0.202418 19:0.211042 20:0.407981 21:0.187591 22:0.626653 23:0.90725 24:0.969888 25:0.664937 26:0.436412 27:0.0888889 35:0.781818 36:0.950625 37:0.678765 38:0.00983624 39:-0.573036 40:0.561512 41:0.236367 42:0.129485 43:0.526192 44:-0.251058 45:0.849558 46:0.882508 47:0.59398 48:0.465978 49:0.650475 50:0.765535 51:0.0875 52:0.392185 53:-0.091184 54:0.00980926 55:-0.668356 56:-0.0752442 57:-0.209129 58:-0.589986 59:-0.387719 60:-0.549021 61:-0.266559 62:-0.565496 63:0.101232 64:0.0854556 65:-0.127813 66:0.465401 67:-0.219317 68:0.863057 69:0.040555 70:0.866667 71:0.505904 72:0.945845 73:0.760235 74:0.506171 75:0.766208 76:-0.119387 77:-0.411372 78:-0.0698903 79:0.117856 80:0.671039 81:0.822218 82:0.989292 83:-0.195359 84:0.413783 85:0.796964 86:0.883377 87:0.887555 88:0.880985 89:0.824754 90:0.218153 91:-0.165581 92:-0.106761 93:-0.462422 94:0.433486 95:-0.593412 96:-0.378164 97:-0.285705 98:-0.565496 99:-0.663403 100:0.707025 101:0.80807 102:0.863731 103:0.572581 104:0.866667 105:0.315436 106:0.969697 107:0.969697 108:0.97114 109:0.970615 110:0.97037 111:0.032832 112:0.895652 113:0.904874 114:0.228131 115:0.272604 116:0.0604064 117:0.948218 118:-0.725823 119:0.877467 120:0.642555 121:0.90097 122:0.0452089 123:-0.375845 124:-0.470498 125:0.811937 126:-0.126242 127:-0.11109 128:-0.76463 129:-0.278294 130:0.784832 131:0.78392 132:0.89072 133:0.527911 134:0.667059 135:0.297593 136:0.0196627 137:0.546314 138:0.395756 139:0.461138 140:0.0407684 141:0.295681 142:0.166069 143:0.666332 144:0.751643 145:0.755873 146:0.691814 147:0.59379 148:0.573852 149:0.764606 150:0.408626 151:-0.377165 152:-0.207623 153:0.79861 154:-0.650458 155:-0.272486 156:0.454955 157:0.397886 158:-0.296644 159:-0.453034 160:0.847847 161:0.988217 162:0.357069 163:0.376529 164:-0.755286 165:0.234565 166:0.751998 167:0.589872 168:0.640093 169:0.809659 170:0.441485 171:-0.35933 172:0.535276 173:0.491741 174:0.312758 175:-0.0838847 176:0.470844 177:-0.144787 178:-0.309072 179:0.00644964 180:0.205278 181:0.903604 182:0.950938 183:0.738529 184:-0.140943 185:0.690316 186:0.207776 187:0.446068 188:0.915509 189:0.807447 190:0.0548587 191:0.487285 192:-0.297283 193:0.353285 194:0.952799 195:0.86706 196:0.200976 197:0.851418 198:0.858397 199:0.949806 200:0.243716 201:0.730004 202:-0.49632 203:-0.221903 204:0.342782 205:-0.250625 206:0.9213 207:0.799564 208:0.299137 209:-0.227819 210:-0.556227 211:-0.741358 212:0.413417 213:-0.274834 214:0.0565811 215:0.968367 216:0.702456 217:0.896688 218:0.166069 219:-0.939748 220:-0.915663 221:0.165216 222:0.492235 223:0.528072 224:0.942151 225:-0.0300381 226:0.337995 227:0.487405 228:0.73422 229:0.50885 230:0.739278 231:0.761128 232:0.258563 233:0.525743 234:0.829265 235:0.947622 236:0.819502 237:-0.272931 238:-0.239981 239:0.446969 240:0.760586 241:-0.518625 242:0.833028 243:-0.301043 244:-0.696008 245:-0.66469 246:0.573279 247:0.851974 248:0.0760463 249:0.173842 250:0.195815 
-28.29269462429045 0 0 0 0 2:0.959184 3:0.972696 4:-0.588474 5:-0.523478 6:-0.0740774 7:0.808552 8:0.948501 9:0.97711 10:0.750531 11:0.733586 12:0.676627 13:0.850562 14:0.284218 15:-0.207107 16:-0.32527 17:0.54411 18:0.276805 19:0.201568 20:0.391848 21:0.173993 22:0.608014 23:0.885389 24:0.947336 25:0.645858 26:0.420348 27:0.0666667 35:0.745455 36:0.928125 37:0.659495 38:-0.00177107 39:-0.511385 40:0.640078 41:0.253641 42:0.145174 43:0.517864 44:-0.239808 45:0.837908 46:0.864643 47:0.577542 48:0.452192 49:0.636235 50:0.745307 51:0.0806925 52:0.395728 53:-0.085789 54:0.0613624 55:-0.650078 56:-0.0779417 57:-0.205598 58:-0.585688 59:-0.375817 60:-0.536176 61:-0.259203 62:-0.570483 63:0.0885296 64:0.0730051 65:-0.137623 66:0.448794 67:-0.228388 68:0.840764 69:0.0288154 70:0.828571 71:0.488647 72:0.923701 73:0.740117 74:0.552144 75:0.852544 76:-0.101474 77:-0.413953 78:-0.0781464 79:0.10723 80:0.651894 81:0.818922 82:0.989612 83:-0.172882 84:0.414595 85:0.951696 86:0.935074 87:0.897178 88:0.952898 89:0.85719 90:0.235744 91:-0.1646 92:-0.0881446 93:-0.45962 94:0.416952 95:-0.590183 96:-0.374785 97:-0.287536 98:-0.566559 99:-0.653231 100:0.710621 101:0.78735 102:0.842127 103:0.555108 104:0.828571 105:0.288591 106:0.949495 107:0.949495 108:0.948052 109:0.948577 110:0.947475 111:0.0209701 112:0.873913 113:0.883172 114:0.214021 115:0.258078 116:0.0483251 117:1 118:-0.721828 119:1 120:0.794806 121:1 122:0.0824328 123:-0.365786 124:-0.461207 125:0.796092 126:-0.136248 127:-0.12127 128:-0.767323 129:-0.286571 130:0.764385 131:0.763488 132:0.869053 133:0.510393 134:0.647962 135:0.282717 136:0.0079734 137:0.528569 138:0.379732 139:0.444203 140:0.0288154 141:0.282392 142:0.151732 143:0.647236 144:0.731494 145:0.735675 146:0.67233 147:0.575581 148:0.555647 149:0.74444 150:0.392578 151:-0.384288 152:-0.21675 153:0.876765 154:-0.648388 155:-0.264965 156:0.536102 157:0.398444 158:-0.285914 159:-0.418855 160:0.914595 161:1 162:0.376542 163:0.387047 164:-0.751234 165:0.22492 166:0.734279 167:0.575591 168:0.621317 169:0.788918 170:0.424962 171:-0.36667 172:0.517709 173:0.47461 174:0.29776 175:-0.0945571 176:0.665727 177:-0.0843873 178:-0.301574 179:0.0054658 180:0.218333 181:0.952861 182:1 183:0.850121 184:-0.101095 185:0.673276 186:0.210162 187:0.429501 188:0.893563 189:0.786735 190:0.0427608 191:0.47024 192:-0.305333 193:0.351979 194:0.933188 195:0.866586 196:0.241062 197:0.903621 198:0.898087 199:0.927517 200:0.268811 201:0.844117 202:-0.484306 203:-0.221368 204:0.490045 205:-0.141655 206:0.899284 207:0.783047 208:0.304127 209:-0.185076 210:-0.49557 211:-0.738447 212:0.411624 213:-0.283133 214:0.0445425 215:0.94546 216:0.682971 217:0.87481 218:0.151732 219:-0.940978 220:-0.917384 221:0.151857 222:0.47515 223:0.513698 224:0.923787 225:-0.0368179 226:0.344702 227:0.470329 228:0.714319 229:0.491568 230:0.719462 231:0.740852 232:0.244141 233:0.584554 234:0.861536 235:0.976001 236:0.91428 237:-0.219265 238:-0.21891 239:0.481628 240:0.899531 241:-0.480604 242:0.812051 243:-0.309057 244:-0.699479 245:-0.66853 246:0.55525 247:0.830684 248:0.0637367 249:0.160441 250:0.182164 
-512 0.7890087690332943 1.001482304997509 0.649832700936964 0.6013305420046784 2:-1 3:-1 4:-1 5:-1 6:-1 7:-1 8:-1 9:-1 10:-1 11:-1 12:-1 13:-1 14:-1 15:-1 16:-1 17:-1 18:-1 19:-1 20:-1 21:-1 22:-1 23:-1 24:-1 25:-1 26:-1 27:-1 35:-1 36:-1 37:-1 38:-1 39:-1 40:-1 41:-1 42:-1 43:-1 44:-1 45:-1 46:-1 47:-1 48:-1 49:-1 50:-1 51:-1 52:-1 53:-1 54:-1 55:-1 56:-1 57:-1 58:-1 59:-1 60:-1 61:-1 62:-1 63:-1 64:-1 65:-1 66:-1 67:-1 68:-1 69:-1 70:-1 71:-1 72:-1 73:-1 74:-1 75:-1 76:-1 77:-1 78:-1 79:-1 80:-1 81:-1 82:-1 83:-1 84:-1 85:-1 86:-1 87:-1 88:-1 89:-1 90:-1 91:-1 92:-1 93:-1 94:-1 95:-1 96:-1 97:-1 98:-1 99:-1 100:-1 101:-1 102:-1 103:-1 104:-1 105:-1 106:-1 107:-1 108:-1 109:-1 110:-1 111:-1 112:-1 113:-1 114:-1 115:-1 116:-1 117:-1 118:-1 119:-1 120:-1 121:-1 122:-1 123:-1 124:-1 125:-1 126:-1 127:-1 128:-1 129:-1 130:-1 131:-1 132:-1 133:-1 134:-1 135:-1 136:-1 137:-1 138:-1 139:-1 140:-1 141:-1 142:-1 143:-1 144:-1 145:-1 146:-1 147:-1 148:-1 149:-1 150:-1 151:-1 152:-1 153:-1 154:-1 155:-1 156:-1 157:-1 158:-1 159:-1 160:-1 161:-1 162:-1 163:-1 164:-1 165:-1 166:-1 167:-1 168:-1 169:-1 170:-1 171:-1 172:-1 173:-1 174:-1 175:-1 176:-1 177:-1 178:-1 179:-1 180:-1 181:-1 182:-1 183:-1 184:-1 185:-1 186:-1 187:-1 188:-1 189:-1 190:-1 191:-1 192:-1 193:-1 194:-1 195:-1 196:-1 197:-1 198:-1 199:-1 200:-1 201:-1 202:-1 203:-1 204:-1 205:-1 206:-1 207:-1 208:-1 209:-1 210:-1 211:-1 212:-1 213:-1 214:-1 215:-1 216:-1 217:-1 218:-1 219:-1 220:-1 221:-1 222:-1 223:-1 224:-1 225:-1 226:-1 227:-1 228:-1 229:-1 230:-1 231:-1 232:-1 233:-1 234:-1 235:-1 236:-1 237:-1 238:-1 239:-1 240:-1 241:-1 242:-1 243:-1 244:-1 245:-1 246:-1 247:-1 248:-1 249:-1 250:-1 
-3.87255145879341 -1.684502067285093 3.121343198361114 4.009059114050102 2.203146842110323 2:-1 3:-1 4:-1 5:-1 6:-1 7:-1 8:-1 9:-1 10:-1 11:-1 12:-1 13:-1 14:-1 15:-1 16:-0.205443 17:0.724274 18:1 19:-0.113059 20:-0.871969 21:0.194913 22:0.240039 23:-1 24:-1 25:-1 26:-1 27:-1 35:-1 36:-1 37:-1 38:-0.205471 39:-0.205453 40:-0.305229 41:-0.124608 42:-0.919824 43:-0.861388 44:1 45:-0.31372 46:-0.126771 47:0.285606 48:0.285605 49:-0.525969 50:-0.808744 51:-0.857394 52:-0.261996 53:-0.20546 54:-0.20545 55:-0.205434 56:-0.20546 57:-0.205467 58:-0.205474 59:-0.205467 60:-0.205474 61:-0.205471 62:-0.20542 63:-0.688222 64:-1 65:-1 66:-1 67:-1 68:-1 69:-1 70:-1 71:-1 72:-1 73:-1 74:-1 75:-0.616225 76:1 77:0.547973 78:0.631612 79:-0.642912 80:-0.700695 81:-0.62006 82:-0.126176 83:0.389845 84:0.371319 85:-0.558168 86:-0.630517 87:-0.474538 88:-0.764489 89:0.0760545 90:-0.205467 91:-0.0730498 92:0.163748 93:-0.091924 94:-1 95:-0.20542 96:-0.205471 97:-0.205467 98:-0.20542 99:-0.205428 100:-1 101:-1 102:-1 103:-1 104:-1 105:-1 106:-1 107:-1 108:-1 109:-1 110:-1 111:-1 112:-1 113:-1 114:-1 115:-1 116:-1 117:-0.626613 118:1 119:-0.572804 120:-0.137571 121:-0.221193 122:0.714292 123:-0.504334 124:-0.193575 125:-0.753974 126:-0.205434 127:-0.293177 128:-0.186527 129:-0.205448 130:-0.718097 131:-0.84549 132:-0.864825 133:-0.948276 134:-0.950316 135:0.098904 136:0.285594 137:-0.85182 138:-1 139:-1 140:-1 141:-1 142:-1 143:-1 144:-1 145:-1 146:-1 147:-1 148:-1 149:-1 150:-1 151:-1 152:-1 153:-1 154:0.50686 155:0.747776 156:-0.879764 157:-0.634477 158:0.511156 159:-0.195178 160:-0.697767 161:-0.782253 162:-0.117146 163:-0.205471 164:-0.188174 165:-0.148689 166:-0.762762 167:-0.900845 168:-0.904746 169:-0.931891 170:0.0117225 171:0.285617 172:-0.722808 173:-1 174:-1 175:-1 176:-1 177:-0.20544 178:-0.205445 179:-0.734362 180:-0.435527 181:-0.776274 182:-0.799967 183:-1 184:-1 185:-1 186:0.524174 187:1 188:0.416422 189:-0.581732 190:-0.0516809 191:-0.611956 192:1 193:0.578529 194:-0.0701125 195:-1 196:-1 197:-1 198:-0.807875 199:-0.793271 200:-0.20546 201:-0.20546 202:-0.205444 203:-0.205445 204:-1 205:-1 206:-1 207:-0.39097 208:-0.0154421 209:0.477709 210:1 211:1 212:-1 213:-1 214:-1 215:-1 216:-1 217:-1 218:-1 219:-1 220:-1 221:-0.0645766 222:0.482793 223:0.799844 224:0.295975 225:-0.83634 226:-0.814797 227:-1 228:-1 229:-1 230:-1 231:-1 232:-1 233:-1 234:-1 235:-1 236:-1 237:-0.205445 238:-0.20544 239:-0.20542 240:0.00263036 241:0.0972418 242:0.197381 243:-0.914215 244:-1 245:-1 246:-1 247:-1 248:-1 249:-1 250:-0.20546 
-42.04199626707622 -1.900311859884352 2.503166060200868 3.343336175726022 1.521487571238219 2:-1 3:-1 4:1 5:1 6:1 7:0.033931 8:-1 9:-1 10:-1 11:-0.845431 12:-1 13:0.798602 14:0.0933132 15:-0.531478 16:-0.357753 17:0.401058 18:0.145164 19:0.0688115 20:0.915647 21:0.541512 22:0.0821975 23:-1 24:-1 25:-1 26:-1 27:-1 35:-1 36:0.17125 37:0.577923 38:0.174518 39:-0.540412 40:0.419933 41:0.559242 42:0.74687 43:-0.322933 44:0.356544 45:0.693722 46:-0.254376 47:-0.0616143 48:0.0206794 49:-0.0402829 50:0.7701 51:0.264847 52:0.138388 53:0.378755 54:-0.285014 55:-0.417866 56:-0.233989 57:-0.387196 58:-0.474754 59:-0.264648 60:-0.430987 61:-0.489333 62:-0.616994 63:-0.639338 64:-1 65:-0.72966 66:-1 67:1 68:-1 69:1 70:-1 71:-0.148955 72:-0.383688 73:-0.689697 74:0.564486 75:0.775947 76:0.134177 77:-0.261427 78:0.596238 79:0.821857 80:-0.0638475 81:0.18429 82:0.329125 83:-0.0620979 84:-0.305929 85:-0.148095 86:-0.358802 87:-0.290734 88:-0.364218 89:0.24488 90:0.164269 91:0.22558 92:0.738888 93:-0.299687 94:0.408601 95:-0.425512 96:-0.336149 97:-0.325922 98:-0.540401 99:-0.625511 100:-0.550707 101:-0.489095 102:-1 103:-1 104:-1 105:-1 106:-1 107:-1 108:-1 109:-1 110:-1 111:-1 112:-1 113:-1 114:-1 115:-1 116:-1 117:-0.856023 118:-0.220098 119:-0.752912 120:-0.606969 121:-0.672377 122:0.715943 123:0.469366 124:0.256322 125:0.138504 126:-0.325922 127:0.544589 128:-0.387216 129:-0.338834 130:-0.537993 131:-0.54319 132:-0.244163 133:0.136919 134:-0.00371094 135:0.4051 136:0.95939 137:1 138:0.0316189 139:-0.186279 140:1 141:-1 142:-1 143:-1 144:-1 145:-1 146:-1 147:-1 148:-1 149:-1 150:-0.812036 151:0.304294 152:-0.436108 153:0.234394 154:0.319719 155:0.309434 156:-0.46678 157:0.167913 158:0.113271 159:0.0965815 160:-0.572646 161:-0.412218 162:-0.421264 163:-0.336149 164:-0.580372 165:-0.321562 166:-0.153753 167:-0.120557 168:0.744794 169:0.260721 170:-0.122182 171:0.239392 172:-0.358638 173:-0.140104 174:0.261417 175:1 176:0.0976244 177:-0.41507 178:-0.101244 179:0.229257 180:0.218983 181:-0.654928 182:-0.151465 183:0.789732 184:0.712258 185:0.771713 186:0.88509 187:0.289317 188:0.18738 189:-0.731195 190:0.0448793 191:-0.326647 192:-0.0885421 193:0.330369 194:0.694285 195:0.847482 196:0.597284 197:0.427467 198:-0.407258 199:-0.681143 200:-0.540442 201:-0.310582 202:-0.434355 203:-0.489341 204:-0.557265 205:1 206:-0.37524 207:0.737017 208:0.731794 209:0.0085954 210:-0.195709 211:-0.228769 212:-1 213:-1 214:-1 215:-1 216:-1 217:-1 218:-1 219:-1 220:-1 221:-0.412174 222:0.357995 223:0.19743 224:0.34838 225:0.682984 226:0.821199 227:-0.267116 228:0.655205 229:0.044878 230:-1 231:-1 232:-1 233:-1 234:-1 235:-0.343435 236:-0.0444198 237:-0.407642 238:-0.344656 239:0.0340867 240:0.353242 241:-0.445572 242:0.121357 243:0.422484 244:0.211079 245:0.131928 246:-0.110784 247:0.213263 248:0.794383 249:0.654243 250:-0.157396 
-0 -0 0 33.11967064562214 35.63449093819503 2:-1 3:-1 4:0.246531 5:0.246461 6:0.246421 7:-0.355586 8:-1 9:-1 10:-1 11:-0.903662 12:-1 13:0.120921 14:0.731752 15:0.731748 16:-0.221546 17:0.0211157 18:0.121462 19:0.318828 20:0.513809 21:-0.0184573 22:0.0665127 23:-1 24:-1 25:-1 26:-1 27:-1 35:-1 36:-0.27 37:-0.0166511 38:-0.268085 39:-0.713595 40:0.252194 41:0.432524 42:0.512529 43:0.565627 44:0.201567 45:0.83065 46:0.31155 47:0.235801 48:0.0904197 49:0.139186 50:0.286923 51:-0.177523 52:-0.172302 53:-0.14072 54:-0.554441 55:-0.637196 56:-0.522622 57:-0.618101 58:-0.672661 59:-0.541721 60:-0.645383 61:-0.681753 62:-0.761311 63:-0.775212 64:-1 65:-0.831506 66:-1 67:0.246531 68:-1 69:0.246531 70:-1 71:-0.469573 72:-0.35979 73:0.111976 74:0.462465 75:0.567898 76:0.0884752 77:-0.350576 78:0.205332 79:0.485218 80:0.886058 81:0.864133 82:0.598278 83:-0.148303 84:-0.299721 85:-0.43368 86:-0.467214 87:-0.558006 88:-0.603799 89:-0.224178 90:-0.274392 91:-0.236261 92:0.0836551 93:-0.563548 94:-0.122171 95:-0.641967 96:-0.586278 97:-0.579911 98:-0.713573 99:-0.766616 100:-0.719971 101:-0.68157 102:-1 103:-1 104:-1 105:-1 106:-1 107:-1 108:-1 109:-1 110:-1 111:0.731836 112:0.0455243 113:0.689845 114:0.355928 115:0.509694 116:0.731686 117:0.615243 118:-0.48157 119:-0.0246561 120:0.488434 121:0.105935 122:0.568984 123:0.459167 124:-0.124059 125:-0.0244507 126:-0.369899 127:0.104109 128:-0.599931 129:-0.507568 130:-0.525783 131:-0.368757 132:0.023294 133:-0.0428795 134:-0.0686881 135:0.125823 136:0.30935 137:0.6737 138:1 139:-0.492835 140:0.246531 141:-1 142:-1 143:-1 144:-1 145:-1 146:-1 147:0.499708 148:-0.516756 149:-1 150:-0.882849 151:0.00413477 152:0.0543631 153:0.794951 154:0.153872 155:0.284056 156:0.791492 157:0.919997 158:0.111127 159:-0.252154 160:-0.661035 161:-0.529022 162:-0.55445 163:-0.490804 164:-0.726036 165:-0.49537 166:-0.0592729 167:0.0842208 168:0.465049 169:-0.00154157 170:-0.300998 171:-0.111782 172:0.598757 173:-0.464056 174:-0.213922 175:0.246531 176:-0.315934 177:-0.635476 178:-0.439903 179:-0.233936 180:-0.240354 181:-0.784928 182:-0.0865986 183:0.487063 184:0.66899 185:0.783566 186:0.759923 187:0.584964 188:0.479929 189:0.273223 190:0.237163 191:0.457026 192:-0.0693357 193:0.536916 194:1 195:0.84212 196:0.510293 197:-0.0762245 198:-0.538267 199:-0.801268 200:-0.713573 201:-0.57036 202:-0.647496 203:-0.681762 204:-0.724101 205:0.246356 206:-0.159836 207:0.582317 208:0.697725 209:-0.0411953 210:-0.0387467 211:-0.412562 212:-0.738234 213:-1 214:-1 215:-1 216:-1 217:-1 218:-1 219:-1 220:-1 221:0.731742 222:0.719315 223:0.454429 224:0.545442 225:0.35691 226:0.580016 227:-0.200704 228:0.581606 229:-0.34885 230:-1 231:-1 232:-1 233:-1 234:-1 235:-0.590786 236:-0.404457 237:-0.630842 238:-0.591599 239:-0.355581 240:-0.156635 241:-0.654488 242:-0.30114 243:-0.113516 244:-0.245264 245:-0.294597 246:-0.279594 247:-0.243904 248:0.118264 249:0.171434 250:-0.427147 
-119.2310002080734 -0.06667750820603519 0 49.59868488035232 26.27270640968775 2:-1 3:-1 4:-0.472785 5:-0.306336 6:-0.121387 7:0.226483 8:0.127119 9:-0.293276 10:-0.41759 11:0.466843 12:0.227244 13:-0.0518234 14:0.356846 15:0.149798 16:-0.257613 17:0.301948 18:0.0575076 19:0.192641 20:0.624137 21:0.196889 22:0.399734 23:0.310073 24:0.469145 25:-0.586611 26:-1 27:-1 35:-1 36:0.080625 37:-0.121983 38:-0.461595 39:-0.739771 40:0.440604 41:0.110112 42:0.259119 43:0.554541 44:-0.163252 45:0.688116 46:0.619841 47:0.507425 48:0.537336 49:0.818922 50:0.730196 51:0.116138 52:0.750354 53:0.049904 54:-0.138529 55:-0.60427 56:-0.0914293 57:-0.483128 58:-0.642347 59:-0.450824 60:-0.573123 61:-0.0308711 62:-0.485143 63:0.679625 64:0.677419 65:0.567802 66:-0.804666 67:-0.340982 68:-0.213376 69:-0.472785 70:-1 71:-0.551317 72:-0.350143 73:-0.141119 74:-0.0574205 75:0.339317 76:-0.127061 77:-0.335968 78:0.120981 79:0.236847 80:0.76448 81:0.689557 82:0.786264 83:-0.12767 84:0.52453 85:0.497015 86:0.370814 87:0.81598 88:0.795406 89:0.421897 90:0.0337431 91:-0.205853 92:-0.112867 93:-0.596198 94:-0.00993737 95:-0.606286 96:-0.313534 97:0.0983521 98:-0.424572 99:-0.605166 100:0.302805 101:-0.461287 102:-1 103:-1 104:-1 105:-1 106:-1 107:-1 108:-1 109:-1 110:-1 111:-0.267528 112:-0.494629 113:-0.240619 114:0.279393 115:0.277036 116:0.139374 117:0.631991 118:-0.620836 119:0.237551 120:0.697403 121:0.453661 122:0.127056 123:-0.282068 124:-0.57377 125:-0.337299 126:-0.531585 127:-0.257593 128:-0.742334 129:-0.137129 130:0.776566 131:0.277365 132:0.339647 133:0.919009 134:0.767571 135:0.85184 136:0.418736 137:0.35557 138:0.571035 139:0.662397 140:-0.472785 141:-1 142:-1 143:-1 144:-1 145:-0.674643 146:-0.941309 147:-0.308042 148:-0.182458 149:-0.674142 150:0.0900702 151:0.0111762 152:0.189168 153:0.156824 154:-0.475614 155:-0.340156 156:0.662127 157:0.411853 158:-0.227414 159:-0.517352 160:0.22883 161:0.106656 162:0.112714 163:0.251792 164:-0.761228 165:-0.0654756 166:0.428774 167:0.642857 168:0.762179 169:0.834604 170:0.896046 171:-0.123399 172:0.662351 173:0.662282 174:0.66234 175:-0.367343 176:0.573191 177:-0.394293 178:-0.0918781 179:-0.054964 180:-0.322958 181:-0.0676242 182:-0.00370431 183:0.752171 184:0.0993851 185:0.424942 186:0.313064 187:0.469572 188:0.802762 189:0.615583 190:0.280649 191:0.449481 192:-0.168368 193:0.414259 194:0.765105 195:0.616754 196:0.466328 197:0.33138 198:0.0154965 199:-0.558722 200:-0.172191 201:0.433523 202:-0.266931 203:-0.157381 204:0.400283 205:-0.0962864 206:0.440508 207:0.991441 208:0.320276 209:-0.193425 210:-0.462744 211:-0.725187 212:-0.815479 213:-0.957292 214:-1 215:-0.865285 216:-0.899736 217:-1 218:-1 219:-1 220:-1 221:0.313516 222:0.480794 223:0.443442 224:0.675176 225:0.125675 226:0.844864 227:0.802978 228:0.570655 229:-0.139373 230:-0.300778 231:0.330271 232:0.171838 233:0.173861 234:0.158185 235:0.168258 236:0.496476 237:-0.429288 238:-0.217057 239:0.0700944 240:-0.0318222 241:-0.480822 242:0.564832 243:-0.30242 244:-0.611926 245:-0.510384 246:0.42971 247:0.527872 248:0.373849 249:0.228806 250:-0.152001 
-95.09972210832159 -10.24652742325715 11.49769381031905 28.53884313856927 0 2:-1 3:-1 4:-0.493276 5:-0.333071 6:-0.15518 7:0.179034 8:0.083442 9:-0.320458 10:-0.439991 11:0.410261 12:0.179905 13:-0.0882917 14:0.593204 15:0.297949 16:-0.102542 17:0.251785 18:0.0167639 19:0.146691 20:0.561565 21:0.150774 22:0.345804 23:0.259616 24:0.412515 25:-0.602678 26:-1 27:-1 35:-1 36:0.03875 37:-0.155847 38:-0.482357 39:-0.749798 40:0.38511 41:0.0673471 42:0.218437 43:0.503679 44:-0.129178 45:0.623076 46:0.557431 47:0.462797 48:0.529836 49:0.980493 50:1 51:0.310094 52:0.995444 53:0.184207 54:-0.0164578 55:-0.572914 56:-0.0293865 57:-0.394324 58:-0.589565 59:-0.394324 60:-0.456444 61:0.00945478 62:-0.388482 63:0.645368 64:0.612715 65:0.507501 66:-0.812574 67:-0.366596 68:-0.245223 69:-0.493063 70:-1 71:-0.568574 72:-0.270993 73:-0.154531 74:-0.0937332 75:0.300203 76:-0.149185 77:-0.353858 78:0.0955039 79:0.283146 80:0.712751 81:0.636841 82:0.779112 83:-0.0865624 84:0.591437 85:0.554471 86:0.588855 87:0.874365 88:0.864315 89:0.498616 90:0.133665 91:-0.107054 92:-0.00487863 93:-0.556308 94:0.110647 95:-0.602035 96:-0.262309 97:0.0715407 98:-0.446724 99:-0.620388 100:0.252697 101:-0.482007 102:-1 103:-1 104:-1 105:-1 106:-1 107:-1 108:-1 109:-1 110:-1 111:-0.295912 112:-0.514066 113:-0.269916 114:0.230096 115:0.227796 116:0.0954421 117:0.605562 118:-0.628854 119:0.252494 120:0.67798 121:0.425342 122:0.265415 123:-0.20679 124:-0.460941 125:-0.00217677 126:-0.409855 127:-0.263168 128:-0.748562 129:-0.170359 130:0.708121 131:0.228151 132:0.288053 133:0.845063 134:0.699465 135:0.780486 136:0.364093 137:0.303372 138:0.510489 139:0.59835 140:-0.493276 141:-1 142:-1 143:-1 144:-1 145:-0.687377 146:-0.943685 147:-0.334656 148:-0.213902 149:-0.68677 150:0.0481444 151:-0.0277971 152:0.14333 153:0.112331 154:-0.495814 155:-0.350924 156:0.739118 157:0.439122 158:-0.105094 159:-0.438936 160:0.57534 161:0.106566 162:0.0871011 163:0.203564 164:-0.770426 165:-0.101466 166:0.373735 167:0.579549 168:0.694286 169:0.763944 170:0.822979 171:-0.15717 172:0.5983 173:0.598195 174:0.598308 175:-0.391676 176:0.512574 177:-0.382329 178:0.0560424 179:0.0695905 180:-0.271807 181:-0.103531 182:-0.0225552 183:0.684689 184:0.0570307 185:0.375809 186:0.302439 187:0.438316 188:0.7333 189:0.553331 190:0.23131 191:0.393633 192:-0.200413 193:0.359767 194:0.697098 195:0.732384 196:0.423802 197:0.280115 198:-0.0236401 199:-0.555489 200:-0.204071 201:0.611231 202:-0.229472 203:0.0405114 204:0.634811 205:-0.10214 206:0.678349 207:0.934928 208:0.271096 209:-0.224499 210:-0.483437 211:-0.73578 212:-0.822651 213:-0.959021 214:-1 215:-0.870739 216:-0.903795 217:-1 218:-1 219:-1 220:-1 221:0.262904 222:0.434604 223:0.426488 224:0.653653 225:0.0876334 226:0.773793 227:0.749014 228:0.510127 229:-0.172544 230:-0.327672 231:0.278948 232:0.126672 233:0.128713 234:0.113502 235:0.123237 236:0.453046 237:-0.438334 238:-0.0638814 239:0.30065 240:0.592346 241:-0.493433 242:0.538012 243:-0.320919 244:-0.626877 245:-0.529246 246:0.374674 247:0.469035 248:0.320963 249:0.181464 250:-0.184698 
-160.5664699593713 -0 0 469.0099634154967 0 2:-1 3:-1 4:-0.544931 5:-0.40137 6:-0.241618 7:0.0587586 8:-0.0273794 9:-0.390081 10:-0.497288 11:0.265919 12:0.0591402 13:-0.152454 14:0.595975 15:0.198193 16:-0.151499 17:0.320853 18:0.121828 19:0.230333 20:0.545517 21:0.0558637 22:0.316852 23:0.130707 24:0.26803 25:-0.64318 26:-1 27:-1 35:-1 36:-0.0675 37:-0.242283 38:-0.512057 39:-0.767654 40:0.572462 41:0.00931469 42:0.111322 43:0.434906 44:-0.204205 45:0.523186 46:0.573126 47:0.446 48:0.492679 49:0.871348 50:0.862422 51:0.188498 52:0.877607 53:0.219847 54:0.184959 55:-0.54692 56:0.324396 57:-0.0938399 58:-0.382643 59:-0.107834 60:-0.3428 61:0.208196 62:-0.320391 63:0.750449 64:0.608564 65:0.353145 66:-0.831554 67:-0.431163 68:-0.321656 69:-0.545358 70:-1 71:-0.612625 72:-0.345538 73:-0.241048 74:-0.0466877 75:0.62728 76:-0.189828 77:-0.350932 78:0.00988486 79:0.187971 80:0.592884 81:0.638743 82:0.686457 83:-0.119091 84:0.533841 85:0.434165 86:0.44243 87:0.820845 88:0.735511 89:0.628363 90:0.184933 91:-0.0241683 92:0.097423 93:-0.432435 94:0.887098 95:-0.468509 96:-0.012561 97:0.226785 98:-0.355254 99:-0.58177 100:0.584512 101:-0.302617 102:-0.646032 103:-1 104:-1 105:-1 106:-1 107:-1 108:-1 109:-1 110:-1 111:-0.367931 112:-0.563939 113:-0.344606 114:0.104175 115:0.102234 116:-0.0165843 117:0.441303 118:-0.63333 119:0.255483 120:0.636941 121:0.540337 122:0.177504 123:-0.228181 124:-0.414243 125:0.295029 126:-0.421462 127:-0.255896 128:-0.772633 129:-0.247937 130:0.768242 131:0.219927 132:0.340036 133:0.942104 134:0.691164 135:0.785984 136:0.315774 137:0.221965 138:0.382056 139:0.481112 140:-0.454002 141:-1 142:-1 143:-1 144:-1 145:-0.71899 146:-0.949388 147:-0.402825 148:-0.29458 149:-0.718809 150:-0.0591775 151:-0.127277 152:0.111836 153:0.123161 154:-0.518285 155:-0.3867 156:0.766801 157:0.639978 158:-0.170964 159:-0.428106 160:0.449431 161:0.060194 162:0.0687908 163:0.103621 164:-0.778771 165:-0.103824 166:0.628571 167:0.661464 168:0.642053 169:0.792533 170:0.725166 171:-0.201124 172:0.459077 173:0.662894 174:0.43467 175:-0.454002 176:0.482631 177:-0.0526715 178:0.0563839 179:0.00673386 180:-0.326535 181:-0.17562 182:-0.069888 183:0.531627 184:-0.0511508 185:0.529536 186:0.286545 187:0.425041 188:0.663938 189:0.394343 190:0.105313 191:0.250998 192:-0.271081 193:0.440449 194:0.637613 195:0.664347 196:0.3282 197:0.149109 198:-0.106657 199:-0.546642 200:-0.250664 201:0.638043 202:-0.202887 203:0.196562 204:0.870352 205:-0.194036 206:0.5739 207:1 208:0.266774 209:-0.217019 210:-0.511243 211:-0.756325 212:-0.840729 213:-0.963171 214:-1 215:-0.883829 216:-0.913538 217:-1 218:-1 219:-1 220:-1 221:0.17012 222:0.401593 223:0.499113 224:0.649577 225:-0.0212938 226:0.600366 227:0.583863 228:0.355629 229:-0.257282 230:-0.396461 231:0.148107 232:0.0112914 233:0.0130693 234:-0.000413736 235:0.00832092 236:0.406676 237:-0.244888 238:-0.0241548 239:0.350513 240:0.495281 241:-0.535316 242:0.410601 243:-0.390394 244:-0.665066 245:-0.577439 246:0.233952 247:0.410631 248:0.205161 249:0.111896 250:-0.233253 
-0 -0.6014740388620931 0 24.44851268571901 0 2:-1 3:0.372014 4:-0.570544 5:-0.412492 6:-0.0698088 7:0.110069 8:0.704694 9:0.0553171 10:-0.336006 11:0.26097 12:0.110482 13:-0.145051 14:0.593982 15:0.193038 16:-0.170256 17:0.320283 18:0.214089 19:0.235907 20:0.511354 21:0.017903 22:0.242591 23:0.0669219 24:0.19653 25:-0.663264 26:-1 27:-1 35:-1 36:-0.12 37:-0.284939 38:-0.539577 39:-0.769797 40:0.564314 41:-0.0165537 42:0.0984212 43:0.51079 44:-0.184041 45:0.587831 46:0.678042 47:0.375864 48:0.452347 49:0.805072 50:0.994884 51:0.180516 52:0.792063 53:0.15102 54:0.140054 55:-0.572489 56:0.249683 57:-0.144978 58:-0.417441 59:-0.158122 60:-0.379887 61:0.140023 62:-0.358728 63:0.651783 64:0.517827 65:0.276688 66:-0.841044 67:-0.46318 68:-0.359873 69:-0.570971 70:-1 71:-0.634423 72:-0.338522 73:-0.283851 74:-0.100411 75:0.535522 76:-0.235506 77:-0.383193 78:-0.0145475 79:0.216467 80:0.720538 81:0.695719 82:0.671734 83:-0.142884 84:0.518287 85:0.499561 86:0.452845 87:0.783436 88:0.891064 89:0.781579 90:0.236529 91:-0.0572464 92:0.047619 93:-0.464431 94:0.780543 95:-0.498467 96:-0.0682543 97:0.157599 98:-0.391589 99:-0.605348 100:0.495085 101:-0.341876 102:-0.665974 103:-1 104:-1 105:-1 106:-1 107:-1 108:-1 109:-1 110:-1 111:-0.403516 112:-0.588491 113:-0.381499 114:0.041929 115:0.064812 116:-0.0278968 117:0.452674 118:-0.646563 119:0.467587 120:0.609518 121:0.500335 122:0.207718 123:-0.181956 124:-0.415225 125:0.313607 126:-0.39488 127:-0.239365 128:-0.771364 129:-0.231503 130:0.843561 131:0.424012 132:0.381952 133:0.836868 134:0.599894 135:0.685283 136:0.241583 137:0.153058 138:0.304018 139:0.397525 140:-0.484739 141:-1 142:-1 143:-1 144:-1 145:-0.735236 146:-0.95224 147:-0.436442 148:-0.334299 149:-0.696758 150:-0.0314945 151:-0.143571 152:0.230792 153:0.295426 154:-0.446092 155:-0.322072 156:0.721923 157:0.569108 158:-0.200906 159:-0.44482 160:0.467797 161:0.180672 162:0.118127 163:0.183891 164:-0.7698 165:-0.0838793 166:0.649659 167:0.768862 168:0.561263 169:0.691434 170:0.627874 171:-0.246181 172:0.376775 173:0.569134 174:0.353908 175:-0.484739 176:0.399026 177:-0.106101 178:-0.00318249 179:-0.0500448 180:-0.364492 181:-0.222115 182:-0.122407 183:0.445228 184:-0.104656 185:0.467677 186:0.357083 187:0.387647 188:0.60071 189:0.350336 190:0.0653956 191:0.200519 192:-0.301652 193:0.380775 194:0.77427 195:0.709298 196:0.306511 197:0.225685 198:0.065623 199:0.0781403 200:-0.0134467 201:0.72657 202:-0.239407 203:0.131278 204:0.778498 205:-0.239466 206:0.661611 207:0.973775 208:0.235371 209:-0.22937 210:-0.512783 211:-0.751661 212:-0.789631 213:-0.930492 214:-1 215:-0.890374 216:-0.918409 217:-1 218:-1 219:-1 220:-1 221:0.104139 222:0.331757 223:0.455504 224:0.797424 225:0.00480429 226:0.571442 227:0.586339 228:0.468676 229:0.00933798 230:0.195754 231:0.720577 232:0.0306481 233:-0.0439604 234:-0.0566818 235:0.0219848 236:0.327315 237:-0.261161 238:-0.0371699 239:0.364777 240:0.473206 241:-0.561521 242:0.345206 243:-0.424779 244:-0.683945 245:-0.601257 246:0.164397 247:0.33108 248:0.13723 249:0.0491474 250:-0.276495 
-0 -314.2503441079079 42.4338882149401 10.74819226755728 0 2:-1 3:0.269625 4:-0.602134 5:-0.455516 6:-0.137928 7:0.0284138 8:0.579531 9:0.066762 10:0.626267 11:0.476081 12:0.517908 13:0.3034 14:0.730828 15:0.134505 16:-0.225231 17:0.315594 18:0.303292 19:0.313969 20:0.430005 21:-0.056722 22:0.15149 23:-0.0112997 24:0.108798 25:-0.688033 26:-1 27:-1 35:-1 36:-0.184375 37:-0.337325 38:-0.573363 39:-0.756192 40:0.572205 41:-0.0438803 42:0.0548031 43:0.474474 44:-0.223318 45:0.676735 46:0.901899 47:0.475759 48:0.421258 49:0.709095 50:0.892645 51:0.159566 52:0.71725 53:0.0666612 54:0.0564578 55:-0.603812 56:0.15805 57:-0.207625 58:-0.46018 59:-0.219854 60:-0.425335 61:0.0564835 62:-0.40573 63:0.530665 64:0.406527 65:0.183208 66:-0.852906 67:-0.502668 68:-0.407643 69:-0.601921 70:-1 71:-0.661217 72:-0.264416 73:-0.135737 74:0.0225985 75:0.844911 76:-0.246448 77:-0.418358 78:-0.0612986 79:0.20314 80:0.683684 81:0.721986 82:0.750265 83:-0.15508 84:0.446408 85:0.457438 86:0.43133 87:0.753487 88:0.770498 89:0.939887 90:0.426236 91:-0.0146318 92:0.11586 93:-0.46018 94:0.805762 95:-0.535252 96:-0.136536 97:0.0727178 98:-0.43622 99:-0.634303 100:0.385519 101:-0.390403 102:-0.690071 103:-1 104:-1 105:-1 106:-1 107:-1 108:-1 109:-1 110:-1 111:-0.447151 112:-0.61867 113:-0.325798 114:0.0488055 115:0.0325599 116:0.00318506 117:0.575446 118:-0.638 119:0.605766 120:0.533634 121:0.553273 122:0.239493 123:-0.165881 124:-0.393774 125:0.292801 126:-0.433168 127:-0.213768 128:-0.773614 129:-0.281426 130:0.751653 131:0.833219 132:0.332471 133:0.75377 134:0.501671 135:0.610525 136:0.150537 137:0.0685408 138:0.208489 139:0.29505 140:-0.522732 141:-1 142:-1 143:-1 144:-1 145:-0.754555 146:-0.955804 147:-0.434341 148:-0.38312 149:-0.6487 150:0.00962889 151:-0.130061 152:0.177934 153:0.473253 154:-0.476907 155:-0.325812 156:0.715565 157:0.530192 158:-0.148763 159:-0.407318 160:0.39881 161:0.135868 162:0.0429238 163:0.147871 164:-0.766801 165:-0.00302446 166:0.792612 167:0.814135 168:0.512578 169:0.598772 170:0.557045 171:-0.268577 172:0.32898 173:0.454114 174:0.254495 175:-0.522732 176:0.29646 177:-0.171628 178:-0.0722019 179:-0.0300181 180:-0.168622 181:-0.00455738 182:0.150889 183:0.661407 184:-0.130987 185:0.400727 186:0.287531 187:0.460412 188:0.790395 189:0.508061 190:0.132798 191:0.224132 192:-0.315194 193:0.481775 194:0.82965 195:0.635424 196:0.265514 197:0.550855 198:0.237982 199:0.0149305 200:-0.0857073 201:0.599951 202:-0.295168 203:0.0483477 204:0.648107 205:-0.295262 206:0.614359 207:0.93132 208:0.237553 209:-0.229187 210:-0.443309 211:-0.767024 212:-0.61004 213:-0.58105 214:-0.326645 215:0.220071 216:-0.01644 217:-0.433607 218:-1 219:-1 220:-1 221:0.0683689 222:0.379153 223:0.447413 224:0.843842 225:-0.0604914 226:0.477545 227:0.494314 228:0.426872 229:0.480836 230:0.583015 231:0.594488 232:-0.00958345 233:-0.114059 234:-0.0746104 235:-0.0204082 236:0.274767 237:-0.28892 238:-0.0772871 239:0.340908 240:0.557481 241:-0.521101 242:0.613966 243:-0.309022 244:-0.622087 245:-0.613182 246:0.0966456 247:0.260304 248:0.0537978 249:-0.0277232 250:-0.329546 
-0 -0 66.00332288161677 272.6584638900832 0 2:-1 3:0.0921502 4:-0.659338 5:-0.533813 6:-0.261894 7:-0.119448 8:0.352673 9:-0.0867907 10:0.392596 11:0.421808 12:0.387758 13:0.269125 14:0.513041 15:0.015422 16:-0.278413 17:0.274085 18:0.337501 19:0.242781 20:0.414472 21:0.031698 22:0.114534 23:0.317683 24:0.58228 25:-0.358996 26:-0.358768 27:0.777778 35:-1 36:-0.301875 37:-0.432554 38:-0.617286 39:-0.747763 40:0.455671 41:0.0020928 42:-0.0283914 43:0.383872 44:-0.268129 45:0.803044 46:0.999217 47:0.462627 48:0.331165 49:0.728018 50:0.758687 51:0.114671 52:0.551225 53:-0.0214575 54:0.0438147 55:-0.608586 56:0.109004 57:-0.269357 58:-0.463216 59:-0.196312 60:-0.478117 61:-0.00847388 62:-0.419422 63:0.535925 64:0.535559 65:0.105309 66:-0.747726 67:-0.403949 68:-0.490446 69:-0.659552 70:-1 71:-0.0576748 72:-0.195133 73:0.308192 74:-0.114901 75:0.638493 76:-0.327734 77:-0.46406 78:-0.0970333 79:0.142022 80:0.719019 81:0.771783 82:0.69313 83:-0.141911 84:0.463619 85:0.499379 86:0.419698 87:0.63942 88:0.639756 89:0.766966 90:0.304669 91:-0.0780088 92:0.156086 93:-0.418469 94:0.81261 95:-0.523808 96:-0.225907 97:-0.0292964 98:-0.452037 99:-0.611488 100:0.760249 101:0.131407 102:-0.203988 103:0.0725806 104:-1 105:-1 106:-1 107:-1 108:-1 109:-1 110:-1 111:-0.526795 112:-0.673402 113:-0.422733 114:-0.102032 115:-0.115898 116:-0.141021 117:0.397972 118:-0.670856 119:0.487189 120:0.364607 121:0.469481 122:0.226585 123:-0.220698 124:-0.442796 125:0.17966 126:-0.405081 127:-0.257157 128:-0.792492 129:-0.294091 130:0.759049 131:0.931626 132:0.518239 133:0.895723 134:0.683886 135:0.603099 136:0.0454345 137:0.0511617 138:0.0346768 139:0.108988 140:-0.591035 141:-1 142:-1 143:-1 144:-1 145:-0.789682 146:-0.961982 147:-0.515583 148:-0.471659 149:-0.699208 150:-0.135607 151:-0.255087 152:0.00852558 153:0.30816 154:-0.552106 155:-0.209543 156:0.674249 157:0.327338 158:-0.251889 159:-0.459051 160:0.409465 161:0.0512332 162:-0.0548401 163:0.0785537 164:-0.781038 165:0.122018 166:0.908863 167:0.908251 168:0.80814 169:0.77154 170:0.387179 171:-0.335038 172:0.51115 173:0.342765 174:0.13566 175:-0.523159 176:0.11007 177:-0.188734 178:-0.0849827 179:0.0433765 180:-0.0804897 181:-0.0742531 182:0.0511195 183:0.509618 184:-0.117587 185:0.292207 186:0.259911 187:0.525204 188:0.832311 189:0.501865 190:-0.0122652 191:0.130958 192:-0.310945 193:0.494264 194:0.827689 195:0.57338 196:0.130472 197:0.599074 198:0.160974 199:-0.103833 200:-0.0476152 201:0.617853 202:-0.332274 203:0.0159125 204:0.529662 205:-0.396549 206:0.677977 207:0.969892 208:0.173076 209:-0.292453 210:-0.510208 211:-0.800524 212:-0.666069 213:-0.641221 214:-0.423756 215:0.0444505 216:-0.157702 217:-0.515041 218:-1 219:-1 220:-1 221:-0.0374457 222:0.302605 223:0.427684 224:0.840531 225:-0.0594026 226:0.405026 227:0.601981 228:0.691592 229:0.312474 230:0.491012 231:0.769682 232:-0.121549 233:-0.178218 234:-0.11957 235:-0.133222 236:0.579797 237:-0.251984 238:-0.10557 239:0.369927 240:0.679303 241:-0.537776 242:0.606645 243:-0.380192 244:-0.67239 245:-0.658898 246:-0.030697 247:0.102064 248:-0.0831586 249:-0.0907121 250:-0.191074 
-281.3571725439996 -12.15065314049866 36.51444287321615 28.53500932625715 149.9519295978987 2:-1 3:-0.0307167 4:-0.516756 5:-0.443496 6:-0.0182303 7:-0.0626207 8:0.383963 9:0.282308 10:0.568734 11:0.401023 12:0.582361 13:0.824102 14:0.623927 15:0.00543951 16:-0.252382 17:0.404302 18:0.372068 19:0.193622 20:0.373724 21:0.0984377 22:0.0834598 23:0.390508 24:0.403222 25:-0.431297 26:-0.431058 27:0.577778 35:-1 36:0.23875 37:0.218148 38:-0.051252 39:-0.647748 40:0.541842 41:-0.0336049 42:-0.000577396 43:0.509859 44:-0.275021 45:0.982744 46:0.932829 47:0.46291 48:0.339101 49:0.63604 50:0.604266 51:-0.00316901 52:0.404333 53:-0.132219 54:-0.0589646 55:-0.648247 56:0.0529284 57:-0.222469 58:-0.490915 59:-0.231755 60:-0.471064 61:-0.0820959 62:-0.456206 63:0.489222 64:0.468591 65:0.225043 66:0.902728 67:-0.0933831 68:0.802548 69:-0.0939168 70:-1 71:0.607175 72:0.055251 73:0.312497 74:0.274462 75:0.624437 76:-0.294159 77:-0.454419 78:-0.104183 79:0.182376 80:0.8441 81:0.882947 82:0.722077 83:-0.147945 84:0.422812 85:0.612837 86:0.355913 87:0.606876 88:0.618821 89:0.69235 90:0.203309 91:-0.151522 92:0.0421717 93:-0.444626 94:0.725762 95:-0.537173 96:-0.267213 97:-0.102145 98:-0.473536 99:-0.629761 100:0.866459 101:0.620502 102:0.646863 103:0.901882 104:-1 105:0.90604 106:-1 107:-1 108:-1 109:-1 110:-0.618855 111:-0.220504 112:0.411765 113:0.715164 114:0.529538 115:0.515972 116:0.0260297 117:0.522434 118:-0.696323 119:0.679691 120:0.379158 121:0.727938 122:0.174877 123:-0.258356 124:-0.402509 125:0.619419 126:-0.203963 127:-0.142262 128:-0.781819 129:-0.296036 130:0.679031 131:0.950023 132:0.559042 133:0.708305 134:0.562784 135:0.448632 136:0.00915744 137:-0.0418928 138:0.0560822 139:0.0755536 140:-0.516756 141:0.880399 142:0.352449 143:-0.572864 144:-0.441962 145:0.180681 146:0.883569 147:0.883506 148:0.815474 149:0.600641 150:0.306118 151:-0.269906 152:-0.0771314 153:0.59517 154:-0.57156 155:-0.229189 156:0.645873 157:0.280535 158:-0.270869 159:-0.4187 160:0.555109 161:0.490311 162:0.270168 163:0.149287 164:-0.762557 165:0.104151 166:0.948476 167:0.796262 168:0.639583 169:0.702001 170:0.255956 171:-0.385319 172:0.348201 173:0.190731 174:0.00701856 175:-0.576948 176:0.284967 177:-0.122761 178:-0.160767 179:0.0552701 180:0.183674 181:0.537817 182:0.491439 183:0.544814 184:-0.161089 185:0.344952 186:0.277565 187:0.484217 188:0.807907 189:0.567445 190:-0.0293806 191:0.350479 192:-0.334917 193:0.423741 194:0.836155 195:0.638106 196:0.10652 197:0.683501 198:0.242252 199:0.131907 200:0.168594 201:0.816569 202:-0.38173 203:0.0243591 204:0.538031 205:-0.361303 206:0.79901 207:0.882837 208:0.186212 209:-0.221896 210:-0.514041 211:-0.732488 212:0.37472 213:-0.363707 214:-0.0345104 215:0.0809926 216:-0.195454 217:-0.569736 218:-1 219:-1 220:-1 221:0.0150624 222:0.260991 223:0.415883 224:0.825951 225:-0.00855344 226:0.445611 227:0.697461 228:0.96691 229:0.77547 230:0.763057 231:0.883415 232:0.504317 233:0.793861 234:0.79589 235:0.363756 236:0.596293 237:-0.193162 238:-0.116796 239:0.527282 240:0.912734 241:-0.460052 242:0.913065 243:-0.370378 244:-0.673581 245:-0.675592 246:-0.0866822 247:0.0791915 248:-0.044953 249:0.272056 250:-0.0859525 
